[0.06025925651192665, -0.010584683157503605, 0.03182847797870636, -0.03940892964601517, -0.004251064267009497, -0.050137680023908615, -0.03727087378501892, -0.010000310838222504, -0.060691021382808685, -9.874779789242893e-05, 0.04425099119544029, 0.04406055808067322, -0.016222145408391953, 0.006940386723726988, -0.006315877661108971, 0.011688967235386372, -0.013307024724781513, -0.03084765560925007, 0.03616747632622719, -0.00557286711409688, 0.015242928639054298, -0.039386313408613205, -0.05599673464894295, -0.05170881375670433, 0.02952887862920761, 0.018325557932257652, 0.049561433494091034, 0.01524497289210558, 0.019318614155054092, -0.018106704577803612, -0.02466672845184803, 0.006514297798275948, -0.05854800343513489, 0.03543848171830177, -0.05009064823389053, -0.034997448325157166, -0.00029775226721540093, 0.03247852623462677, -0.007723099086433649, 0.04835556447505951, -0.008705194108188152, 0.02916516736149788, -0.01330921333283186, -0.02882702276110649, 0.029501866549253464, 0.059073884040117264, 0.03372197970747948, 0.037578780204057693, -0.04784797877073288, -0.03246255964040756, 0.028922440484166145, -0.010717150755226612, 0.04943462833762169, 0.010584412142634392, 0.046644177287817, -0.048289332538843155, 0.05701301619410515, 0.016063643619418144, -0.011895367875695229, 0.04431861266493797, -0.038554634898900986, -0.039896298199892044, 0.00047658017138019204, -0.04122897982597351, -0.050824977457523346, 0.0036481854040175676, -0.027963915839791298, -0.027591446414589882, 0.026230715215206146, 0.016673877835273743, -0.02579641155898571, 0.0040902807377278805, -0.01914728805422783, 0.005061403848230839, 0.04799412935972214, -0.0451263003051281, 0.018929453566670418, 0.003316527232527733, -0.009092207998037338, 0.022915367037057877, -0.03285522013902664, -0.025324871763586998, 0.0265927966684103, -0.023288482800126076, -0.02917134016752243, -0.0005818418576382101, 0.012985358014702797, -0.02415280230343342, 0.04532327130436897, 0.05168050900101662, 0.04381836950778961, -0.0319378599524498, 0.04610658809542656, 0.018535878509283066, -0.047093890607357025, 0.03283458203077316, 0.060452189296483994, 0.05357828736305237, -0.041373006999492645, 0.007997391745448112, -0.056259576231241226, -0.04809277877211571, -0.058299172669649124, 0.0334453284740448, 0.03755206614732742, 0.043519604951143265, 0.0017381039215251803, 0.04021965712308884, 0.005442701280117035, -0.04110945016145706, -0.0424715019762516, 0.013593903742730618, 0.028171081095933914, -0.059321314096450806, -0.012850509025156498, -0.027131082490086555, -0.02428298443555832, 0.05299248546361923, -0.05569562688469887, -0.005651184823364019, -0.022155169397592545, -0.0359855517745018, 0.010839699767529964, -0.040931493043899536, 0.0035331156104803085, -0.01731623150408268, -0.0009375507361255586, 0.03893674165010452, 0.0034667521249502897, 0.028502611443400383, 0.058275703340768814, 0.025098998099565506, 0.05764618515968323, -0.024326367303729057, 0.008703872561454773, -0.0373348742723465, 0.03059670515358448, 0.005029871128499508, 0.022986087948083878, 0.021495351567864418, 0.032113753259181976, -0.048491060733795166, 0.012156344950199127, -0.034617554396390915, -0.027494939044117928, -0.05766887217760086, 0.044785983860492706, -0.04393638297915459, 0.05334395915269852, 0.01929405890405178, -0.010757186450064182, -0.005300859455019236, -0.04617868363857269, -0.015812832862138748, -0.056928202509880066, -0.018358483910560608, -0.016315540298819542, -0.05943313241004944, 0.05503131076693535, -0.017441703006625175, -0.019654789939522743, -0.025155652314424515, 0.035979416221380234, 0.01448249164968729, -0.04652285948395729, -0.009225555695593357, -0.010505244135856628, 0.0613231435418129, -0.043507933616638184, -0.012211186811327934, 0.014379916712641716, -0.026128830388188362, -0.025813352316617966, -0.051853328943252563, -0.050211574882268906, 0.0601387582719326, 0.0208112932741642, 0.0401279591023922, 0.03823837637901306, -0.05326501652598381, -0.02322041057050228, -0.05420668050646782, -0.00504290359094739, -0.054165445268154144, 0.014953269623219967, -0.022903524339199066, 0.0159340538084507, -0.027919722720980644, -0.00040940416511148214, -0.015652744099497795, -0.010207484476268291, -0.03264552727341652, 0.013464923948049545, -0.061997637152671814, -0.00746521819382906, -0.0554366298019886, -0.017273390665650368, 0.00020018986833747476, -0.023281091824173927, 0.03768495097756386, 0.055260080844163895, -0.0480651929974556, 0.048028528690338135, 0.033510979264974594, -0.044542670249938965, -0.03270535543560982, -0.02114429511129856, -0.054490432143211365, -0.012071017175912857, 0.055617719888687134, -0.057378336787223816, 0.0333753302693367, -0.019370870664715767, -0.02092028595507145, 0.042227983474731445, 0.024607250466942787, -0.04902636259794235, 0.0026646156329661608, 0.03649875521659851, -0.051287941634655, -0.008152597583830357, 0.056256916373968124, -0.025926189497113228, 0.009053765796124935, 0.019117694348096848, 0.03217098489403725, -0.03527095541357994, 0.011234129779040813, 0.059393927454948425, 0.05722424015402794, -0.011966743506491184, 0.013421531766653061, -0.04748539626598358, 0.01818595640361309, -0.05777433142066002, 0.040067147463560104, -0.032911721616983414, 0.007453700993210077, 0.057253558188676834, 0.04731326922774315, 0.03315754607319832, -0.03893647715449333, 0.042655523866415024, -0.060052499175071716, -0.05360063910484314, 0.03417688235640526, -0.027054641395807266, -0.026398848742246628, 0.05784577131271362, 0.033366262912750244, -0.002744519617408514, -0.011784670874476433, -0.016774125397205353, 0.030419012531638145, 0.036599040031433105, 0.005609579849988222, 0.03665607422590256, -0.008857238106429577, -0.03562575951218605, -0.053006239235401154, -0.032175906002521515, -0.06312648952007294, 0.039677392691373825, 0.001370368292555213, -0.004497474525123835, 0.004014794714748859, 0.0156983882188797, -0.056703947484493256, -0.033809587359428406, -0.027044866234064102, -0.05678447708487511, 0.039821505546569824, 0.0314212366938591, 0.019110284745693207, -0.046928733587265015, -0.03668241947889328, -0.031150322407484055, 0.016040047630667686, 0.054355911910533905, -0.022317426279187202, -0.029812198132276535, -0.05789127200841904, 0.03186318650841713, 0.00907217524945736, 0.033799946308135986, -0.058338142931461334, -0.008223297074437141, -0.009642849676311016, 0.04608995094895363, 0.01034291461110115, -0.021272260695695877, 0.0036015764344483614, 0.021660322323441505, -0.023597946390509605, -0.014940694905817509, 0.024824952706694603, 0.02601802721619606, 0.06249459460377693, -0.029743598774075508, -0.03860028460621834, -0.0018399521941319108, -0.023304259404540062, 0.04815250262618065, 0.04102673381567001, 0.03918124735355377, 0.05660602077841759, 0.011273492127656937, -0.031560420989990234, 0.004919821862131357, -0.010417512618005276, -0.010446779429912567, 0.020224573090672493, 0.017803829163312912, -0.0584634393453598, 0.013488275930285454, 0.060877278447151184, -0.01347318571060896, 0.037054967135190964, -0.03006206452846527, -0.019492698833346367, -0.007387229707092047, 0.022344643250107765, 0.0453970693051815, -0.04497729241847992, -0.028575474396348, 0.015741394832730293, 0.028600985184311867, 0.06212467700242996, 0.050722453743219376, -0.004070160910487175, 0.03279145434498787, -0.02864590287208557, 0.0576537661254406, -0.014737461693584919, -0.046470534056425095, -0.03880768641829491, 0.02702908217906952, 0.03211505338549614, -0.05277713015675545, 0.03029252029955387, -0.03739164397120476, -0.026761241257190704, -0.041262928396463394, 0.01678633876144886, 0.003974674269556999, 0.024240585044026375, -0.006013272795826197, -0.005114311818033457, -0.00344067788682878, -0.014386779628694057, 0.025941666215658188, -0.006584320217370987, 0.0013060817727819085, 0.012694941833615303, -0.04357389360666275, 0.0371236614882946, 0.0021485798060894012, -0.04762081801891327, -0.03394954279065132, -0.03261103853583336, 0.05094742402434349, -0.012765580788254738, -0.060088180005550385, 0.03037668764591217, -0.01634841412305832, -0.0425734706223011, 0.012767426669597626, -0.03969825804233551, 0.032407358288764954, 0.01715569570660591, 0.03325815498828888, 0.019689509645104408, 0.007460550405085087, 0.05252542346715927, -0.020254207774996758, 0.05499517545104027, 0.01605037786066532, 0.024529801681637764, -0.01055603101849556, -0.0061512840911746025, 0.01394652295857668, -0.020175186917185783, 0.03960273414850235, 0.02477080747485161, -0.009886885061860085, -0.00389154814183712, -0.044941503554582596, 0.014386291615664959, -0.006670007482171059, -0.0330682098865509, -0.0604790560901165, 0.023443488404154778, -0.017670832574367523, -0.0004392692353576422, -0.00898181926459074, -0.01598355546593666, 0.057896923273801804, -0.01040246058255434, 0.017536446452140808, -0.01530095748603344, -0.01838797517120838, 0.009730377234518528, 0.0029880006331950426, -0.013151022605597973, 0.003686758456751704, -0.028936129063367844, 0.01162754651159048, -0.03230632096529007, -0.03663967177271843, 0.04254782199859619, -0.04494287446141243, -0.03217535465955734, 0.05508675426244736, 0.025032583624124527, 0.0552421435713768, 0.004706274718046188, 0.018164541572332382, 0.0347125269472599, -0.046786848455667496, 0.024316173046827316, -0.05608760938048363, 0.02370159700512886, -0.053487543016672134, 0.05561099946498871, 0.016893452033400536, -0.03218492865562439, -0.03938926383852959, -0.0008877061773091555, 0.005120562389492989, 0.05177692696452141, -0.03301793709397316, -0.03694304823875427, 0.030868656933307648, -0.005269636865705252, 0.034385211765766144, 0.030349697917699814, 0.008745986968278885, -0.045363955199718475, -0.021463949233293533, -0.046681035310029984, 0.03222640976309776, 0.0026031024754047394, 0.05797933414578438, 0.03425046056509018, -0.010159685276448727, 0.03958705812692642, -0.017636343836784363, 0.021665945649147034, 0.014710444957017899, 0.05211206525564194, -0.05097603797912598, 0.03023560903966427, 0.019536811858415604, -0.012935381382703781, 0.03964216262102127, 0.03320787101984024, 0.023020576685667038, 0.04941131919622421, 0.04258059337735176, -0.032755296677351, -0.008672405034303665, -0.04295031726360321, -0.049312740564346313, 0.04492077976465225, -0.02307765744626522, -0.02238200418651104, 0.028119264170527458, -0.0598701573908329, 0.017886506393551826, 0.010390544310212135, -0.006703909952193499, -0.057036254554986954, 0.032659273594617844, 0.02234882302582264, 0.024993402883410454, -0.025326266884803772, 0.027880487963557243, -0.04560307040810585, -0.0500495545566082, 0.0005840328522026539, -0.04644617438316345, 0.034891217947006226, -0.055379319936037064, 0.005035861860960722, -0.05577097088098526, 0.04614095017313957, 0.026245959103107452, -0.06107562780380249, 0.0018581760814413428, -0.029091399163007736, 0.035264525562524796, 0.04362192749977112, -0.050497304648160934, -0.016013454645872116, 0.03717772662639618, 0.022456590086221695, -0.0028093529399484396, 0.04736952483654022, -0.05101067200303078, 0.03315315395593643, -0.06023126468062401, -0.05286512151360512, -0.0016860251780599356, 0.0011731783160939813, -0.025871677324175835, -0.008427551947534084, -0.056108955293893814, 0.011221990920603275, 0.03666078299283981, -0.004157750401645899, -0.05385901778936386, 0.04616348072886467, -0.030405914410948753, -0.019082529470324516, -0.047514159232378006, -0.033878833055496216, 0.011247425340116024, 0.004895232617855072, -0.05137261375784874, -0.03291349112987518, -0.057218678295612335, 0.052733540534973145, -0.016552027314901352, -0.05729169026017189, -0.03223082050681114, -0.05343155935406685, 0.03734051063656807, -0.029892826452851295, 0.03153377026319504, -0.017513606697320938, -0.05986401438713074, -0.03876056894659996, 0.03983807563781738, -0.0019372956594452262, -0.05962935835123062, 0.0008635011618025601, 0.0008386104600504041, -0.030965222045779228, -0.013430881313979626, 0.03683721274137497, -0.025223905220627785, 0.01429674495011568, 0.04992901161313057, 0.03368708863854408, 0.002665645210072398, -0.00657690828666091, 0.03417513519525528, -0.032397959381341934, -0.04081333056092262, 0.034050941467285156, 0.008865641430020332, 0.04890035092830658, 0.04038340970873833, -0.046858422458171844, 0.03945346921682358, -0.056827057152986526, 0.025507727637887, -0.002399379387497902, -0.0035467275884002447, -0.01601107232272625, 0.006236677058041096, -0.011920152232050896, -0.04541724547743797, 0.0005142835434526205, 0.037358034402132034, 0.00718485563993454, -0.05806798115372658, 0.029800372198224068, 0.04165835678577423, 0.0035034124739468098, -0.04519776999950409, 0.01260168757289648, 0.0002332750300411135, -0.005414498038589954, 0.03638167306780815, -0.048230282962322235, 0.0479823537170887, 0.005767817609012127, 0.022399600595235825, 0.02707671746611595, 0.019048795104026794, -0.05128445103764534, 0.002398773329332471, -0.04758636653423309, -0.05660239979624748, -0.0074759298004209995, 0.05949850380420685, 0.04407807067036629, -0.01029161922633648, 0.019928986206650734, 0.05924259126186371, 0.01433727890253067, 0.005438094958662987, 0.01264412235468626, 0.044057514518499374, 0.043032206594944, 0.03030719980597496, 0.060460202395915985, -0.029470691457390785, 0.04238962382078171, 0.04573659971356392, -0.02821708284318447, 0.04175953567028046, 0.0525558665394783, 0.03245486691594124, 0.021465666592121124, 0.051030483096838, -0.007415523752570152, -0.0502120666205883, -0.06088005751371384, 0.028496576473116875, -0.04258650913834572, -0.016507789492607117, -0.007830847054719925, 0.057382360100746155, -0.018495788797736168, -0.005034258589148521, -0.03192727640271187, -0.024037711322307587, -0.020995652303099632, -0.030431417748332024, -0.04954574629664421, 0.013605421409010887, -0.05847857519984245, 0.051921993494033813, 0.01046017836779356, 0.009053175337612629, -0.046625927090644836, -0.023031435906887054, -0.029561787843704224, 0.015177913010120392, 0.01936197653412819, -0.06107252463698387, -0.004560611676424742, -0.019830016419291496, 0.0018772170878946781, -0.0317314937710762, -0.0030242684297263622, 0.03841882199048996, 0.059521786868572235, 0.03311526030302048, -0.025571079924702644, 0.037046730518341064, 0.041664969176054, -0.010319766588509083, -0.05427663028240204, -0.004097426775842905, 0.05949315056204796, 0.01063587237149477, 0.0349525548517704, -0.02708834409713745, -0.020618589594960213, -0.054821792989969254, 0.02351953834295273, -0.004793531261384487, 0.041842468082904816, -0.043352123349905014, 0.05945609509944916, -0.040672387927770615, 0.03773152828216553, 0.028097040951251984, 0.029941478744149208, 0.03970563784241676, -0.0037344603333622217, 0.025593720376491547, -0.04837774112820625, 0.016787786036729813, 0.0003172839351464063, 0.04196522384881973, -0.005210351664572954, -0.0015789656899869442, -0.007703246548771858, -0.05210965871810913, 0.05262067914009094, -0.05816056579351425, 0.03844338655471802, -0.01787983998656273, -0.02615177072584629, 0.028018267825245857, -0.0267346054315567, 0.009505197405815125, -0.0215309951454401, 0.026477793231606483, -0.022069856524467468, 0.05955322086811066, 0.0012847089674323797, -0.033413711935281754, -0.05770358070731163, -0.03465291112661362, -0.01624174974858761, -0.0007260644342750311, -0.043179575353860855, 0.020069273188710213, 0.04431042820215225, 0.029467664659023285, -0.02830815687775612, 0.005898462142795324, -0.03158579394221306, 0.056441616266965866, 0.05703451856970787, -0.029445171356201172, 0.0013379104202613235, -0.016871696338057518, 0.008870965801179409, -0.0245886892080307, -0.007790941745042801, -0.05980581417679787, 0.05129508301615715, 0.036732446402311325, 0.035505522042512894, 0.019738832488656044, 0.008545917458832264, 0.029146555811166763, 0.05099686607718468, 0.01928628236055374, 0.04263932630419731, -0.002057113219052553, 0.012498799711465836, -0.014469748362898827, -0.0005689316312782466, 0.03807983919978142, 0.04236569255590439, 0.049817707389593124, -0.015237255953252316, 0.009713325649499893, -0.01338657084852457, 0.05074801668524742, 0.009827646426856518, -0.042500998824834824, 0.043469976633787155, 0.0002539140696171671, -0.04295031353831291, -0.00521305063739419, 0.020750967785716057, -0.01673882082104683, -0.006826705299317837, -0.011210664175450802, 6.649722308793571e-06, 0.03175751119852066, -0.02932165376842022, 0.015639714896678925, 0.04684286564588547, 0.03836778178811073, 0.05954188108444214, -0.028768321499228477, 0.05692601203918457, -0.01697235181927681, 0.019910981878638268, 0.030960937961935997, 0.009461457841098309, -0.04250138998031616, 0.020201586186885834, 0.00971001386642456, 0.051902640610933304, 0.011109452694654465, -0.06120283901691437, 0.01717761531472206, 0.043206360191106796, 0.007075626868754625, 0.04336199909448624, -0.02184133417904377, 0.0012380577391013503, -0.008635669015347958, 0.0359194353222847, 0.006317851133644581, -0.03712354600429535, -0.01736222766339779, 0.05275942012667656, 0.05124269425868988, 0.011657950468361378, 0.042209748178720474, 0.006827041506767273, -0.051804665476083755, 0.054176073521375656, -0.03135719895362854, -0.04980579763650894, -0.051495958119630814, -0.05672569200396538, -0.054324567317962646, -0.025562534108757973, -0.046814389526844025, -0.05592077970504761, -0.054094552993774414, 0.03362715244293213], [0.057644303888082504, -0.016218284144997597, -0.05254213884472847, 0.056702934205532074, 0.012029665522277355, -0.053985629230737686, 0.007406070828437805, 0.039437998086214066, -0.04055492952466011, 0.05341777205467224, 0.06051013246178627, 0.020766235888004303, -0.02077053114771843, -0.0550428107380867, 0.011454617604613304, 0.010176997631788254, -0.028731780126690865, 0.05624080076813698, -0.054436635226011276, -0.05432305112481117, -0.048017844557762146, 0.012746213003993034, -0.04818729683756828, -0.0594056099653244, 0.005757886916399002, 0.05504888668656349, 0.020089618861675262, -0.009908938780426979, 0.054985787719488144, -0.05415688827633858, 0.004541343078017235, 0.005054731387645006, 0.026987461373209953, 0.055012673139572144, -0.05977360159158707, -0.01980595663189888, 0.02048421837389469, 0.020011549815535545, -0.052089620381593704, 0.00799455214291811, 0.017178848385810852, 0.0556977204978466, 0.0026601706631481647, 0.052059222012758255, -0.051752060651779175, -0.00379529339261353, -0.039881717413663864, 0.01842292957007885, 0.05567276105284691, -0.048613909631967545, -0.009518910199403763, -0.04331290349364281, 0.015291965566575527, -0.040534500032663345, 0.004560168832540512, 0.015698593109846115, 0.0525120347738266, 0.0008805868565104902, -0.04568355157971382, 0.04312170296907425, -0.029715796932578087, 0.009418659843504429, 0.03524474427103996, -0.007469894364476204, -0.034471359103918076, 0.06226285547018051, -0.050658974796533585, 0.018684066832065582, -0.02097109705209732, 0.03510674461722374, 0.019355060532689095, 0.04254057630896568, -0.04634152352809906, 0.002681019250303507, 0.0265943743288517, -0.008697547018527985, -0.001142950146459043, -0.0022772299125790596, 0.039599835872650146, -0.029416820034384727, -0.014791459776461124, 0.02148684673011303, -0.01805882342159748, 0.05747199058532715, -0.018459757789969444, 0.03996417671442032, -0.012004868127405643, 0.035336002707481384, 0.012296190485358238, 0.0013093606103211641, 0.05132431164383888, -0.05799568444490433, 0.022554906085133553, -0.003945022355765104, 0.01873963326215744, -0.01274870615452528, 0.0050759464502334595, 0.02892473340034485, -0.024058375507593155, 0.022295571863651276, 0.03685668110847473, -0.002549337688833475, -0.05942654237151146, -0.058514174073934555, 0.00870339572429657, 0.06103026494383812, -0.033727481961250305, 0.057167988270521164, 0.026459500193595886, -0.03611726686358452, -0.016101013869047165, -0.027396665886044502, -0.016851983964443207, 0.0472172349691391, -0.0072763580828905106, -0.02250475063920021, 0.04072616994380951, 0.048445381224155426, -0.018681390210986137, -0.03938651457428932, -0.01513440441340208, 0.012782957404851913, -0.052507273852825165, 0.014008432626724243, -0.03359493613243103, -0.05152985826134682, 0.06148766353726387, -0.0050086271949112415, -0.05100954696536064, 0.01620292477309704, -0.045184679329395294, -0.04924716427922249, -0.04961050674319267, -0.061303067952394485, 0.03628920763731003, 0.03660363331437111, -0.051293957978487015, 0.05384478345513344, -0.049190618097782135, 0.016546843573451042, 0.047706831246614456, -0.05423621088266373, -0.018416598439216614, 0.0060402206145226955, 0.05201101675629616, 0.008181598037481308, -0.025190548971295357, 0.04269722104072571, 0.030150361359119415, 0.0012247301638126373, 0.035791054368019104, 0.043309286236763, 0.05065567046403885, 0.048967450857162476, 0.03394054248929024, 0.019620010629296303, -0.034108344465494156, 0.04071633890271187, -0.049372751265764236, -0.017937472090125084, -0.037228066474199295, 0.00437049800530076, 0.047759346663951874, 0.012717369012534618, -0.05731280520558357, -1.8807154447131325e-06, 0.029540691524744034, 0.0052344477735459805, -0.016394460573792458, -0.006166649982333183, -0.050076037645339966, -0.017023542895913124, 0.04201565682888031, -0.02371579222381115, -0.051771461963653564, 0.014535333961248398, -0.05296114459633827, 0.03069838508963585, 0.03685692325234413, -0.04429156333208084, 0.015149225480854511, 0.005711250007152557, -0.05966201424598694, 0.05551675334572792, -0.057675473392009735, -0.021753067150712013, 0.04243006557226181, 0.029656386002898216, -0.03607027232646942, 0.06215064227581024, 0.03033151850104332, -0.057580720633268356, -0.05262184888124466, 0.05241735652089119, -0.04883835092186928, -0.03978375717997551, -0.0237735603004694, -0.024381930008530617, -0.016813360154628754, 0.02712683565914631, -0.029282990843057632, 0.002504858421161771, 0.054670073091983795, -0.049565620720386505, -0.026068704202771187, 0.015196945518255234, -0.040600042790174484, -0.012361008673906326, 0.023996958509087563, 0.0586572103202343, -0.009699692018330097, -0.022918757051229477, -0.05604852735996246, 0.031773053109645844, -0.03797793388366699, 0.04104955121874809, 0.020546220242977142, 0.057802777737379074, 0.03872807323932648, 0.04400156810879707, -0.025943201035261154, 0.05901046469807625, 0.005763581022620201, -0.028748339042067528, 0.04977116361260414, -0.009702823124825954, 0.010429834946990013, 0.060827404260635376, 0.026682134717702866, 0.021354733034968376, 0.00787920132279396, -0.016988538205623627, 0.06093662977218628, -0.022800667211413383, -0.05433209240436554, 0.04707422852516174, -0.03473560884594917, -0.030046286061406136, -0.026653211563825607, 0.05970883369445801, 0.05473305657505989, -0.028905538842082024, -0.05814830958843231, 0.01664718985557556, -0.008452651090919971, -0.0381833054125309, 0.051365725696086884, 0.03925924748182297, -0.03736075013875961, -0.04545005038380623, 0.03545322269201279, -0.02763916365802288, 0.00028404872864484787, -0.05236726626753807, -0.020752595737576485, -0.03842829540371895, 0.05030599236488342, 0.044344451278448105, -0.0029353885911405087, -0.04698849096894264, -0.007267013657838106, 0.017620647326111794, -0.030503112822771072, 0.06045563519001007, -0.05728590115904808, -0.019621824845671654, 0.009876763448119164, 0.03483098745346069, 0.002333785640075803, -0.04326409846544266, 0.0001428857649443671, 0.03797082602977753, 0.03531415015459061, -0.040445346385240555, -0.05827067419886589, -0.03613511100411415, 0.04794282093644142, 0.04009120166301727, 0.04866500571370125, -0.058190930634737015, -0.046781159937381744, 0.04721609875559807, -0.04887302964925766, 0.017507953569293022, -0.044372327625751495, -0.03318922594189644, -0.03233746811747551, 0.01916726678609848, -0.023307951167225838, -0.01105315238237381, -0.022691424936056137, 0.012851784937083721, 0.054982222616672516, 0.038249991834163666, -0.05606156960129738, 0.021212175488471985, -0.05404602736234665, -0.025268670171499252, -0.021649006754159927, -0.052037227898836136, 0.034857019782066345, -0.020380662754178047, 0.02142283320426941, 0.040784113109111786, 0.021120402961969376, 0.05439099669456482, -0.028351852670311928, -0.007176827639341354, 0.057924289256334305, -0.04163719713687897, 0.03918199986219406, -0.04393988847732544, -0.059110529720783234, 0.026743588969111443, 0.04219755157828331, 0.04937810078263283, -0.054409366101026535, 0.03510758653283119, -0.04731917008757591, 0.014226916246116161, 0.02609720453619957, -0.030517293140292168, 0.056626949459314346, -0.045882489532232285, -0.046875566244125366, 0.007035142742097378, 0.03898371011018753, 0.030913278460502625, 0.005377419292926788, 0.0395638570189476, 0.025160904973745346, -0.03731771185994148, 0.03417550027370453, -0.04792095720767975, 0.014651027508080006, 0.061770521104335785, -0.023621659725904465, 0.05901502072811127, 0.056674256920814514, 0.02640874870121479, -0.029575524851679802, 0.04409133642911911, 0.009298124350607395, 0.014222835190594196, -0.05160120129585266, -0.042812690138816833, -0.0451679490506649, 0.02493990957736969, -0.05885004997253418, -0.01634967140853405, -0.049666523933410645, -0.04638265073299408, -0.05241197720170021, 0.009517284110188484, -0.020393744111061096, -0.039546750485897064, 0.053891271352767944, 0.04665856063365936, -0.02382657304406166, 0.021648159250617027, -0.023202810436487198, -0.03731184080243111, 0.0038532193284481764, -0.027399178594350815, 0.05588420480489731, 0.00041838892502710223, -0.016291756182909012, -0.052196819335222244, 0.005270023364573717, -0.03389694169163704, -0.01710081286728382, -0.024749230593442917, 0.029296737164258957, -0.05509033426642418, -0.011477207764983177, -0.027744721621274948, -0.025820650160312653, -0.002520441310480237, 0.057595640420913696, 0.01762724481523037, -0.036750487983226776, 0.0509420745074749, 0.03216524422168732, 0.028745433315634727, -0.050616566091775894, -0.01642066054046154, 0.02510259859263897, -0.04987826943397522, -0.015672078356146812, -0.024172216653823853, -0.03585320711135864, 0.029048126190900803, 0.003908489365130663, -0.029551630839705467, 0.014763886108994484, 0.00025164749240502715, -0.04067886993288994, -0.0398402139544487, 0.04606679826974869, -0.03963387757539749, 0.00931638851761818, 0.018268128857016563, -0.016062691807746887, 0.011320453137159348, 0.00686002429574728, 0.03153263032436371, 0.03096933290362358, -0.009159010834991932, 0.03541482239961624, -0.03143445402383804, -0.015731222927570343, -0.021749284118413925, 0.036377888172864914, 0.05870690941810608, -0.05349751561880112, -0.05241592973470688, -0.055693428963422775, 0.003707194933667779, -0.023460805416107178, 0.02718948759138584, -0.05791647359728813, 0.017153484746813774, 0.004397124517709017, -0.02026340551674366, -0.021551864221692085, 0.033302344381809235, 0.059365592896938324, -0.045568231493234634, -0.022401656955480576, -0.02211298793554306, -0.03075532801449299, 0.022714419290423393, -0.055619318038225174, 0.024986963719129562, 0.0179129745811224, 0.055952224880456924, 0.05802883207798004, -0.05573267117142677, -0.017170071601867676, 0.0007198485545814037, -0.01804010197520256, 0.013490605168044567, -0.034416377544403076, 0.0028822447638958693, 0.049747534096241, -0.008533209562301636, 0.02841813862323761, 0.007298022508621216, -0.03994535282254219, -0.011347956955432892, -0.04230843111872673, -0.016398098319768906, 0.008547653444111347, -0.032120127230882645, -0.010501239448785782, -0.0182336438447237, -0.05686110630631447, -0.030379747971892357, -0.025981519371271133, -0.018827008083462715, -0.0017243979964405298, -0.0022731912322342396, 0.0032987045124173164, 0.036775581538677216, 0.033828627318143845, 0.06143907085061073, 0.012422150932252407, 0.0002772541483864188, -0.040856048464775085, 0.0070159886963665485, -0.032466158270835876, 0.021621979773044586, -0.023151393979787827, 0.02023780159652233, -0.03975168615579605, -0.022957170382142067, -0.041495878249406815, -0.01560068316757679, 0.002090065274387598, -0.014732275158166885, 0.018422633409500122, 0.03130805492401123, -0.013071299530565739, -0.017082257196307182, -0.018293220549821854, -0.010216805152595043, 0.05686924606561661, -0.021853365004062653, 0.030065368860960007, -0.001525075058452785, -0.0433722659945488, -0.01144766341894865, -0.04816582053899765, 0.006797129288315773, -0.015278098173439503, -0.048191238194704056, 0.02812751568853855, 0.05886703357100487, -0.042864687740802765, -0.050585098564624786, -0.044630058109760284, 0.0512336827814579, -0.0001472402800573036, -0.01944844424724579, -0.02236415445804596, -0.0011763409711420536, 0.033647455275058746, -0.05390474572777748, 0.0040390873327851295, -0.042571332305669785, 0.003536781994625926, 0.007984600961208344, -0.03325819596648216, -0.04057047888636589, 0.05851499363780022, -0.01312607154250145, -0.02632400579750538, 0.05768175423145294, 0.02846650965511799, 0.03361662104725838, 0.049784135073423386, 0.049353234469890594, 0.016446562483906746, -0.032170310616493225, -0.05114135518670082, -0.007002594880759716, 0.05010069161653519, -0.05651135370135307, 0.02380467765033245, -0.03699647635221481, -0.055489908903837204, 0.036326728761196136, 0.06019853800535202, 0.025093616917729378, -0.035246215760707855, -0.037965692579746246, 0.011592073366045952, -0.03134506568312645, -0.01546183880418539, -0.034516409039497375, 0.021215012297034264, 0.05744338408112526, 0.01702478900551796, 0.03615099936723709, 0.029622146859765053, -0.022996561601758003, -0.05256574600934982, -0.02003474161028862, -0.037802308797836304, 0.023388808593153954, 0.03520945832133293, -0.0009085159399546683, 0.012566061690449715, 0.023818666115403175, -0.05908580124378204, -0.026776425540447235, -0.008838237263262272, 0.06133032217621803, 0.03603002429008484, -0.03967563062906265, -0.020302707329392433, -0.02797580510377884, -0.059068627655506134, 0.02404455468058586, 0.016063276678323746, 0.02789415791630745, 0.000892603537067771, -0.054275982081890106, -0.03705614432692528, 0.03887905552983284, -0.050150252878665924, -0.052697498351335526, 0.009981575421988964, 0.043953996151685715, 0.022531457245349884, 0.04052215814590454, -0.05737142637372017, -0.01153528317809105, -0.004310205113142729, -0.007136340718716383, -0.029465463012456894, -0.05709591880440712, 0.03975983336567879, 0.05321407690644264, 0.027145443484187126, -0.05721684545278549, -0.05164944380521774, 0.013843518681824207, -0.025811826810240746, 0.04787170886993408, -0.053380899131298065, -0.03667867183685303, 0.022779835388064384, -0.01957203634083271, -0.022870613262057304, 0.04129820689558983, 0.05210484191775322, 0.015073730610311031, 0.06123064458370209, 0.059198878705501556, 0.04636345058679581, -0.018383558839559555, 0.04300510138273239, 0.057708512991666794, 0.007284093648195267, -0.004148026462644339, 0.0018242906080558896, 0.01136548351496458, -0.04895688593387604, -0.04140572249889374, 0.037665240466594696, -0.03830355405807495, 0.05382395535707474, 0.0038879020139575005, 0.04247575253248215, 0.009579116478562355, 0.04794309288263321, -0.008092391304671764, 0.0024201315827667713, 0.01216776855289936, -0.017013706266880035, -0.02778601460158825, -0.02201681025326252, 0.026335755363106728, -0.015594356693327427, -0.05485349893569946, -0.02617884986102581, -0.0283462256193161, -0.008607679978013039, 0.03322695195674896, 0.04792588949203491, 0.05250104144215584, 0.047982458025217056, -0.005953097715973854, 0.0335751548409462, -0.03680330887436867, 0.0165812149643898, 0.05477996915578842, -0.014687315560877323, 0.01508951187133789, 0.014163029380142689, 0.0451810397207737, -0.008808140642940998, 0.05838078260421753, -0.030666973441839218, 0.016875989735126495, -0.04128553718328476, -0.0492963045835495, -0.003562778001651168, -0.05063677951693535, 0.0451674684882164, -0.008965102024376392, -0.0560004785656929, 0.05823962762951851, 0.03461607173085213, -0.05786621570587158, 0.047309502959251404, 0.006319282576441765, 0.019702162593603134, 0.05529361590743065, -0.004584399983286858, 0.03332876041531563, 0.04768438637256622, -0.041112516075372696, 0.0216094758361578, -0.010414516553282738, -0.006571767386049032, 0.04658583924174309, 0.011479406617581844, -0.043717507272958755, 0.00534240435808897, 0.041067395359277725, -0.060735538601875305, -0.049971289932727814, 0.0077333636581897736, -0.020376106724143028, -0.02915923111140728, -0.038948025554418564, -0.029150672256946564, -0.016708584502339363, -0.058632634580135345, -0.0007326616323553026, 0.031469158828258514, -0.006583617068827152, 0.019862264394760132, -0.03086467832326889, 0.0324682779610157, -0.043086230754852295, -0.023664766922593117, -0.0037691236939281225, 0.003909208346158266, -0.042497362941503525, 0.017585767433047295, 0.05279054865241051, 0.056350916624069214, 0.012417311780154705, -0.03868739679455757, 0.03902675211429596, -0.037552401423454285, -0.054414261132478714, 0.019355520606040955, -0.059005849063396454, -0.05633499473333359, -0.0009770779870450497, 0.02364756166934967, -0.019800907000899315, 0.007138808723539114, -0.006820266600698233, 0.0456710122525692, -0.05211580544710159, 0.056109342724084854, 0.03483137488365173, -0.0021851016208529472, 0.00516886729747057, -0.03322174400091171, 0.015544037334620953, 0.027122700586915016, 0.021547529846429825, -0.03717612847685814, -0.03687453642487526, 0.05798478052020073, 0.0521903820335865, -0.05767059698700905, -0.051417045295238495, -0.05872245132923126, 0.014365831390023232, -0.020045317709445953, -0.055735085159540176, -0.05387408658862114, -0.050380364060401917, 0.01608130894601345, 0.047684863209724426, 0.05642949044704437, 0.051832303404808044, -0.03074079193174839, -0.0330326184630394, 0.005477780941873789, -0.039410125464200974, 0.0026146196760237217, -0.020557167008519173, 0.05290032550692558, 0.018241964280605316, 0.013212449848651886, -0.015067290514707565, -0.013295498676598072, 0.056641992181539536, 0.02227185107767582, -0.019264735281467438, -0.008762863464653492, 0.030025577172636986, 0.044609155505895615, -0.0020952969789505005, -0.053689926862716675, -0.059255145490169525, -0.01158159039914608, -0.009854266420006752, -0.0027767347637563944, -0.02074221521615982, -0.049958452582359314, 0.02962394617497921, 0.015592660754919052, -0.02083601802587509, -0.03671181574463844, -0.0116884121671319, -0.002303162356838584, 0.02687237784266472, 0.011183714494109154, -0.02387535572052002, 0.009185473434627056, -0.016306117177009583, 0.05216051638126373, 0.021369202062487602, 0.0567363016307354, -0.03681201487779617, -0.05668704956769943, 0.053800687193870544, 0.024481797590851784, -0.033251065760850906, -0.020896896719932556, 0.007474864833056927, 0.029934899881482124, -0.05677639693021774, 0.012820286676287651, -0.025087255984544754], [-0.009221379645168781, -0.010810607112944126, -0.03368627279996872, -0.055338986217975616, -0.05577480047941208, 0.026644567027688026, -0.02408348210155964, -0.04538979008793831, 0.03980644792318344, -0.005553071852773428, 0.03980908915400505, 0.03325977921485901, -0.03210756182670593, 0.05716095119714737, 0.027855664491653442, 0.051063306629657745, -0.019392356276512146, -0.049589190632104874, 0.03937175124883652, -0.05503891035914421, 0.04121445119380951, 0.032929159700870514, -0.052729830145835876, 0.043861161917448044, 0.015347609296441078, 0.020973144099116325, 0.013976458460092545, 0.05016164481639862, -0.04651486501097679, -0.021733004599809647, 0.005739100277423859, -0.01441351417452097, 0.051593102514743805, 0.05004968121647835, 0.03912455588579178, -0.05298459529876709, -0.05441862717270851, -0.0525423064827919, -0.01516593899577856, -0.04083726182579994, -0.026034655049443245, -0.017226023599505424, -0.02068132534623146, 0.020597372204065323, 0.026155464351177216, 0.03427013009786606, 0.05254167690873146, 0.061607565730810165, 0.047848958522081375, -0.018553495407104492, -0.01292466465383768, 0.05480467900633812, -0.05557175353169441, -0.015923859551548958, 0.032928481698036194, -0.0006675395998172462, 0.00997896958142519, 0.022465016692876816, 0.05836343392729759, -0.01321024727076292, 0.05493674427270889, -0.02369009144604206, 0.03521226719021797, -0.014392984099686146, 0.048813942819833755, -0.05977664515376091, -0.013234228827059269, -0.01917014643549919, -0.007344257086515427, 0.004105266183614731, -0.031570035964250565, 0.03946723788976669, 0.025688087567687035, -0.003464368637651205, 0.02434169501066208, -0.0033294104505330324, 0.03938835859298706, 0.027088209986686707, -8.038737723836675e-05, -0.030998477712273598, -0.0010727540357038379, 0.01194708701223135, -0.05127464979887009, 0.001356980879791081, -0.0007776124984957278, -0.06094161421060562, -0.03597313165664673, -0.02977205626666546, -0.05198100581765175, -0.011179350316524506, -0.001309501356445253, -0.012929275631904602, -0.014934747479856014, -0.05334503576159477, 0.059545621275901794, 0.045933473855257034, -0.039885032922029495, 0.032728519290685654, -0.026174359023571014, -0.016750890761613846, 0.008027788251638412, 0.05061687156558037, -0.0003480618470348418, 0.008278089575469494, -0.009800189174711704, -0.0534181147813797, -0.028789693489670753, -0.013366814702749252, 0.04455181956291199, -0.02580126002430916, -0.023105818778276443, -0.01820279471576214, -0.05635737255215645, 0.015403608791530132, 0.02763819694519043, -0.03627040982246399, 0.029715511947870255, 0.036157406866550446, -0.014136819168925285, 0.01214343961328268, -0.032236337661743164, 0.06100033223628998, -0.02497469261288643, -0.014177141711115837, -0.04008693993091583, 0.032613605260849, 0.00190016720443964, -0.024516398087143898, 0.011338740587234497, 0.03320707008242607, 0.001857912284322083, -0.03126511350274086, 0.01932196505367756, 0.04406525194644928, -0.04022834822535515, -0.0024338329676538706, 0.026730593293905258, -0.04397165775299072, 0.02221994288265705, -0.04484603926539421, 0.008442654274404049, 0.00048077167593874037, -0.03603142872452736, -0.03596510365605354, 0.05379864573478699, -0.012134777382016182, 0.04932655394077301, -0.05587814003229141, 0.0070408484898507595, 0.05897638201713562, 0.0014694731216877699, 0.03262403607368469, -0.03450977802276611, 0.03444605693221092, -0.006718963384628296, -0.032125793397426605, 0.04863017424941063, 0.025361916050314903, 0.03922461345791817, 0.03687043860554695, -0.03242046386003494, 0.03949996829032898, 0.001408955198712647, -0.033980660140514374, 0.0031138486228883266, -0.052364472299814224, 0.052065588533878326, 0.05845901742577553, 0.03966877982020378, -0.023347537964582443, -0.03531535714864731, -0.032249659299850464, -0.04110174998641014, -0.043113283812999725, 0.004338029772043228, -0.04064587876200676, 0.05374346673488617, -0.04298342019319534, -0.019995862618088722, -0.02265661023557186, 0.011242068372666836, 0.03453716263175011, 0.03180680423974991, 0.013572627678513527, 0.05793950334191322, -0.002920541912317276, 0.04348255693912506, -0.006028754636645317, -0.05362299829721451, 0.04615960270166397, 0.06006605178117752, 0.0353594645857811, -0.012287724763154984, -0.036380622535943985, -0.04234282299876213, 0.04994157329201698, -0.04367517679929733, -0.025474021211266518, -0.028432877734303474, 0.024883950129151344, 0.03945069760084152, -0.001966763287782669, -0.04950753226876259, -0.01088909525424242, 0.03637737035751343, 0.04302985593676567, -0.009002015925943851, -0.0486193522810936, -0.02292177639901638, 0.038859229534864426, 0.005621571559458971, 0.054871562868356705, 0.03984585404396057, 0.001296099741011858, 0.04547962173819542, -0.03407595306634903, -0.03496936336159706, 0.014699426479637623, -0.010017221793532372, 0.001886793994344771, 0.03850824758410454, -0.057382889091968536, -0.048722393810749054, -0.04260244220495224, -0.05159561336040497, -0.057434920221567154, 0.030717674642801285, 0.0007515116012655199, 0.056657418608665466, -0.0375492237508297, -0.0525997057557106, -0.03280153125524521, -0.02759304828941822, 0.0051206499338150024, -0.028699176385998726, 0.012042720802128315, 0.04780327156186104, 0.05546294152736664, -0.059676479548215866, 0.05567866191267967, 0.014484873972833157, 0.004215422086417675, -0.04008835554122925, 0.02764676883816719, -0.04390197619795799, 0.004283341579139233, -0.01635410636663437, 0.04581509530544281, 0.05898084118962288, -0.016054576262831688, 0.028603002429008484, -0.01585276611149311, -0.04131424054503441, -0.05424225702881813, -0.04556504637002945, 0.05708989500999451, 0.035890936851501465, 0.028790155425667763, 0.02452711947262287, 0.02419852837920189, 0.04078386351466179, 0.010903991758823395, 0.04499470442533493, -0.043280504643917084, -0.049113042652606964, -0.04747043550014496, -0.055117327719926834, 0.05359030142426491, 0.007840890437364578, -0.0036553347017616034, 0.04270930215716362, 0.05735898017883301, -0.01917000114917755, 0.028287554159760475, -0.010579654015600681, -0.045726992189884186, 0.044277124106884, 0.05384954810142517, 0.02429741434752941, 0.011539021506905556, -0.052920836955308914, -0.04889616742730141, -0.025783270597457886, 0.048009030520915985, 0.030022582039237022, 0.0413997545838356, 0.033238161355257034, 0.0030637329909950495, 0.015450424514710903, -0.015882575884461403, -0.04056188836693764, 0.0419638529419899, 0.002413154346868396, 0.03087131306529045, 0.030490713194012642, -0.014687756076455116, -0.054803308099508286, -0.0010267776669934392, -0.011603881604969501, 0.0063818576745688915, -0.057212814688682556, -0.02689630724489689, -0.022897975519299507, -0.020358199253678322, 0.02754155918955803, 0.05039878934621811, -0.03990290313959122, 0.010161022655665874, 0.012689834460616112, -0.0011984615121036768, 0.031226489692926407, -0.034263040870428085, -0.05496031045913696, 0.05879274755716324, 0.0010960859945043921, -0.04820477217435837, -0.056975141167640686, 0.04636300727725029, -0.0008824390242807567, 0.031009338796138763, -0.03930569440126419, 0.040372420102357864, 0.03311843052506447, -0.03181002661585808, -0.0035774847492575645, -0.04742414876818657, 0.017654480412602425, 0.01964910700917244, 0.0058387648314237595, -0.05859911069273949, 0.05514334887266159, -0.024854274466633797, -0.04651773348450661, 0.05827300250530243, 0.025005189701914787, 0.003947330638766289, -0.042232729494571686, -0.011446306481957436, -0.03191044181585312, -0.005275718867778778, 0.04888239875435829, -0.04387573525309563, -0.015347209759056568, -0.04165515676140785, -0.008043191395699978, 0.04678010568022728, 0.022186987102031708, 0.03324003145098686, 0.03253474086523056, -0.03713277354836464, -0.04772845283150673, -0.025948697701096535, -0.030730584636330605, 0.00957666989415884, -0.008780734613537788, -0.016287174075841904, 0.003453155281022191, 0.011949223466217518, -0.008029497228562832, -0.0005892792250961065, 0.00565060880035162, -0.031396638602018356, -0.056640081107616425, -0.03085171990096569, 0.003025381127372384, -0.036404479295015335, -0.0018551929388195276, -0.03290484845638275, 0.013655707240104675, -0.002490033395588398, -0.0375044085085392, 0.02229618839919567, -0.03218836337327957, 0.009716656059026718, -0.004765847232192755, 0.0008694652351550758, 0.010026823729276657, 0.03335689753293991, -0.01230950839817524, 0.005556134507060051, 0.018968289718031883, -0.00899464637041092, -0.014189789071679115, -0.02903381921350956, 0.04759158194065094, 0.03208605572581291, -0.05829472839832306, 0.0217138659209013, -0.05363248288631439, -0.006115780211985111, 0.03411978483200073, 0.002374490723013878, 0.019140928983688354, 0.032184090465307236, -0.03839334473013878, 0.05896887183189392, -0.03943147137761116, 0.041282571852207184, -0.024354776367545128, -0.018239127472043037, -0.0007961920346133411, -0.028441518545150757, 0.054254282265901566, 0.006601229310035706, -0.058179497718811035, -0.05422256886959076, 0.013470429927110672, -0.023081690073013306, -0.02193034440279007, -0.026799753308296204, -0.018524227663874626, 0.03149593621492386, -0.02750878967344761, -0.05471668392419815, -0.022430425509810448, -0.05152929946780205, -0.0509638711810112, -0.05014975741505623, 0.02705685980618, -0.04874471575021744, 0.03787842020392418, 0.0081598199903965, 0.05259178951382637, -0.021565956994891167, 0.00842093676328659, -0.00664673512801528, -0.0037008915096521378, -0.01503464300185442, 0.05125504732131958, -0.04556053504347801, -0.03476860374212265, -0.05798371508717537, 0.030393153429031372, 0.004785556811839342, -0.04224351793527603, 0.007365566678345203, 0.011169137433171272, 0.011470584198832512, -0.02009081281721592, 0.016921555623412132, 0.06128990650177002, -0.03731517866253853, -0.056444548070430756, 0.015495959669351578, -0.050131287425756454, 0.04648982360959053, 0.033767156302928925, 0.018862595781683922, 0.035717934370040894, -0.026654614135622978, -0.026551205664873123, -0.05831616744399071, -0.04577083885669708, 0.0493684858083725, 0.030243223533034325, -0.02461884915828705, 0.03626031428575516, 0.042400211095809937, -0.023360850289463997, -0.05008307471871376, 0.004165890160948038, -0.03641035780310631, -0.03617304190993309, 0.01434484962373972, -0.04641638696193695, -0.0021771325264126062, -0.05928456038236618, -0.060601867735385895, -0.020209429785609245, 0.031094547361135483, 0.0523398257791996, 0.04667071998119354, 0.02104131318628788, 0.01958255097270012, -0.048854466527700424, 0.00433532427996397, 0.03367257118225098, 0.021332230418920517, 0.052637480199337006, 0.0503268763422966, 0.03882215544581413, 0.01102779246866703, 0.03622518479824066, -0.037088681012392044, 0.0243105236440897, 0.04323062300682068, -0.0341714508831501, 0.05391286313533783, 0.022707374766469002, -0.0025864450726658106, 0.00289134937338531, -0.01899368315935135, -0.04374014213681221, -0.014623086899518967, -0.05056926980614662, 0.023299168795347214, 0.05354110151529312, -0.03995911777019501, -0.016480524092912674, -0.04886220395565033, -0.05713290348649025, -0.02419249713420868, -0.003996177110821009, 0.06062117591500282, 0.014484516344964504, -0.05143602192401886, -0.02204950526356697, 0.003115780185908079, -0.053783584386110306, 0.02755032293498516, -0.028618456795811653, -0.02039223723113537, -0.011649815365672112, 0.007219821214675903, 0.045155975967645645, -0.030937260016798973, -0.04680078849196434, 0.051917534321546555, -0.03271615132689476, -0.04439295828342438, -0.012592225335538387, 0.012715108692646027, -0.053324099630117416, -0.026283616200089455, -0.010958770290017128, -0.017078761011362076, 0.007805845234543085, 0.03323248401284218, -0.029431210830807686, -0.04812337085604668, -0.045585401356220245, 0.006502828560769558, -0.02521350607275963, 0.0033112780656665564, -0.0035958390217274427, 0.02446446567773819, 0.003631359664723277, -0.051167842000722885, 0.00511670159175992, -0.00935639999806881, 0.04588351026177406, 0.05746558681130409, -0.0546785369515419, 0.013721412047743797, 0.0452701598405838, -0.003928019665181637, -0.05918688699603081, 0.0035144018474966288, 0.03151445463299751, -0.03493788465857506, -0.0528998039662838, 0.05552229285240173, 0.03385552763938904, 0.0417686402797699, 0.01680043339729309, -0.03663964197039604, 0.00807142723351717, 0.055529385805130005, 0.044192180037498474, 0.015915511175990105, -0.05264413729310036, -0.007302205543965101, 0.017889799550175667, -0.03779863193631172, 0.04967883601784706, 0.03117530047893524, -0.05213312804698944, 0.0530068464577198, 0.03306030109524727, 0.0422213152050972, -0.02277447283267975, 0.04506087303161621, -0.041462451219558716, 0.02846982143819332, -0.0003126339288428426, -0.012804658152163029, 0.0007804907509125769, -0.02332404814660549, 0.04789971932768822, -0.04285331070423126, 0.01369901280850172, 0.05555407330393791, 0.049709539860486984, -0.04136364161968231, -0.046800002455711365, 0.0010682294378057122, -0.010699540376663208, -0.007010480854660273, -0.05723441392183304, -0.012690769508481026, -0.020616240799427032, 0.016726845875382423, -0.051581740379333496, 0.0008820442599244416, -0.01977391727268696, -0.05368439108133316, 0.039363522082567215, -0.05524839460849762, 0.04692036285996437, 0.026027757674455643, -0.010239052586257458, 0.0338013730943203, 0.04030608385801315, -0.04143654182553291, -0.007999319583177567, 0.0034565813839435577, -0.047094445675611496, -0.017723027616739273, -0.018517229706048965, -0.00962019432336092, -0.020157264545559883, -0.01318959891796112, -0.03965779393911362, -0.017488820478320122, -0.024475274607539177, -0.012258991599082947, -0.002988463966175914, 0.018809162080287933, 0.05096074193716049, 0.04003463685512543, 0.011669314466416836, 0.012896735221147537, -0.03287928178906441, 0.05137909948825836, -0.04526205733418465, -0.017014900222420692, -0.01741887629032135, -0.018190965056419373, 0.016347216442227364, -0.004270864184945822, -0.039661552757024765, -0.01814775913953781, 0.010470700450241566, -0.032453637570142746, 0.02916780486702919, 0.05741872638463974, -0.005987255368381739, -0.037744130939245224, 0.05289410427212715, 0.041994769126176834, 0.0492115281522274, 0.014124984852969646, -0.018158460035920143, 0.005207127425819635, -0.010476218536496162, -0.027627069503068924, 0.057702645659446716, -0.0037778611294925213, 0.060481831431388855, 0.05058774724602699, -0.02627510018646717, 0.02446197159588337, -0.019809598103165627, -0.019188346341252327, -0.06081894040107727, 0.057879868894815445, -0.008537549525499344, -0.012747006490826607, 0.032360248267650604, 0.0012902936432510614, -0.017066124826669693, 0.0030566391069442034, 0.007567042019218206, 0.05967249348759651, -0.048956550657749176, 0.013823830522596836, 0.048952680081129074, -0.03065403364598751, -0.011178269982337952, 0.01122820470482111, 0.0050826543010771275, -0.04723948612809181, 0.03526970371603966, 0.030022382736206055, -0.04144557565450668, -0.02146574668586254, -0.017545225098729134, -0.04132264479994774, -0.004368042107671499, 0.0016036131419241428, 0.049161650240421295, 0.00577483931556344, -0.027504004538059235, -0.002846737392246723, 0.03894345089793205, -0.041260864585638046, -0.032933853566646576, -0.03910230100154877, -0.04813898727297783, -0.01675008423626423, 0.036116018891334534, 0.00923136342316866, 0.013369663618505001, -0.02036054991185665, -0.05701112747192383, 0.05691976472735405, 0.018147854134440422, 0.03285685554146767, -0.026891160756349564, 0.04961651936173439, 0.06117955967783928, 0.02074539288878441, -0.022787678986787796, -0.013028532266616821, 0.05872439965605736, 0.027763009071350098, 0.006013690959662199, -0.03491680696606636, -0.019118033349514008, -0.038716092705726624, 0.006592603400349617, -0.04454950988292694, -0.004506387747824192, -0.0285419300198555, 0.02631889283657074, 0.03968050703406334, 0.026051193475723267, 0.02286216989159584, -0.04924347251653671, 0.047985970973968506, -0.008105016313493252, -0.03799031302332878, 0.05561137571930885, 0.016734812408685684, 0.04454750940203667, -0.03223421797156334, -0.01826794072985649, 0.02857678197324276, 0.0332455188035965, -0.0025142983067780733, 0.00018444343004375696, -0.003403753275051713, -0.03215464949607849, 0.03141595795750618, 0.000983346370048821, -0.0019838884472846985, -0.018425388261675835, 0.05182565748691559, -0.05175815895199776, 0.04979446157813072, 0.02109566144645214, -0.028961725533008575, 0.013796838000416756, -0.04210176318883896, -0.05288209766149521, -0.010954867117106915, -0.0523320809006691, -0.01699952967464924, 0.02150004543364048, 0.043847233057022095, -0.030166983604431152, 0.02071285806596279, -0.03446183353662491, 0.03265545144677162, -0.04366540163755417, 0.011141587048768997, -0.0009109480306506157, -0.04386031627655029, 0.02855304442346096, -0.024482961744070053, 0.01680791936814785, -0.021609093993902206, 0.05888739228248596, 0.04043244197964668, 0.04605860263109207, 0.054161738604307175, -0.0025194238405674696, -0.02169373817741871, 0.007383102085441351, 0.05836407467722893, -0.055822938680648804, 0.022024210542440414, 0.03558516874909401, 0.006228905636817217, 0.04475664719939232, -0.058787982910871506, -0.03000858798623085, 0.030743589624762535, 0.015398208051919937, -0.0351453498005867, 0.05167720466852188, -0.05733771622180939, -0.05732443556189537, 0.05704132094979286], [-0.030340511351823807, -0.01791778951883316, -0.0326419360935688, 0.028816133737564087, 0.022966904565691948, 0.0376923531293869, 0.0004319204017519951, 0.0029655052348971367, 0.035019684582948685, -0.034943629056215286, -0.05947170779109001, -0.010124952532351017, -0.00368665368296206, 0.0342191606760025, -0.03965058922767639, 0.05523979291319847, 0.011517822742462158, -0.052281562238931656, -0.03670264780521393, 0.03272213041782379, -0.037269338965415955, -0.051757052540779114, -0.005010244902223349, -0.05164151266217232, 0.028940962627530098, -0.023312799632549286, -0.05174310505390167, 0.008876921609044075, -0.05029301345348358, -0.05922684818506241, -0.03653600439429283, 0.049276210367679596, 0.016073077917099, -0.02284088172018528, 0.022716781124472618, -0.024389192461967468, 0.03591223806142807, -0.0468478761613369, 0.04729325324296951, -0.020799720659852028, -0.05844664201140404, -0.03536541014909744, -0.03745287284255028, 0.025883499532938004, 0.037421200424432755, -0.040462885051965714, -0.01499431487172842, -0.055103790014982224, -0.012200466357171535, -0.025213327258825302, 0.0071064624935388565, -0.021085431799292564, 0.042458970099687576, -0.05397375300526619, 0.009324938990175724, -0.06217014417052269, 0.04617820680141449, 0.04126529023051262, 0.02567271888256073, -0.04204395413398743, 0.03032873384654522, 0.0391472764313221, -0.021697863936424255, 0.017358846962451935, -0.05217732861638069, 0.021124741062521935, -0.009254677221179008, -0.012421327643096447, -0.028466496616601944, -0.06085655838251114, -0.007222037296742201, -0.019506258890032768, -0.004230826627463102, -0.027760466560721397, 0.0448225699365139, 0.018462039530277252, 0.010835466906428337, -0.004043390974402428, -0.06131533905863762, -0.004807995166629553, 0.03527434542775154, 0.05121719092130661, -0.047151118516922, -0.04866368696093559, -0.0020549704786390066, 0.0203334279358387, -0.001896248897537589, -0.008628522045910358, 0.06078684702515602, -0.0151964807882905, 0.013674033805727959, 0.01674414612352848, 0.052862800657749176, -0.03888237476348877, -0.0038669598288834095, 0.012054556049406528, -0.032961249351501465, -0.03237239643931389, -0.03044936992228031, -0.038335900753736496, 0.004735767841339111, 0.013811801560223103, 0.01531484816223383, 0.03636867180466652, 0.015789076685905457, -0.03958157077431679, 0.030804889276623726, 0.04679350182414055, 0.01942346803843975, 0.018625620752573013, 0.04084673523902893, -0.038386985659599304, -0.059037961065769196, -0.05815421789884567, -0.02799261175096035, -0.057704709470272064, 0.006171603221446276, 0.0344083346426487, -0.04805712029337883, -0.061224356293678284, 0.030576104298233986, -0.02180671878159046, -0.048187870532274246, 0.01768997497856617, -0.05239414423704147, 0.04992058500647545, 0.05358743667602539, 0.04696403816342354, 0.05201907455921173, 0.0014831857988610864, -0.03366273269057274, 0.013126317411661148, -0.023691326379776, 0.01216454990208149, 0.04457683861255646, -0.017946433275938034, -0.02444726787507534, 0.00770355062559247, 0.047211211174726486, -0.03582477942109108, -0.032869450747966766, 0.011696410365402699, 0.04037008434534073, 0.007733574137091637, -0.0320742167532444, 0.05331860110163689, -0.04863709211349487, 0.05127004534006119, 0.03771587088704109, -0.009032163769006729, 0.03553937003016472, -0.04371234402060509, 0.03950771316885948, -0.04641301557421684, -0.0056303623132407665, 0.02546943910419941, 0.010392035357654095, -0.006825674790889025, -0.028378069400787354, -0.019950218498706818, -0.04237964749336243, -0.01761888526380062, -0.029878253117203712, 0.021183079108595848, -0.05997694656252861, 0.014019247144460678, -0.05333702638745308, -0.046323519200086594, 0.021174341440200806, -0.0019307314651086926, -0.0013256095116958022, -0.022823838517069817, 0.04774695634841919, 0.017983531579375267, 0.041572004556655884, -0.023911619558930397, -0.05049342289566994, -0.025935495272278786, 0.04870833456516266, 0.0016971697332337499, 0.03559201583266258, 0.04003140330314636, -0.04347289726138115, 0.014267626218497753, 0.03861160948872566, 0.006605937611311674, 0.025903508067131042, -0.010126173496246338, 0.03348797559738159, 0.0030380450189113617, -0.01754249632358551, 0.0532376766204834, -0.05060240253806114, -0.022540150210261345, 0.010686214081943035, -0.007633201312273741, -0.043106723576784134, 0.014080367982387543, 0.041073448956012726, 0.011073147878050804, -0.03586583584547043, 0.02839725650846958, -0.011941677890717983, 0.017118355259299278, 0.0009461485897190869, 0.03312676399946213, -0.060870468616485596, 0.008095471188426018, 0.027377847582101822, 0.03163401409983635, -0.015436800196766853, -0.008527831174433231, 0.04854091629385948, 0.02405458129942417, 0.04151281714439392, -0.008762183599174023, 0.026192834600806236, -0.036888543516397476, 0.026283683255314827, -0.058303352445364, 0.01059259194880724, -0.020808998495340347, 0.023514343425631523, -0.06183324754238129, 0.032326966524124146, -0.04071778059005737, 0.05856965482234955, 0.0467519573867321, -0.06115887314081192, -0.008613320998847485, 0.005578459240496159, -0.008347039110958576, 0.00381965609267354, 0.009266672655940056, 0.008763418532907963, 0.05427094176411629, 0.018451068550348282, 0.043710529804229736, 0.04743701219558716, -0.02498501166701317, -0.05518071725964546, 0.02165578119456768, -0.012983253225684166, 0.03880421817302704, 0.033596429973840714, 0.02286139316856861, -0.046315815299749374, 0.007618917152285576, -0.0014249432133510709, -0.048212312161922455, -0.056089360266923904, -0.0582166351377964, 0.01430569775402546, -0.0531393326818943, 0.0010836879955604672, 0.05333056300878525, -0.05217131972312927, -0.05648844316601753, 0.026318227872252464, 0.027943605557084084, -0.0313183031976223, 0.05330124497413635, 0.011373624205589294, 0.05153334513306618, 0.0038723277393728495, 0.002229683566838503, -0.0461697019636631, -0.024537546560168266, -0.05036506429314613, -0.00654284842312336, -0.039690375328063965, -0.053565613925457, 0.02046789973974228, 0.009981500916182995, 0.05275780335068703, -0.011943143792450428, -0.00721580209210515, 0.014108847826719284, -0.02855530008673668, 0.03125161677598953, 0.01258630771189928, -0.007264599669724703, -0.032195936888456345, -0.0388750322163105, -0.05211937427520752, 0.05578851327300072, 0.013668977655470371, 0.05300198122859001, 0.0540347583591938, 0.029828893020749092, -0.014976550824940205, -0.032294243574142456, -0.013382280245423317, 0.029851797968149185, 0.01428242214024067, -0.05932116135954857, 0.02130056917667389, -0.0401829332113266, -0.04450545087456703, -0.017506366595625877, -0.06131809204816818, -0.018205884844064713, 0.011486517265439034, 0.039000850170850754, -0.04992285370826721, -0.005741447675973177, -0.04178221896290779, -0.049708787351846695, 0.01892295852303505, -0.01673971489071846, -0.0487699955701828, -0.02716691419482231, -0.02337188459932804, -0.04741942510008812, 0.031420715153217316, -0.005344187840819359, 0.0110889608040452, 0.06006740778684616, 0.03686951845884323, 0.002646125853061676, 0.011589043773710728, 0.011651785112917423, -0.028527377173304558, -0.05156797543168068, -0.02700304612517357, 0.0629362165927887, -0.04579193890094757, 0.04435078799724579, -0.0364299938082695, 0.06001012772321701, 0.034679025411605835, 0.007165711838752031, 0.03505104407668114, -0.03353336453437805, -0.03368212655186653, 0.04414597153663635, 0.01758698932826519, 0.03412381932139397, -0.0434316024184227, 0.022084655240178108, -0.01857484132051468, -0.004268684424459934, 0.028670627623796463, 0.018158959224820137, -0.043006185442209244, -0.06125349551439285, -0.010600068606436253, -0.05032675340771675, -0.00730806915089488, -0.03790003061294556, -0.0017605657922104, 0.03673160448670387, -0.036092501133680344, 0.026489220559597015, -0.01761792227625847, -0.04984285309910774, -0.03183986246585846, -0.050605662167072296, -0.022088978439569473, -0.024898424744606018, 0.02202732488512993, 0.0229872465133667, -0.026211237534880638, -0.002281258348375559, 0.03919271007180214, 0.042293041944503784, -0.04236200824379921, 0.031419746577739716, -0.011503688059747219, 0.02988731674849987, 0.029574483633041382, -0.049018025398254395, 0.01470349170267582, 0.03191191330552101, 0.04413709044456482, -0.06064772233366966, 0.015781642869114876, -0.0036627978552132845, 0.01636466570198536, -0.03944633901119232, 0.052003633230924606, 0.04657910764217377, -0.04019675776362419, -0.0023657421115785837, 0.03067869134247303, -0.023746753111481667, 0.033046700060367584, -0.056516531854867935, 0.02466421201825142, 0.0021002572029829025, -0.05353406444191933, -0.04023539274930954, -0.031966205686330795, -0.0260693971067667, 0.03774799033999443, 0.019941318780183792, 0.02660205401480198, 0.03041819855570793, 0.0017844965914264321, -0.022279512137174606, -0.0011653562542051077, -0.02802964858710766, 0.005223284941166639, 0.0243783351033926, -0.03460092842578888, 0.005803452804684639, -0.02883950062096119, -0.008382689207792282, -0.047670505940914154, 0.030842633917927742, 0.012066164053976536, 0.048289552330970764, -0.035440847277641296, -0.025378210470080376, 0.012515007518231869, 0.04133625328540802, -0.045646972954273224, -0.0394473560154438, -0.012304801493883133, -0.0019706767052412033, 0.0287457425147295, 0.05483526736497879, 0.00348038412630558, 0.05226602777838707, -0.015818864107131958, -0.005227732006460428, -0.06056858226656914, -0.029854359105229378, -0.03313404694199562, 0.04675062745809555, -0.008641785010695457, -0.011902119033038616, 0.05059775710105896, 0.05512185022234917, 0.016092566773295403, 0.02434323914349079, 0.02717898227274418, 0.0006516458815895021, -0.04289231449365616, 0.01623411662876606, -0.032368145883083344, -0.05861644819378853, 0.012300975620746613, 0.03678765520453453, -0.001524750143289566, -0.049305353313684464, -0.02528972737491131, 0.018648944795131683, 0.01479801069945097, 0.04935687780380249, 0.05869714170694351, -0.012302009388804436, -0.04002868011593819, 0.017534498125314713, -0.039982870221138, 0.027422567829489708, -0.021098142489790916, -0.03725215420126915, 0.034605901688337326, -0.046892039477825165, -0.03145042061805725, 0.011876477859914303, -0.02786385640501976, 0.05419827252626419, -0.05625564232468605, -0.03359079360961914, -0.008090847171843052, 0.014959570951759815, -0.0237272996455431, -0.018861863762140274, -0.044996242970228195, -0.036142218858003616, -0.048482656478881836, 0.059398651123046875, 0.010464673861861229, 0.025825556367635727, 0.05756571516394615, 0.05728171765804291, -0.03589370474219322, -0.006379926577210426, -0.04152197390794754, 0.05806500092148781, -0.01926480047404766, -0.03444136306643486, 0.060763463377952576, 0.049183692783117294, -0.04281477630138397, -0.04550927132368088, -0.0420055165886879, -0.030455002561211586, 0.029227564111351967, 0.018843363970518112, 0.02723298966884613, -0.058550816029310226, -0.004394424147903919, 0.048180364072322845, -0.04009635001420975, -0.02425825595855713, 0.006567543838173151, 0.013163279742002487, 0.02616911754012108, 0.0053794593550264835, 0.055985987186431885, -0.03454253077507019, -0.0014757857425138354, -0.017318449914455414, -0.017164040356874466, 0.013277693651616573, 0.0610976479947567, -0.018229233101010323, -0.013706221245229244, -0.0019669029861688614, -0.004863868001848459, 0.02945929393172264, -0.03280283883213997, -0.01424949150532484, 0.02753838337957859, -0.022080982103943825, -0.02565368264913559, 0.044647835195064545, -0.024567121639847755, -0.04720897227525711, 0.009886736050248146, -0.0028363713063299656, 0.011418130248785019, 0.050220783799886703, 0.05786554887890816, -0.021616613492369652, 0.04975941404700279, 0.020715275779366493, -0.021278558298945427, -0.05612581968307495, 0.0014387874398380518, 0.017253704369068146, 0.029087845236063004, -0.03332386538386345, 0.03601253777742386, -0.02220757119357586, -0.023277701810002327, -0.04145900905132294, -0.05046358332037926, 0.022738587111234665, 0.028027964755892754, 0.017413750290870667, 0.0032754098065197468, -0.023373819887638092, -0.024596022441983223, -0.026793347671628, 0.008547947742044926, 0.027077676728367805, -0.034706439822912216, 0.008998308330774307, -0.04316528141498566, -0.01946524903178215, -0.009544069878757, -0.028043972328305244, 0.004528698045760393, -0.03062814101576805, -0.011070669628679752, -0.013025609776377678, -0.0007160364184528589, 0.04300149902701378, -0.03903178498148918, 0.04910911247134209, -0.002938542515039444, -0.027263354510068893, -0.05463637411594391, 0.044411275535821915, -0.05182546377182007, -0.04045546054840088, 0.03923147916793823, 0.0336308591067791, 0.014812994748353958, 0.0498238243162632, 0.004521872848272324, 0.032010268419981, -0.05482266843318939, 0.021221105009317398, 0.048332009464502335, -0.02604568749666214, -0.047286488115787506, 0.03322116658091545, -0.010425504297018051, 0.033083025366067886, 0.04519089311361313, 0.0022405055351555347, 0.04388635978102684, -0.015257420018315315, 0.0594484768807888, 0.030662458389997482, -0.04783903434872627, 0.043673936277627945, 0.04679592698812485, -0.024451646953821182, -0.00988925714045763, 0.04359184950590134, 0.053829025477170944, 0.02978622354567051, 0.025123273953795433, 0.047700006514787674, 0.02146981842815876, 0.005461364518851042, -0.0010852874256670475, 0.02838796377182007, -0.01054794155061245, -0.026134299114346504, -0.00311197224073112, 0.016504378989338875, -0.006015085615217686, -0.03249884769320488, 0.004671578761190176, -0.01805250346660614, 0.03551849350333214, 0.02958163619041443, 0.035314030945301056, -0.048221930861473083, 0.05356153845787048, -0.06008343771100044, -0.04983136057853699, -0.008496108464896679, -0.00015184642688836902, 0.053627222776412964, 0.015614491887390614, 0.0417727455496788, 0.014040149748325348, 0.03352842479944229, -0.00493891816586256, 0.023658305406570435, 0.047331538051366806, 0.049756795167922974, 0.054203953593969345, 0.021663516759872437, -0.0251693706959486, -0.04300781711935997, 0.053244754672050476, -0.0496760755777359, -0.030409013852477074, 0.053675223141908646, -0.03190378472208977, 0.0018059845315292478, -0.036395810544490814, -0.04028080403804779, 0.02182203345000744, 0.026476280763745308, -0.00931644905358553, -0.008945558220148087, -0.05861978605389595, 0.016805477440357208, 0.044864825904369354, -0.047681406140327454, 0.011087187565863132, 0.05847698450088501, 0.04575050249695778, -0.018314747139811516, -0.014841323718428612, 0.04672645404934883, 0.01366560161113739, 0.033438194543123245, 0.008317195810377598, 0.012677905149757862, 0.04932376369833946, 0.03879166767001152, -0.06055012717843056, 0.0019838244188576937, -0.01658743992447853, 0.034239109605550766, 0.05050705000758171, -0.04614866524934769, 0.05564321577548981, 0.059537407010793686, -0.03766273334622383, -0.050624217838048935, -0.0330461785197258, 0.036573924124240875, -0.05697384104132652, -0.004458710551261902, -0.03286299481987953, 0.0356069952249527, -0.05127062276005745, 0.052908919751644135, 0.025923212990164757, 0.054501011967659, -0.05464182421565056, 0.04407471418380737, 0.05255865305662155, -0.019860535860061646, 0.01488350611180067, -0.026025990024209023, -0.05195346847176552, 0.01714320294559002, -0.02100520022213459, -0.0032196263782680035, 0.026231171563267708, 0.05203264579176903, 0.05415153130888939, 0.04543105140328407, -0.05037447437644005, 0.03654158115386963, 0.05564005672931671, -0.028642645105719566, -0.060336314141750336, 0.05594342201948166, 0.00804382748901844, 0.043756525963544846, -0.03191588073968887, -0.02840586192905903, -0.05327744781970978, 0.012020346708595753, -0.017976507544517517, -0.003947718534618616, -0.005930845160037279, -0.0502212829887867, 0.04340306669473648, -0.048119161278009415, 0.054207514971494675, 0.015636898577213287, -0.0012118987506255507, -0.003907057922333479, 0.05620909109711647, -0.03506061062216759, 0.0029499565716832876, 0.04179070144891739, 0.03211300075054169, -0.008986604399979115, 0.019605403766036034, -0.023996001109480858, -0.04269881919026375, 0.019261343404650688, 0.055151112377643585, -0.05500251427292824, 0.03564862906932831, -0.007860721088945866, -0.050520140677690506, -0.03392130136489868, -0.029623517766594887, 0.04447126388549805, -0.05332517251372337, -0.05210630223155022, -0.0013570807641372085, 0.05174362286925316, -0.009112890809774399, 0.05913630872964859, 0.0606674998998642, 0.010355927981436253, -0.04190756008028984, 0.026325169950723648, 0.00889990758150816, 0.04868665710091591, -0.023618074133992195, -0.001951055834069848, -0.04111126810312271, 0.04521465674042702, -0.03411315754055977, -0.010694731958210468, -0.014327531680464745, 0.04036568105220795, 0.025008469820022583, -0.017108378931879997, 0.03199249505996704, -0.038165200501680374, 0.03628299757838249, -0.005826949141919613, -0.04074569046497345, -0.0267993975430727, 0.0011827300768345594, 0.03763541579246521, 0.03951721638441086, 0.049817197024822235, 0.03842960298061371, -0.058677855879068375, -0.01763772778213024, 0.01664975844323635, 0.018293539062142372, -0.015085842460393906, 0.05075051262974739, 0.04557272791862488, 0.050270117819309235, 0.020727613940835, -0.00044998325756751, 0.03100515715777874, -0.0062502180226147175, 0.02313634753227234, 0.05703682452440262, -0.02022411674261093], [0.057951830327510834, -0.030697831884026527, -0.015868522226810455, 0.007753254845738411, -0.01573575660586357, 0.04641151800751686, 0.03921359032392502, -0.013421328738331795, 0.02354707568883896, -0.05042325332760811, -0.04508860781788826, -0.053073666989803314, -0.053096141666173935, -0.01910645142197609, -0.049146488308906555, -0.023217828944325447, -0.043299559503793716, 0.008249581791460514, 0.003948255907744169, 0.03386761620640755, -0.045679010450839996, -0.0314929336309433, -0.010562542825937271, 0.04828206077218056, -0.05700351297855377, 0.05669544264674187, -0.05113792046904564, -0.011128243990242481, 0.02845657803118229, -0.013259834609925747, -0.02429393120110035, -0.04568873718380928, 0.013186370953917503, 0.05579310283064842, 0.012782891280949116, -0.01634703204035759, 0.026269899681210518, -0.03076375462114811, -0.014407089911401272, -0.04848993942141533, -0.031511761248111725, -0.011650466360151768, -0.038789261132478714, 0.06022180616855621, -0.020649084821343422, -0.020710645243525505, -0.04083152487874031, -0.022702587768435478, 0.035661108791828156, 0.013523222878575325, -0.021982640027999878, -0.04698758199810982, -0.007830400951206684, -0.005590780638158321, 0.04971708729863167, -0.018421847373247147, -0.02048979140818119, -0.052870649844408035, 0.02308262698352337, -0.04227536916732788, -0.061658501625061035, -0.029177401214838028, -0.04555453732609749, -0.03716567903757095, -0.0135244932025671, 0.03185496851801872, -0.05503673851490021, 0.05909569934010506, 0.032173190265893936, 0.05192294344305992, -0.010526444762945175, 0.0548781119287014, -0.05071622133255005, -0.0035730048548430204, 0.003250936744734645, -0.05632563680410385, 0.009866427630186081, 0.003916997462511063, -0.023410022258758545, 0.04501360282301903, 0.04771975800395012, 0.05137832090258598, -0.02711368538439274, -0.013795494101941586, 0.015164603479206562, 0.018687643110752106, 0.0068836272694170475, 0.03252473101019859, 0.0039255800656974316, 0.02475805953145027, -0.030334709212183952, 0.015172806568443775, 0.008181402459740639, -0.03326460346579552, 0.028490031138062477, 0.03922799974679947, -0.05009681358933449, 0.0348886214196682, -0.044922806322574615, 0.055726535618305206, 0.019649440422654152, 0.023560073226690292, -0.060610923916101456, 0.048560913652181625, 0.05805143341422081, -0.045439377427101135, -0.026143264025449753, -0.04949609562754631, 0.04465034604072571, -0.00042899776599369943, 0.0002907988673541695, 0.0461120679974556, -0.00781711284071207, -0.04486760124564171, 0.02128950133919716, 0.05544363707304001, 0.05597040057182312, 0.05771331116557121, -0.054385386407375336, 0.045043036341667175, 0.05928907170891762, 0.018030676990747452, -0.006867768708616495, -0.044090636074543, -0.05598686635494232, 0.008172117173671722, 0.024228127673268318, 0.05446823313832283, -0.03226170316338539, 0.021721126511693, 0.027513474225997925, -0.0187313724309206, 0.012497072108089924, 0.05336754024028778, 0.037053972482681274, 0.03213205561041832, -0.0044261557050049305, -0.0020926170982420444, -0.0042581986635923386, 0.035441804677248, -0.05798313394188881, -0.01693279668688774, -0.04263794422149658, 0.005899336654692888, 0.012591788545250893, 0.01315028965473175, -0.003756457008421421, -0.009781633503735065, -0.060785092413425446, 0.030497446656227112, -0.05556544288992882, 0.04820943623781204, -0.03925681114196777, 0.0345732681453228, 0.0611470565199852, 0.028456207364797592, -0.03378267213702202, -0.006089348345994949, 0.04629490152001381, -0.023904435336589813, -0.045061469078063965, -0.0327436700463295, -0.012155496515333652, 0.01183387078344822, 0.04270674288272858, -0.05928933992981911, -0.03547118231654167, -0.03320978581905365, -0.052554141730070114, -0.05891719460487366, -0.04246872290968895, -0.04946679249405861, 0.017134174704551697, 0.04301528260111809, -0.007532557938247919, 0.03286081179976463, -0.020267942920327187, 0.04577482491731644, -0.02936931885778904, -0.0451650507748127, -0.032778479158878326, -0.006784500554203987, -0.0028182603418827057, -0.02733101323246956, 0.05258750170469284, 0.013400238938629627, 0.05103173479437828, -0.02050578035414219, -0.033673446625471115, 0.008875830098986626, -0.058905020356178284, 0.010305734351277351, 0.0394713468849659, 0.039280761033296585, 0.005383973941206932, -0.043173789978027344, 0.008106579072773457, -0.053806886076927185, -0.007736841682344675, 0.008993193507194519, 0.0504169836640358, -0.02165820077061653, -0.022845415398478508, -0.01652367413043976, -0.013527555391192436, 0.06002289801836014, 0.050129979848861694, 0.03914690017700195, -0.018657727167010307, -0.016389064490795135, 0.013175161555409431, -0.0315210334956646, 0.045041274279356, 0.058584753423929214, 0.057109031826257706, -0.025407716631889343, 0.0026101619005203247, 0.03839661926031113, 0.053548432886600494, -0.009822471998631954, -0.06288560479879379, -0.01763538457453251, -0.04113755747675896, 0.01278992835432291, 0.0290474034845829, 0.03987574577331543, -0.06013471260666847, 0.04910758137702942, 0.04065457731485367, -0.04845784232020378, -0.009503758512437344, 0.022070186212658882, -0.004314955323934555, 0.019333679229021072, 0.028167204931378365, -0.01265066396445036, 0.050173331052064896, 0.048753365874290466, 0.031849026679992676, 0.04570285603404045, 0.039955515414476395, -0.054820336401462555, 0.0477619506418705, 0.027139170095324516, 0.038167502731084824, -0.05016760155558586, 0.055432505905628204, 0.03111857920885086, 0.0351291298866272, 0.0464608371257782, -0.020362958312034607, 0.05084346607327461, 0.01718664914369583, -0.01422739215195179, -0.0455370657145977, 0.006758735980838537, -0.015963589772582054, -0.04247891530394554, 0.02614774741232395, -0.05462247505784035, -0.006717961747199297, -0.04977045953273773, 0.05083118751645088, 0.04121627286076546, 0.00381187885068357, -0.012134355492889881, -0.020222380757331848, 0.05809883773326874, 0.030093049630522728, -0.004735712893307209, 0.028308946639299393, 0.00864311121404171, -0.044964052736759186, 0.022870145738124847, -0.040424175560474396, -0.04178211838006973, -0.011901738122105598, -0.04869737848639488, -0.06000278890132904, 0.002676677657291293, -0.04180226847529411, -0.014002261683344841, -0.048263996839523315, 0.0258043110370636, 0.01915571466088295, -0.014265592209994793, 0.039396271109580994, 0.05862786993384361, 0.04880692437291145, -0.01859334670007229, 0.05692726746201515, 0.025784121826291084, 0.0232138279825449, -0.05194073170423508, -0.039308369159698486, 0.03689144179224968, 0.04643893986940384, -0.000313327822368592, 0.054849572479724884, -0.021879330277442932, 0.02298554964363575, -0.05432162061333656, -0.0013747868360951543, 0.035688694566488266, 0.04732018709182739, 0.03982783481478691, 0.02447156421840191, 0.010279442183673382, -0.021784333512187004, -0.019944624975323677, -0.05647582188248634, 0.022896036505699158, -0.016155114397406578, -0.05182887241244316, -0.05521464720368385, 0.020396478474140167, 0.009621018543839455, 0.01698070392012596, 0.042083028703927994, -0.005610741209238768, -0.027682818472385406, 0.024632105603814125, 0.04726171866059303, -0.015075869858264923, 0.04353112354874611, -0.02308339625597, -0.004950785543769598, -0.00779497716575861, 0.048529818654060364, 0.036976974457502365, 0.05353325232863426, -0.03040250763297081, 0.02387610450387001, -0.016527727246284485, -0.03405241295695305, 0.04256360977888107, -0.04543238878250122, 0.010232663713395596, -0.029751351103186607, -0.011089452542364597, 0.014791438356041908, -0.007788977585732937, 0.026846185326576233, -0.04530898481607437, 0.0014183454914018512, -0.03005295991897583, 0.002193414606153965, 0.053150832653045654, -0.044382624328136444, 0.012636575847864151, -0.02050941437482834, -0.01229754276573658, 0.054732874035835266, 0.03283465653657913, -0.013175535015761852, -0.01179231982678175, -0.018891505897045135, -0.007106723263859749, -0.009298576973378658, 0.0306234247982502, 0.056554414331912994, -0.048185449093580246, 0.016367172822356224, -0.0018238842021673918, -0.03669358789920807, -0.061881594359874725, -0.024703150615096092, -0.04150734469294548, 0.023151574656367302, 0.061149682849645615, -0.023284219205379486, -0.02304268069565296, 0.03933696821331978, 0.013533437624573708, -0.02196080982685089, 0.010641243308782578, 0.03821057081222534, -0.00024710054276511073, -0.00951896421611309, -0.007349168881773949, 0.00557219423353672, -0.03402498736977577, -0.031058574095368385, 0.010418313555419445, 0.04344487562775612, 0.028568165376782417, 0.019730044528841972, 4.3787276808870956e-05, 0.0455113910138607, -0.0593242309987545, -0.015311403200030327, 0.02241385728120804, 0.0313350148499012, 0.010402667336165905, 0.05503024533390999, 0.04585403576493263, 0.049480143934488297, 0.008835474029183388, -0.03374442458152771, 0.011770087294280529, -0.010006272234022617, 0.0524669885635376, -0.060826342552900314, 0.04314902797341347, 0.012961607426404953, -0.05387584865093231, -0.03566747158765793, -0.012759038247168064, 0.043665554374456406, -0.007285570725798607, -0.04000227525830269, 0.043702054768800735, -0.020684240385890007, 0.017254672944545746, -0.024377508088946342, -0.06048882007598877, -0.026501072570681572, 0.011673239059746265, 0.011945510283112526, -0.05506565794348717, 0.0030915699899196625, 0.01021693367511034, -0.0530625618994236, -0.04564164578914642, -0.006589304190129042, -0.0309278704226017, 0.0435885526239872, 0.02009212225675583, -0.037463393062353134, 0.006425528321415186, 0.04345344752073288, 0.003473748452961445, -0.010905583389103413, -0.014991071075201035, -0.0068280077539384365, -0.029422437772154808, 0.024756241589784622, -0.016770057380199432, 0.01506965234875679, -0.0059839882887899876, 0.047668371349573135, -0.038170844316482544, 0.04321618750691414, -0.020498769357800484, 0.030001308768987656, 0.049313854426145554, -0.020965494215488434, 0.02274477109313011, 0.012382525950670242, -0.04601774364709854, -0.049540627747774124, 0.0064490740187466145, -0.024122577160596848, -0.05941246077418327, 0.01056497823446989, -0.019645771011710167, 0.04674951732158661, 0.04973937198519707, 0.02750162035226822, 0.04128893464803696, 0.04589637368917465, 0.0011147592449560761, -0.010984047316014767, -0.017914285883307457, -0.04825776070356369, 0.022708429023623466, 0.029590945690870285, 0.03393387794494629, -0.02261296845972538, 0.0319463312625885, -0.004336063750088215, 0.05211643874645233, 0.021001266315579414, 0.04636905714869499, 0.05870182067155838, 0.0009478948195464909, -0.024149609729647636, -0.020159311592578888, 0.02183305099606514, 0.045063603669404984, 0.030019722878932953, 0.055593304336071014, 0.021496489644050598, -0.024281417950987816, 0.011151214130222797, 0.058212973177433014, 0.019962234422564507, -0.03958003968000412, 0.01836474798619747, -0.04786190018057823, 0.04892542585730553, -0.007383198011666536, -0.021141977980732918, -0.021393971517682076, 0.02730579860508442, 0.007677685469388962, 0.01558559201657772, 0.04227913171052933, -0.027310719713568687, 0.04956637695431709, -0.019505299627780914, 0.025341248139739037, 0.041024480015039444, 0.048177238553762436, -0.04206407815217972, 0.02995412051677704, 0.0041793342679739, -0.003374692751094699, -0.051979780197143555, 0.016580354422330856, -0.013607966713607311, -0.015578382648527622, -0.014834031462669373, -0.04263581708073616, -0.013553549535572529, -0.020591629669070244, -0.01941363699734211, 0.017479369416832924, 0.020250849425792694, 0.04858611524105072, 0.02868015319108963, 0.059026412665843964, 0.04288753122091293, -0.045869793742895126, 0.036093052476644516, -0.04096680134534836, 0.008559725247323513, -0.05851046368479729, 0.05820217728614807, 0.03494517505168915, -0.0011050462489947677, -0.019893009215593338, 0.04615224152803421, 0.0003146996023133397, 0.027540968731045723, 0.046523720026016235, 0.037110283970832825, -0.053460974246263504, 0.05660483241081238, -0.006898627150803804, 0.014261238276958466, -0.05170593410730362, 0.03130829334259033, -0.048835210502147675, 0.03372099623084068, 0.029228653758764267, 0.0544092021882534, -0.05586574599146843, -0.05416656285524368, -0.05535982921719551, 0.02108667604625225, 0.022561615332961082, 0.04538201913237572, -0.004916054662317038, -0.04422498494386673, 0.061630599200725555, -0.006670207250863314, 0.015751568600535393, -0.04415503144264221, -0.011265581473708153, 0.0024617768358439207, -0.05466888099908829, -0.0472973994910717, -0.03652676194906235, 0.0005329647101461887, 0.03623843938112259, -0.018036440014839172, 0.02488306164741516, -0.05190131440758705, 0.05550054833292961, 0.003632386215031147, -0.03989975154399872, 0.01856589876115322, -0.03368378430604935, 0.01840929500758648, 0.006480055395513773, -0.001560813165269792, -0.05366162210702896, 0.004805807024240494, -0.05541011318564415, 0.04925166070461273, -0.008854263462126255, 0.05526784062385559, 0.00258154165931046, 0.026270532980561256, 0.012426084838807583, -0.04807043448090553, -0.010804887861013412, 0.027285199612379074, 0.0430561788380146, -0.055020589381456375, -0.03157685697078705, 0.04000771790742874, 0.04416540637612343, 0.015724781900644302, 0.047683652490377426, 0.004749355837702751, 0.05816241353750229, -0.05074077099561691, -0.0466601625084877, -0.052613429725170135, -0.042092811316251755, 0.05232812836766243, -0.02940128929913044, 0.03203349560499191, 0.01925618015229702, -0.014023875817656517, -0.014800993725657463, 0.0005568639026023448, 0.008628635667264462, -0.023751096799969673, 0.023569438606500626, 0.007206412963569164, -0.037120986729860306, -0.030469827353954315, -0.04153753072023392, 0.03894680738449097, -0.03650086745619774, 0.0013048358960077167, -0.012489239685237408, 0.041267551481723785, -0.010239865630865097, -0.012069795280694962, -0.044366367161273956, -0.06135167181491852, 0.04417852684855461, -0.007645386271178722, 0.059635572135448456, 0.027946069836616516, -0.039129991084337234, -0.02418399602174759, 0.04460319131612778, 0.01371846254914999, -0.0019306943286210299, 0.0010592294856905937, -0.04825473949313164, -0.04662405326962471, 0.0381733737885952, -0.014878051355481148, 0.034937500953674316, 0.0015501001616939902, -0.028495844453573227, 0.01564181037247181, -0.05729765444993973, 0.047386880964040756, 0.053472381085157394, 0.02901766076683998, -0.05694461241364479, 0.031011095270514488, -0.0031362315639853477, -0.06211143732070923, -0.02013404294848442, 0.0021636364981532097, 0.021927455440163612, 0.046156663447618484, -0.007484352216124535, -0.003090857295319438, -0.046974264085292816, -0.0033294952008873224, 0.028163544833660126, -0.0018494977848604321, -0.026576317846775055, 0.03831673040986061, -0.0009745760471560061, -0.021991226822137833, -0.006024617236107588, 0.04658712446689606, -0.0019441976910457015, -0.04824020341038704, -0.013212386518716812, -0.007003356236964464, -0.005083953961730003, 0.027722090482711792, -0.049863532185554504, -0.0027831895276904106, 0.021461835131049156, -0.004294284153729677, 0.030951697379350662, 0.03809400647878647, -0.03910571336746216, 0.034946221858263016, -0.01929553411900997, 0.05178432539105415, 0.050438497215509415, 0.004249125253409147, -0.0550285167992115, 0.04591289162635803, -0.018366655334830284, 0.032760780304670334, -0.04112787917256355, -0.014479175209999084, 0.016234485432505608, 0.02359018474817276, -0.009633365087211132, 0.002183241304010153, 0.02102227322757244, 0.058380041271448135, -0.054407984018325806, -0.04484795778989792, 0.03664866462349892, -0.003849930828437209, -0.0032471949234604836, -0.021948570385575294, 0.019688988104462624, -0.032266151160001755, 0.03596746549010277, 0.04911641776561737, -0.03233219310641289, 0.008856198750436306, -0.02573857270181179, 0.0013451576232910156, 0.030473394319415092, 0.010755633004009724, -0.03390355408191681, -0.035653501749038696, -0.043875426054000854, 0.0066514164209365845, -0.059151168912649155, -0.062163591384887695, 0.04593425989151001, 0.04237162694334984, -0.010822387412190437, -0.011767949908971786, -0.0166530329734087, 0.01914316788315773, 0.004791558254510164, -0.008081870153546333, -0.03330313786864281, 0.03066999465227127, 0.03741941228508949, 0.0013754895189777017, 0.052243199199438095, -0.05350985378026962, 0.05395370349287987, 0.008568080142140388, -0.01301196962594986, -0.013332542963325977, 0.05211549252271652, -0.01956573873758316, -0.04739365354180336, -0.03833238035440445, -0.022998284548521042, -0.00941488891839981, 0.04195160046219826, 0.0030036005191504955, 0.0006318929372355342, 0.036748167127370834, -0.05882720649242401, -0.03965705260634422, 0.06096930801868439, 0.03951519727706909, -0.024465221911668777, -0.0037029648665338755, -0.05812886357307434, 0.044234540313482285, 0.025555936619639397, 0.0418175607919693, 0.03952778875827789, 0.05595504865050316, 0.05348280817270279, -0.022365355864167213, -0.03288489207625389, 0.05925257131457329, -0.05286702886223793, 0.06012861430644989, 0.006989585235714912, 0.044479694217443466, -0.016026267781853676, -0.050503745675086975, 0.00602264329791069, 0.052437327802181244, -0.02439645119011402, -0.022917892783880234, 0.03802359104156494, -0.0014733490534126759, 0.03162669762969017, 0.05789995938539505, -0.052725937217473984, -0.04139087721705437, 0.04779570922255516, 0.05393542721867561, 0.04722921550273895, 0.028801703825592995, -0.008601577021181583], [-0.05057491734623909, 0.06023198738694191, -0.010134358890354633, 0.001150512252934277, -0.058541495352983475, 0.018139589577913284, 0.05846988782286644, 0.035231705754995346, -0.04518316686153412, -0.044901736080646515, 0.03402457758784294, -0.03999669477343559, -0.05036451667547226, 0.008974924683570862, -0.020262913778424263, -0.047611698508262634, -0.015187413431704044, 0.0468093603849411, -0.05365912243723869, -0.01849871315062046, -0.021318312734365463, 0.04082011058926582, 0.014951301738619804, -0.04224521666765213, -0.0005615940317511559, 0.02523738332092762, 0.0574079193174839, 0.013553330674767494, -0.02681632526218891, 0.012014409527182579, -0.03302856907248497, -0.05239762365818024, -0.011062134988605976, 0.05003881826996803, -0.029673060402274132, 0.044496823102235794, 0.0609859935939312, -0.01097349263727665, -0.048208240419626236, 0.04320509359240532, 0.0247319508343935, -0.043697942048311234, -0.034331511706113815, -0.05667349323630333, 0.06143541634082794, -0.01925628073513508, 0.04298481345176697, -0.049485765397548676, 0.03372656926512718, 0.013774585910141468, -0.04655389487743378, -0.018007487058639526, -0.012247557751834393, 0.03544098138809204, -0.05573778226971626, 0.03578149154782295, -0.011647219769656658, -0.048186294734478, 0.05451318249106407, 0.014468424022197723, -0.04751794785261154, 0.0012878670822829008, 0.04800589382648468, 0.05903946980834007, -0.01958242803812027, 0.03266049921512604, 0.028203656896948814, -0.053222570568323135, 0.012520330026745796, -0.023489879444241524, 0.02196311205625534, 0.04437893256545067, 0.058171242475509644, -0.040524497628211975, -0.022177739068865776, -0.013316144235432148, -0.002225382486358285, -0.05611305683851242, -0.018525337800383568, 0.02102375403046608, 0.007244647014886141, -0.0007140354136936367, 0.012743640691041946, 0.004333782941102982, -0.00820878054946661, 0.04722515866160393, 0.009290491230785847, 0.021262438967823982, 0.030969079583883286, -0.015718786045908928, -0.009267395362257957, 0.019611621275544167, 0.04235607385635376, -0.013448483310639858, -0.018134403973817825, 0.001143040950410068, 0.05582476407289505, -0.03722602501511574, 0.035094253718853, 0.00783508736640215, 0.005014379508793354, -0.01795494556427002, 0.017804786562919617, 0.01774277538061142, 0.02300545759499073, 0.0389607697725296, 0.020597415044903755, -0.0332663357257843, -0.004371211864054203, 0.006216808687895536, -0.022588254883885384, 0.0016885900404304266, -0.048881690949201584, -0.01188830379396677, -0.01843692548573017, 0.026470385491847992, 0.022973185405135155, 0.05906406417489052, -0.05249079316854477, -0.05127687752246857, 0.0170491524040699, -0.04261743277311325, 0.027820030227303505, -0.03804599866271019, -0.011243263259530067, -0.05817132070660591, -0.02394684962928295, -0.017769694328308105, 0.03259412199258804, -0.003848338034003973, 0.005867393221706152, 0.016284117475152016, -0.012745633721351624, 0.019883401691913605, 0.023987656459212303, -0.0476577989757061, -0.058378931134939194, -0.03605817258358002, -0.02380952425301075, -0.040496520698070526, 0.025043001398444176, 0.04470769315958023, 0.03798072785139084, -0.03264808654785156, -0.010165112093091011, -0.019887911155819893, 0.020694764330983162, -0.001081771682947874, 0.0014366202522069216, -0.026700757443904877, -0.029825935140252113, -0.003387037431821227, -0.04665767773985863, 0.03676387667655945, 0.025047916918992996, -0.019420992583036423, 0.04732726514339447, 0.029100585728883743, -0.005760933738201857, -0.02645355463027954, -0.03449093922972679, -0.011365426704287529, 0.043164126574993134, 0.020913030952215195, -0.03546227887272835, -0.05982960760593414, 0.00023358648468274623, -0.040526360273361206, -0.02929595299065113, 0.03352273255586624, -0.016706716269254684, -0.006182493641972542, 0.041984327137470245, 0.00012182719365227968, 0.01659443788230419, -0.04337840527296066, -0.005697794258594513, 0.0381537564098835, -0.05504108592867851, -0.009890495799481869, 0.05324086546897888, 0.012474557384848595, -0.04067781940102577, 0.021433768793940544, 0.05925542861223221, 0.03412719443440437, -0.04528190195560455, -0.04764704406261444, -0.018307292833924294, 0.03795408830046654, 0.057495150715112686, 0.04503311961889267, 0.048774752765893936, -0.04171878471970558, -0.057667382061481476, -0.05694270879030228, 0.027591180056333542, -0.001109916833229363, 0.061853643506765366, -0.037010326981544495, -4.7817105951253325e-05, 0.04016006365418434, -0.04304647445678711, 0.011549112387001514, 0.02221488580107689, 0.03342004492878914, -0.0416477732360363, 0.05838087201118469, -0.015326603315770626, -0.043223798274993896, -0.016035987064242363, 0.05797426402568817, -0.0257461816072464, -0.03558309003710747, -0.041216131299734116, 0.0022843151818960905, -0.004188536200672388, 0.04753657430410385, 0.014157949946820736, 0.00027343793772161007, 0.061598651111125946, 0.06022392585873604, 0.01536673866212368, 0.01916913315653801, -0.045552369207143784, -0.03210663050413132, 0.05025243014097214, 0.026467066258192062, -0.057406362146139145, 0.020188376307487488, -0.0227274838835001, 0.028790423646569252, -0.01180586963891983, 0.03809787705540657, -0.03900691121816635, -0.01484535913914442, -0.025993596762418747, -0.04244894161820412, 0.026912853121757507, -0.0008720717160031199, -0.00717561598867178, 0.03470520302653313, 0.04023369029164314, -0.03529835492372513, -0.03144806995987892, 0.019932106137275696, -0.0443635955452919, 0.035872314125299454, -0.01984097622334957, -0.03181155398488045, 0.02258852869272232, 0.048176925629377365, 0.011399785056710243, 0.058758724480867386, -0.03914692997932434, -0.05864792317152023, 0.03265867009758949, -0.011650717817246914, -0.052135903388261795, 0.02078709378838539, -0.010215396992862225, -0.057157814502716064, -0.043477945029735565, 0.05045223981142044, 0.001523063168860972, 0.027102870866656303, -0.002124173566699028, 0.06032061576843262, -0.06045757234096527, -0.00753994332626462, 0.02202383056282997, 0.0023263420443981886, -0.05377969890832901, 0.05170637369155884, -0.02857920154929161, 0.05037672445178032, 0.0598546527326107, 0.03438409045338631, 0.023378482088446617, -0.01612827554345131, 0.02302328683435917, 0.04720927029848099, -0.023026559501886368, 0.02728775143623352, -0.03241484984755516, -0.04953763633966446, -0.05659422650933266, 0.018175605684518814, -0.04016648232936859, 0.04090661182999611, -0.036732811480760574, 0.010955864563584328, -0.05457784980535507, -0.03108910098671913, 0.02771686390042305, -0.009278083220124245, -0.01110728271305561, 0.056002259254455566, 0.035915128886699677, -0.019789505749940872, 0.0600619874894619, -0.05894521251320839, 0.04298148304224014, -0.06157415732741356, 0.0586613193154335, -0.029412757605314255, 0.04302213340997696, -0.007482415065169334, -0.01708267815411091, 0.03458558768033981, 0.005090444814413786, 0.043513331562280655, -0.00933066289871931, -0.032019805163145065, 0.020120523869991302, -0.033113084733486176, -0.052062127739191055, 0.013821342960000038, -0.02905605360865593, 0.0037970044650137424, -0.015453850850462914, -0.043464090675115585, -0.012982030399143696, 0.017858760431408882, 0.029484717175364494, -0.026592614129185677, -0.01618107594549656, 0.051778651773929596, 0.007479044608771801, 0.03211256489157677, -0.0570983923971653, 0.04788834974169731, -0.016142945736646652, -0.0008735405281186104, -0.05006793513894081, -0.03769012540578842, -0.029600026085972786, -0.059984490275382996, 0.03697017952799797, 0.044437870383262634, -0.013049660250544548, -0.048444245010614395, 0.05742200091481209, 0.0033697334583848715, 0.02905198745429516, 0.010225565172731876, -0.03413720428943634, 0.05293409526348114, 0.03751068562269211, 0.032679375261068344, -0.007664837408810854, 0.045262839645147324, -0.033702027052640915, -0.012565849348902702, -0.049166981130838394, 0.04920670762658119, -0.050861239433288574, -0.05819835886359215, -0.014533869922161102, -0.017813976854085922, -0.009049192070960999, -0.016060469672083855, -0.05483643710613251, 0.01600763387978077, 0.001827447209507227, -0.055798664689064026, 0.02997259609401226, -0.04494321718811989, 0.05049971863627434, -0.010538830421864986, -0.008344696834683418, -0.032829929143190384, -0.025711633265018463, -0.05569291487336159, -0.0559733547270298, -0.03177609294652939, -0.009231372736394405, 0.0035376029554754496, -0.03594796732068062, 0.026622096076607704, 0.06137039512395859, -0.023610547184944153, -0.0027027821633964777, -0.05419287085533142, 0.03472885861992836, 0.030864257365465164, 0.0321979746222496, 0.012321907095611095, -0.0012294643092900515, 0.04180646687746048, 0.018519217148423195, -0.05569058284163475, 0.05701211094856262, -0.05258273705840111, 0.004048232454806566, 0.007464592345058918, -0.0012621980858966708, 0.015304001048207283, -0.013554996810853481, -0.03019685670733452, -0.04249617084860802, 0.027711419388651848, -0.013339552097022533, -0.005084946285933256, 0.019070297479629517, 0.009218394756317139, -0.05131286755204201, 0.02096574194729328, 0.03150242194533348, -0.02765718288719654, 0.004178588278591633, 0.014394973404705524, -0.0027494076639413834, -0.04944593086838722, -0.050867073237895966, -0.008334387093782425, 0.02750115469098091, -0.0033551419619470835, 0.01701514981687069, 0.029753221198916435, 0.061664748936891556, -0.04390471801161766, 0.05597435310482979, 0.042337656021118164, 0.013330555520951748, 0.03947636857628822, 0.007325010374188423, 0.02503255195915699, -0.06158772483468056, -0.019003693014383316, 0.006896859500557184, 0.008864021860063076, -0.011252239346504211, -0.036741796880960464, -0.017893239855766296, -0.05035889148712158, 0.05781969428062439, 0.014253173023462296, 0.058549344539642334, -0.024716835469007492, 0.013136984780430794, -0.05951142683625221, -0.006146829109638929, -0.015858260914683342, 0.040377870202064514, -0.039580777287483215, 0.025864791125059128, -0.003397575579583645, 0.061893049627542496, 0.052561771124601364, -0.05200653150677681, -0.00218275748193264, 0.0434580072760582, 0.005576894618570805, 0.012917891144752502, 0.05730695277452469, -0.0038135794457048178, -0.06162010878324509, 0.026801781728863716, -0.00831297505646944, 0.05241996794939041, 0.003842009464278817, 0.06013317033648491, 0.0026018586941063404, 0.049514152109622955, -0.0034346275497227907, -0.033295463770627975, 0.02006470412015915, -0.056364335119724274, 0.012617851607501507, 0.053410109132528305, -0.01158000249415636, -0.05439746379852295, 0.0035654946696013212, 0.02080206200480461, 0.028557751327753067, 0.0009139685425907373, 0.04343382269144058, 0.059863749891519547, 0.024291424080729485, 0.006837153807282448, 0.03607986867427826, -0.022460753098130226, -0.042269084602594376, 0.02683231048285961, -0.05052841082215309, 0.04679503291845322, 0.037027738988399506, 0.04791503772139549, -0.05110938102006912, 0.030857793986797333, -0.05997741222381592, -0.05648747831583023, 0.057400647550821304, 0.011351333931088448, -0.02760496363043785, 0.01627352088689804, -0.05198406055569649, -0.04771672934293747, 0.013534879311919212, -0.02425011619925499, 0.022934777662158012, 0.036578960716724396, -0.05405634641647339, 0.023936990648508072, -0.027487335726618767, 0.0336945466697216, -0.015513494610786438, 0.060571521520614624, -0.0507524311542511, 0.028582600876688957, -0.04797607287764549, -0.023819489404559135, 0.016424085944890976, -0.04623137786984444, -0.0070510911755263805, -0.039613619446754456, -0.04815148189663887, -0.0534544363617897, 0.052714478224515915, -0.001732925302349031, -0.0473630391061306, 0.016574153676629066, -0.029713956639170647, 0.04967101663351059, 0.05629974603652954, -0.058686528354883194, 0.025849919766187668, -0.020013077184557915, 0.030243724584579468, -0.06162393465638161, -0.0075179277919232845, 0.0352083295583725, 0.004309041891247034, 0.011095491237938404, -0.027694035321474075, 0.05773540586233139, 0.007881141267716885, -0.013356402516365051, -0.01832006312906742, -0.04250215366482735, 0.03741142526268959, -0.03182365745306015, -0.059485651552677155, 0.04063341021537781, 0.01467414665967226, 0.04244525358080864, -0.028021031990647316, -0.00607377989217639, 0.0017721370095387101, 0.0012472853995859623, 0.04031224921345711, 0.03870317339897156, -0.0006636694306507707, -0.0503535270690918, -0.05313583090901375, -0.010548939928412437, -0.030410325154662132, 0.041993312537670135, -0.0198366679251194, -0.003772603115066886, 0.052927784621715546, -0.02362200617790222, -0.010863637551665306, -0.00324341282248497, 0.01936805061995983, 0.026506874710321426, 0.04221015051007271, 0.01310753170400858, -0.050908610224723816, 0.03742106631398201, -0.01336473599076271, 0.00812824908643961, 0.05695357546210289, 0.03725561127066612, -0.006383047439157963, 0.017016291618347168, 0.0031500698532909155, 0.013934528455138206, 0.039986271411180496, 0.03955903276801109, 0.0031120458152145147, -0.027110762894153595, -0.008894111961126328, -0.0343325212597847, 0.0497853122651577, 0.010886442847549915, -0.029398925602436066, -0.0038429556880146265, 0.009374759159982204, -0.0485675223171711, -0.030819574370980263, -0.01411144994199276, 0.04580358415842056, -0.02424263209104538, -0.05954471975564957, 0.057822924107313156, -0.050390515476465225, 0.006585116498172283, -0.0065510449931025505, -0.04172996059060097, 0.030453750863671303, 0.05023171007633209, 0.060481831431388855, -0.04281940311193466, -0.0061911181546747684, 0.00544913113117218, -0.04906661435961723, -0.040471479296684265, 0.023494942113757133, -0.0469629243016243, -0.006699399556964636, -0.0036927161272615194, -0.04886341840028763, -0.014089525677263737, -0.020045669749379158, -0.034498054534196854, 