[-0.1511405110359192, 0.14501528441905975, -0.14757360517978668, 0.05991560220718384, 0.10091422498226166, 0.02267874777317047, -0.09771832078695297, -0.13268718123435974, 0.15724557638168335, 0.09278541803359985, -0.1749364286661148, 0.11568856984376907, 0.08418070524930954, -0.01549967098981142, -0.02798290364444256, -0.20098377764225006, 0.1707700937986374, -0.11486154049634933, -0.02506810612976551, -0.060859426856040955, 0.12017028033733368, 0.006845566444098949, -0.05827725678682327, 0.1386180967092514, -0.077001191675663, 0.2016027867794037, 0.16070593893527985, -0.13186988234519958, -0.05224081501364708, -0.020440205931663513, -0.060439109802246094, 0.13393539190292358, 0.211102694272995, 0.06407267600297928, -0.057348109781742096, 0.05660180374979973, 0.15095439553260803, 0.004737844690680504, -0.15207821130752563, -0.09509245306253433, 0.03135369345545769, 0.1730315387248993, 0.14920377731323242, 0.0792340412735939, -0.09624925255775452, 0.0917857363820076, 0.025183245539665222, 0.21766725182533264, 0.06612063199281693, 0.06306556612253189, 0.1417539268732071, 0.044725436717271805, -0.08837467432022095, -0.07578256726264954, -0.03182822838425636, -0.0942404493689537, 0.0536845438182354, -0.1192512959241867, -0.18415702879428864, -0.026578590273857117, 0.18763016164302826, 0.17739872634410858, -0.0817355364561081, 0.027124524116516113], [-0.03788930922746658, -0.02994193695485592, -0.08716689050197601, -0.15069912374019623, 0.10503178089857101, -0.18208003044128418, -0.11474785208702087, 0.1866714358329773, -0.12209585309028625, 0.009323672391474247, 0.03132205083966255, 0.008513294160366058, -0.16842558979988098, 0.18992812931537628, 0.07002290338277817, -0.09431964159011841, 0.137486532330513, 0.1853541135787964, -0.0861561968922615, -0.16657066345214844, 0.13828352093696594, 0.11112119257450104, 0.17621365189552307, -0.07497617602348328, 0.17737621068954468, -0.005828286055475473, 0.18790912628173828, -0.19640499353408813, 0.11472870409488678, -0.002747555263340473, -0.14722806215286255, 0.16457152366638184, 0.15553288161754608, -0.07222635298967361, 0.08671251684427261, 0.10180378705263138, 0.08112422376871109, 0.08677773177623749, -0.014172255992889404, 0.13163013756275177, 0.17689548432826996, -0.14216414093971252, 0.15233173966407776, -0.15901950001716614, 0.0472203865647316, -0.20111878216266632, 0.09206115454435349, 0.06156919151544571, 0.07314581423997879, 0.14444690942764282, 0.058789219707250595, 0.08433476835489273, 0.034383513033390045, 0.0870879739522934, -0.04933277145028114, -0.07710971683263779, -0.16306044161319733, -0.19752071797847748, -0.00678910780698061, 0.147358700633049, 0.008380156941711903, 0.05636029317975044, 0.14153331518173218, -0.13507480919361115], [0.14698508381843567, -0.0211815033107996, -0.19450663030147552, -0.0310045313090086, 0.0830005630850792, -0.10698124766349792, -0.10304614901542664, -0.20240356028079987, 0.11810638010501862, 0.11409954726696014, 0.07042449712753296, -0.1385859251022339, 0.04724432900547981, 0.10683485120534897, 0.10785621404647827, 0.14306935667991638, -0.05647672340273857, -0.1018974557518959, -0.07654385268688202, 0.08078283071517944, -0.13742731511592865, -0.11504911631345749, 0.039050981402397156, -0.11524538695812225, -0.013717569410800934, 0.19522783160209656, 0.18110036849975586, -0.05893717333674431, -0.03431865945458412, -0.1044713705778122, 0.0787096694111824, 0.10178528726100922, 0.0092569375410676, 0.10859094560146332, -0.009939849376678467, 0.12430491298437119, 0.08615440875291824, 0.020679546520113945, 0.14477361738681793, 0.10780181735754013, -0.2033405601978302, 0.008658002130687237, -0.08657241612672806, -0.07524863630533218, -0.2147855907678604, 0.15672580897808075, -0.03490078076720238, -0.09159986674785614, -0.11427710950374603, 0.15394239127635956, 0.0182939525693655, -0.1590190976858139, -0.07663882523775101, -0.0370970144867897, -0.14588414132595062, -0.008705196902155876, 0.10483475029468536, -0.007725108414888382, 0.015460760332643986, 0.09520845115184784, -0.028089363127946854, -0.12571647763252258, 0.068665511906147, -0.17041078209877014], [0.15580709278583527, 0.18258225917816162, 0.20543769001960754, -0.11507099866867065, -0.06090438738465309, -0.19319655001163483, -0.14277009665966034, 0.0684843510389328, -0.08058366179466248, -0.19410471618175507, -0.025192702189087868, -0.13962922990322113, -0.021653082221746445, -0.17557817697525024, 0.019653772935271263, 0.0918382778763771, -0.20197497308254242, -0.1893104761838913, -0.03520297631621361, -0.1111161932349205, -0.1621963381767273, -0.07680141180753708, 0.13127920031547546, -0.021382126957178116, -0.12618377804756165, 0.062260568141937256, 0.12157124280929565, 0.18279317021369934, 0.18212342262268066, -0.0815979540348053, 0.050959743559360504, -0.07503772526979446, -0.026031874120235443, 0.06968338787555695, -0.05721841752529144, -0.15050365030765533, 0.12464318424463272, 0.16745592653751373, -0.0304491575807333, 0.19984321296215057, -0.19155795872211456, -0.06494135409593582, 0.07731881737709045, -0.12062311172485352, -0.1259869933128357, -0.008433142676949501, -0.05096543952822685, 0.044055111706256866, 0.12930350005626678, -0.07346577197313309, -0.18976753950119019, 0.0049134488217532635, 0.14079393446445465, 0.0869319960474968, 0.06513439118862152, -0.14286266267299652, -0.02282768115401268, -0.0585147961974144, -0.1736932247877121, 0.1607687622308731, -0.04406070336699486, -0.08421802520751953, -0.06296894699335098, 0.09061599522829056], [0.19042041897773743, 0.20030052959918976, -0.04570554941892624, -0.15699389576911926, 0.13634933531284332, 0.15330453217029572, -0.20331956446170807, -0.021924374625086784, -0.0731312558054924, 0.06298942863941193, 0.1840696930885315, 0.12530219554901123, 0.17646680772304535, -0.12195400893688202, 0.14583590626716614, 0.006636105943471193, 0.19514162838459015, 0.13520419597625732, -0.04032637178897858, 0.1281718909740448, 0.1393478661775589, -0.13694484531879425, -0.17668704688549042, -0.12602229416370392, 0.060613155364990234, 0.09684285521507263, -0.1474660485982895, -0.1850627213716507, 0.19345790147781372, 0.12226070463657379, -0.006360684055835009, -0.213982954621315, 0.17536354064941406, 0.047227323055267334, -0.19056157767772675, 0.01833897829055786, 0.13071349263191223, -0.09779300540685654, -0.16122324764728546, -0.009605654515326023, 0.004892070312052965, -0.172242671251297, -0.03542451187968254, -0.17401301860809326, 0.07482244074344635, -0.007235851604491472, -0.005374746397137642, -0.10583144426345825, 0.17655853927135468, -0.07036987692117691, -0.16479191184043884, -0.11035490781068802, -0.00767873041331768, -0.08210639655590057, 0.19571246206760406, -0.21711774170398712, 0.02065671980381012, -0.049633339047431946, -0.18198372423648834, 0.19649772346019745, -0.011301163583993912, 0.1064596101641655, 0.09427110850811005, 0.1742091178894043], [0.004411817062646151, 0.08173073828220367, -0.01992766186594963, -0.06766650080680847, 0.0558941587805748, 0.016650760546326637, 0.03252359479665756, 0.05211464315652847, 0.19393151998519897, 0.09324067831039429, -0.1912415772676468, 0.1163468286395073, 0.08194663375616074, -0.02037736587226391, 0.19566510617733002, 0.14218655228614807, -0.10958749055862427, 0.19179373979568481, -0.12817475199699402, 0.14658644795417786, -0.07317256182432175, 0.14787521958351135, -0.0053884596563875675, 0.13505959510803223, -0.02029266208410263, 0.03201305866241455, -0.04497064650058746, 0.12740227580070496, 0.011304132640361786, 0.010899006389081478, -0.1755932867527008, 0.18582578003406525, -0.14308445155620575, -0.06104160472750664, -0.13902826607227325, -0.027718713507056236, 0.026251452043652534, -0.14501994848251343, -0.14822840690612793, -0.14790558815002441, -0.15818357467651367, 0.1133597120642662, 0.046684619039297104, 0.14707723259925842, 0.01749502681195736, -0.04722750931978226, -0.023792346939444542, 0.10184454172849655, 0.012337022460997105, -0.09161204099655151, 0.16342417895793915, 0.10537783801555634, 0.10763419419527054, -0.1963476538658142, 0.12223383039236069, 0.013831889256834984, -0.09342018514871597, -0.1416861116886139, 0.024640295654535294, 0.18440699577331543, 0.052119363099336624, 0.12204521149396896, -0.06545285135507584, -0.07964706420898438], [0.023618703708052635, -0.15820083022117615, 0.09333527088165283, 0.08710287511348724, 0.03945035859942436, 0.12215283513069153, 0.0650620236992836, -0.09947753697633743, -0.012053725309669971, -0.14028672873973846, -0.0837492123246193, 0.10133437067270279, 0.031184189021587372, 0.17566990852355957, -0.05670785531401634, 0.11689199507236481, -0.16921046376228333, 0.08020329475402832, 0.06489486247301102, -0.20066756010055542, 0.10153721272945404, -0.13272759318351746, 0.02276035211980343, 0.007477777544409037, 0.01587735302746296, -0.20690569281578064, 0.15292160212993622, -0.00934333074837923, -0.18839004635810852, 0.13474144041538239, 0.1707010716199875, -0.17763134837150574, 0.09313416481018066, 0.14706212282180786, 0.19313207268714905, -0.006435780320316553, 0.024194706231355667, 0.1705462783575058, -0.16969862580299377, -0.20510630309581757, 0.11768857389688492, -0.18892373144626617, 0.11618861556053162, -0.17764143645763397, 0.027580704540014267, -0.023075951263308525, -0.20546916127204895, 0.1464541256427765, -0.05311432480812073, -0.029656291007995605, -0.1320248395204544, -0.08677642792463303, -0.12414529174566269, 0.09554681926965714, -0.06151233986020088, -0.10616190731525421, -0.10633903741836548, -0.027591610327363014, -0.148585245013237, 0.16123515367507935, 0.02551601268351078, -0.15091310441493988, 0.10456763207912445, 0.04967522621154785], [0.060316506773233414, -0.12990115582942963, 0.08504661172628403, -0.16151227056980133, 0.10080773383378983, -0.14930319786071777, -0.19813524186611176, 0.08902642875909805, -0.2102905958890915, 0.07188430428504944, 0.20491649210453033, 0.0013406743528321385, -0.0913558378815651, 0.18616482615470886, -0.1472923755645752, 0.13661010563373566, 0.027232378721237183, -0.0165708065032959, 0.11904750019311905, 0.11423803120851517, 0.2072070688009262, 0.1293383538722992, -0.07957665622234344, -0.02533387392759323, -0.050528813153505325, 0.189731627702713, 0.2005252093076706, -0.16202214360237122, 0.1841827630996704, 0.18952366709709167, 0.12157616764307022, 0.028813229873776436, -0.024567076936364174, -0.020634274929761887, -0.06376202404499054, -0.14011766016483307, 0.12236149609088898, 0.007694655563682318, -0.1654355227947235, 0.19573965668678284, -0.015223425813019276, -0.010617351159453392, -0.02758033387362957, -0.04365145042538643, -0.017558088526129723, -0.16804815828800201, -0.03208830952644348, 0.1688779592514038, 0.11531316488981247, -0.14887404441833496, -0.10483228415250778, -0.1291714459657669, 0.13157686591148376, 0.09246779978275299, 0.16403508186340332, 0.0641401931643486, 0.12430407106876373, 0.1049388125538826, 0.19326545298099518, -0.041000112891197205, -0.16850145161151886, 0.003884108504280448, 0.127903014421463, -0.09434594213962555], [-0.06232018768787384, 0.029408369213342667, 0.1701149195432663, 0.07918435335159302, -0.03761790692806244, -0.07730600237846375, -0.20167964696884155, -0.04016551002860069, 0.17481118440628052, -0.0632472038269043, -0.15458375215530396, 0.153617262840271, 0.08696229755878448, -0.004458173643797636, 0.14009840786457062, -0.08759111166000366, -0.00035144976573064923, 0.17509736120700836, -0.02602475881576538, 0.027404017746448517, -0.05874733254313469, 0.031538963317871094, 0.19621892273426056, 0.06309431046247482, -0.10883686691522598, 0.11826062947511673, -0.005815782118588686, -0.17089435458183289, -0.13367219269275665, -0.15772612392902374, -0.04725489392876625, -0.14905652403831482, -0.11563689261674881, 0.13643161952495575, 0.039635591208934784, -0.14302125573158264, 0.06517494469881058, -0.05936790630221367, 0.04960395023226738, 0.06383216381072998, -0.1460474729537964, 0.2067028135061264, 0.1846059113740921, 0.1790233850479126, -0.19748176634311676, -0.056410133838653564, 0.025706302374601364, -0.16154958307743073, -0.20541085302829742, -0.11374539136886597, 0.021849608048796654, -0.08408026397228241, -0.04016856476664543, -0.12720763683319092, 0.015143971890211105, -0.21226456761360168, -0.149246484041214, 0.09063921868801117, -0.03324071317911148, 0.011507037095725536, -0.07238135486841202, 0.13000881671905518, -0.07069824635982513, 0.14330825209617615], [-0.13147349655628204, -0.08022230863571167, 0.031441956758499146, -0.13388465344905853, -0.18467383086681366, -0.04818927124142647, 0.05651482939720154, -0.10779093205928802, 0.1816745549440384, -0.042104728519916534, -0.1996084302663803, -0.012061362154781818, 0.08131725341081619, -0.1879550963640213, 0.09689997136592865, 0.11369196325540543, -0.02084723673760891, 0.10965098440647125, -0.16180533170700073, -0.15874622762203217, 0.1702481061220169, 0.16419841349124908, 0.057751625776290894, 0.10289415717124939, 0.16518943011760712, 0.17934027314186096, -0.19691717624664307, -0.08167462050914764, -0.06820670515298843, -0.005396867636591196, 0.14661718904972076, -0.09175287932157516, 0.18638381361961365, 0.17950551211833954, 0.12148917466402054, 0.11799542605876923, -0.020627183839678764, -0.15158046782016754, -0.08484160900115967, 0.10236269980669022, -0.19432717561721802, -0.014634412713348866, -0.1709674596786499, -0.08644090592861176, -0.04709883779287338, 0.08590308576822281, 0.16423949599266052, -0.017660077661275864, 0.1834026575088501, 0.14818866550922394, -0.00019490733393467963, 0.09172192215919495, -0.0026190574280917645, 0.04175205156207085, 0.04848996177315712, -0.12855996191501617, 0.11214649677276611, 0.19740080833435059, 0.1785612851381302, -0.04300692304968834, -0.008407109417021275, -0.07048559188842773, -0.14828215539455414, -0.08560851961374283]]