[1.0]
[-1.0]
[1.0]
[-1.0]
[1.0]
[-1.0]
[1.0]
[-1.0]
[1.0]
[-1.0]
[1.0]
[-1.0]
[1.0]
[-1.0]
[1.0]
[-1.0]
[1.0]
[-1.0]
[1.0]
[-1.0]
[1.0]
[-1.0]
[1.0]
[-1.0]
[1.0]
[-1.0]
[1.0]
[-1.0]
[1.0]
[-1.0]
[1.0]
[-1.0]
[1.0]
[-1.0]
[1.0]
[-1.0]
[1.0]
[-1.0]
[1.0]
[-1.0]
[1.0]
[-1.0]
[1.0]
[-1.0]
[1.0]
[-1.0]
[1.0]
[-1.0]
[1.0]
[-1.0]
[1.0]
[-1.0]
[1.0]
[-1.0]
[1.0]
[-1.0]
[1.0]
[-1.0]
[1.0]
[-1.0]
[1.0]
[-1.0]
[1.0]
[-1.0]
[1.0]
[-1.0]
[1.0]
[-1.0]
[1.0]
[-1.0]
[1.0]
[-1.0]
[1.0]
[-1.0]
[1.0]
[-1.0]
[1.0]
[-1.0]
[1.0]
[-1.0]
[1.0]
[-1.0]
[1.0]
[-1.0]
[1.0]
[-1.0]
[1.0]
[-1.0]
[1.0]
[-1.0]
[1.0]
[-1.0]
[1.0]
[-1.0]
[1.0]
[-1.0]
[1.0]
[-1.0]
[1.0]
[-1.0]
[1.0]
[-1.0]
[1.0]
[-1.0]
[1.0]
[-1.0]
[1.0]
[-1.0]
[1.0]
[-1.0]
[1.0]
[-1.0]
[1.0]
[-1.0]
[1.0]
[-1.0]
[1.0]
[-1.0]
[1.0]
[-1.0]
[1.0]
[-1.0]
[1.0]
[-1.0]
[1.0]
[-1.0]
[1.0]
[-1.0]
[1.0]
[-1.0]
[1.0]
[-1.0]
[1.0]
[-1.0]
[1.0]
[-1.0]
[1.0]
[-1.0]
[1.0]
[-1.0]
[1.0]
[-1.0]
[1.0]
[-1.0]
[1.0]
[-1.0]
[1.0]
[-1.0]
[1.0]
[-1.0]
[1.0]
[-1.0]
[1.0]
[-1.0]
[1.0]
[-1.0]
[1.0]
[-1.0]
[1.0]
[-1.0]
[1.0]
[-1.0]
[1.0]
[-1.0]
[1.0]
[-1.0]
[1.0]
[-1.0]
[1.0]
[-1.0]
[1.0]
[-1.0]
[1.0]
[-1.0]
[1.0]
[-1.0]
[1.0]
[-1.0]
[1.0]
[-1.0]
[1.0]
[-1.0]
[1.0]
[-1.0]
[1.0]
[-1.0]
[1.0]
[-1.0]
[1.0]
[-1.0]
[1.0]
[-1.0]
[1.0]
[-1.0]
[1.0]
[-1.0]
[1.0]
[-1.0]
[1.0]
[-1.0]
[1.0]
[-1.0]
[1.0]
[-1.0]
[1.0]
[-1.0]
[1.0]
[-1.0]
[1.0]
[-1.0]
[1.0]
[-1.0]
[1.0]
[-1.0]
[1.0]
[-1.0]
[1.0]
[-1.0]
[1.0]
[-1.0]
[1.0]
[-1.0]
[1.0]
[-1.0]
[1.0]
[-1.0]
[1.0]
[-1.0]
[1.0]
[-1.0]
[1.0]
[-1.0]
[1.0]
[-1.0]
[1.0]
[-1.0]
[1.0]
[-1.0]
[1.0]
[-1.0]
[1.0]
[-1.0]
[1.0]
[-1.0]
[1.0]
[-1.0]
[1.0]
[-1.0]
[1.0]
[-1.0]
[1.0]
[-1.0]
[1.0]
[-1.0]
[1.0]
[-1.0]
[1.0]
[-1.0]
[1.0]
[-1.0]
[1.0]
[-1.0]
[1.0]
[-1.0]
[1.0]
[-1.0]
[1.0]
[-1.0]
[1.0]
[-1.0]
[1.0]
[-1.0]
[1.0]
[-1.0]
[1.0]
[-1.0]
[1.0]
[-1.0]
[1.0]
[-1.0]
[1.0]
[-1.0]
[1.0]
[-1.0]
[1.0]
[-1.0]
[1.0]
[-1.0]
[1.0]
[-1.0]
[1.0]
[-1.0]
[1.0]
[-1.0]
[1.0]
[-1.0]
[1.0]
[-1.0]
[1.0]
[-1.0]
[1.0]
[-1.0]
[1.0]
[-1.0]
[1.0]
[-1.0]
[1.0]
[-1.0]
[1.0]
[-1.0]
[1.0]
[-1.0]
[1.0]
[-1.0]
[1.0]
[-1.0]
[1.0]
[-1.0]
[1.0]
[-1.0]
[1.0]
[-1.0]
[1.0]
[-1.0]
[1.0]
[-1.0]
[1.0]
[-1.0]
[1.0]
[-1.0]
[1.0]
[-1.0]
[1.0]
[-1.0]
[1.0]
[-1.0]
[1.0]
[-1.0]
[1.0]
[-1.0]
[1.0]
[-1.0]
[1.0]
[-1.0]
[1.0]
[-1.0]
[1.0]
[-1.0]
[1.0]
[-1.0]
[1.0]
[-1.0]
[1.0]
[-1.0]
[1.0]
[-1.0]
[1.0]
[-1.0]
[1.0]
[-1.0]
[1.0]
[-1.0]
[1.0]
[-1.0]
[1.0]
[-1.0]
[1.0]
[-1.0]
[1.0]
[-1.0]
[1.0]
[-1.0]
[1.0]
[-1.0]
[1.0]
[-1.0]
[1.0]
[-1.0]
[1.0]
[-1.0]
[1.0]
[-1.0]
[1.0]
[-1.0]
[1.0]
[-1.0]
[1.0]
[-1.0]
[1.0]
[-1.0]
[1.0]
[-1.0]
[1.0]
[-1.0]
[1.0]
[-1.0]
[1.0]
[-1.0]
[1.0]
[-1.0]
[1.0]
[-1.0]
[1.0]
[-1.0]
[1.0]
[-1.0]
[1.0]
[-1.0]
[1.0]
[-1.0]
[1.0]
[-1.0]
[1.0]
[-1.0]
[1.0]
[-1.0]
[1.0]
[-1.0]
[1.0]
[-1.0]
[1.0]
[-1.0]
[1.0]
[-1.0]
[1.0]
[-1.0]
[1.0]
[-1.0]
[1.0]
[-1.0]
[1.0]
[-1.0]
[1.0]
[-1.0]
[1.0]
[-1.0]
[1.0]
[-1.0]
[1.0]
[-1.0]
[1.0]
[-1.0]
[1.0]
[-1.0]
[1.0]
[-1.0]
[1.0]
[-1.0]
[1.0]
[-1.0]
[1.0]
[-1.0]
[1.0]
[-1.0]
[1.0]
[-1.0]
[1.0]
[-1.0]
[1.0]
[-1.0]
[1.0]
[-1.0]
[1.0]
[-1.0]
[1.0]
[-1.0]
[1.0]
[-1.0]
[1.0]
[-1.0]
[1.0]
[-1.0]
[1.0]
[-1.0]
[1.0]
[-1.0]
[1.0]
[-1.0]
[1.0]
[-1.0]
[1.0]
[-1.0]
[1.0]
[-1.0]
[1.0]
[-1.0]
[1.0]
[-1.0]
[1.0]
[-1.0]
[1.0]
[-1.0]
[1.0]
[-1.0]
[1.0]
[-1.0]
[1.0]
[-1.0]
[1.0]
[-1.0]
[1.0]
[-1.0]
[1.0]
[-1.0]
[1.0]
[-1.0]
[1.0]
[-1.0]
[1.0]
[-0.6000000238418579]
[0.04000002145767212]
[0.35999998450279236]
[1.0]
[0.24705886840820312]
[-0.4084428548812866]
[-0.33288827538490295]
[1.0]
[0.9843137264251709]
[0.9533102512359619]
[0.9077181816101074]
[1.0]
[0.24705886840820312]
[-0.4084428548812866]
[-0.33288827538490295]
[1.0]
[-0.6078431606292725]
[0.05420994758605957]
[0.35031020641326904]
[1.0]
[-1.0]
[1.0]
[-1.0]
[1.0]
[-1.0]
[1.0]
[-1.0]
[1.0]
[-1.0]
[1.0]
[-1.0]
[1.0]
[-1.0]
[1.0]
[-1.0]
[1.0]
[-1.0]
[1.0]
[-1.0]
[1.0]
[-1.0]
[1.0]
[-1.0]
[1.0]
[-1.0]
[1.0]
[-1.0]
[1.0]
[-1.0]
[1.0]
[-1.0]
[1.0]
[-1.0]
[1.0]
[-1.0]
[1.0]
[-1.0]
[1.0]
[-1.0]
[1.0]
[-1.0]
[1.0]
[-1.0]
[1.0]
[-1.0]
[1.0]
[-1.0]
[1.0]
[-1.0]
[1.0]
[-1.0]
[1.0]
[-1.0]
[1.0]
[-1.0]
[1.0]
[-1.0]
[1.0]
[-1.0]
[1.0]
[-1.0]
[1.0]
[-1.0]
[1.0]
[-1.0]
[1.0]
[-1.0]
[1.0]
[-1.0]
[1.0]
[-1.0]
[1.0]
[-1.0]
[1.0]
[-1.0]
[1.0]
[-1.0]
[1.0]
[-1.0]
[1.0]
[-1.0]
[1.0]
[-1.0]
[1.0]
[-1.0]
[1.0]
[-1.0]
[1.0]
[-0.6235294342041016]
[0.0831834077835083]
[0.3292407989501953]
[1.0]
[0.8666666746139526]
[0.6266666650772095]
[0.32740744948387146]
[1.0]
[0.9764705896377563]
[0.9302423000335693]
[0.8629432320594788]
[1.0]
[0.9764705896377563]
[0.9302423000335693]
[0.8629432320594788]
[1.0]
[0.9764705896377563]
[0.9302423000335693]
[0.8629432320594788]
[1.0]
[0.8588235378265381]
[0.606366753578186]
[0.29538774490356445]
[1.0]
[-1.0]
[1.0]
[-1.0]
[1.0]
[-1.0]
[1.0]
[-1.0]
[1.0]
[-1.0]
[1.0]
[-1.0]
[1.0]
[-1.0]
[1.0]
[-1.0]
[1.0]
[-1.0]
[1.0]
[-1.0]
[1.0]
[-1.0]
[1.0]
[-1.0]
[1.0]
[-1.0]
[1.0]
[-1.0]
[1.0]
[-1.0]
[1.0]
[-1.0]
[1.0]
[-1.0]
[1.0]
[-1.0]
[1.0]
[-1.0]
[1.0]
[-1.0]
[1.0]
[-1.0]
[1.0]
[-1.0]
[1.0]
[-1.0]
[1.0]
[-1.0]
[1.0]
[-1.0]
[1.0]
[-1.0]
[1.0]
[-1.0]
[1.0]
[-1.0]
[1.0]
[-1.0]
[1.0]
[-1.0]
[1.0]
[-1.0]
[1.0]
[-1.0]
[1.0]
[-1.0]
[1.0]
[-1.0]
[1.0]
[-1.0]
[1.0]
[-1.0]
[1.0]
[-1.0]
[1.0]
[-1.0]
[1.0]
[-1.0]
[1.0]
[-1.0]
[1.0]
[-1.0]
[1.0]
[-1.0]
[1.0]
[-0.5764706134796143]
[-0.001522451639175415]
[0.38577648997306824]
[1.0]
[0.7803921699523926]
[0.41351789236068726]
[0.01758209802210331]
[1.0]
[0.9843137264251709]
[0.9533102512359619]
[0.9077181816101074]
[1.0]
[0.9764705896377563]
[0.9302423000335693]
[0.8629432320594788]
[1.0]
[0.8745098114013672]
[0.6471511125564575]
[0.3602267801761627]
[1.0]
[0.8274509906768799]
[0.5270127058029175]
[0.17516128718852997]
[1.0]
[0.9764705896377563]
[0.9302423000335693]
[0.8629432320594788]
[1.0]
[-0.5529412031173706]
[-0.04138404130935669]
[0.4067656993865967]
[1.0]
[-0.9529411792755127]
[0.8621453046798706]
[-0.7339954376220703]
[1.0]
[-1.0]
[1.0]
[-1.0]
[1.0]
[-1.0]
[1.0]
[-1.0]
[1.0]
[-1.0]
[1.0]
[-1.0]
[1.0]
[-1.0]
[1.0]
[-1.0]
[1.0]
[-1.0]
[1.0]
[-1.0]
[1.0]
[-1.0]
[1.0]
[-1.0]
[1.0]
[-1.0]
[1.0]
[-1.0]
[1.0]
[-1.0]
[1.0]
[-1.0]
[1.0]
[-1.0]
[1.0]
[-1.0]
[1.0]
[-1.0]
[1.0]
[-1.0]
[1.0]
[-1.0]
[1.0]
[-1.0]
[1.0]
[-1.0]
[1.0]
[-1.0]
[1.0]
[-1.0]
[1.0]
[-1.0]
[1.0]
[-1.0]
[1.0]
[-1.0]
[1.0]
[-1.0]
[1.0]
[-1.0]
[1.0]
[-1.0]
[1.0]
[-1.0]
[1.0]
[-1.0]
[1.0]
[-1.0]
[1.0]
[-0.9215686321258545]
[0.7739331722259521]
[-0.5743418335914612]
[1.0]
[-0.529411792755127]
[-0.07958471775054932]
[0.4231630265712738]
[1.0]
[0.7568627595901489]
[0.3592619299888611]
[-0.05138854309916496]
[1.0]
[0.9764705896377563]
[0.9302423000335693]
[0.8629432320594788]
[1.0]
[0.9843137264251709]
[0.9533102512359619]
[0.9077181816101074]
[1.0]
[0.9764705896377563]
[0.9302423000335693]
[0.8629432320594788]
[1.0]
[0.5843137502670288]
[0.01213383674621582]
[-0.37772586941719055]
[1.0]
[-0.34117645025253296]
[-0.32539796829223633]
[0.4124811887741089]
[1.0]
[0.9764705896377563]
[0.9302423000335693]
[0.8629432320594788]
[1.0]
[0.9843137264251709]
[0.9533102512359619]
[0.9077181816101074]
[1.0]
[-0.04313725233078003]
[-0.49720877408981323]
[0.0645051971077919]
[1.0]
[-1.0]
[1.0]
[-1.0]
[1.0]
[-1.0]
[1.0]
[-1.0]
[1.0]
[-1.0]
[1.0]
[-1.0]
[1.0]
[-1.0]
[1.0]
[-1.0]
[1.0]
[-1.0]
[1.0]
[-1.0]
[1.0]
[-1.0]
[1.0]
[-1.0]
[1.0]
[-1.0]
[1.0]
[-1.0]
[1.0]
[-1.0]
[1.0]
[-1.0]
[1.0]
[-1.0]
[1.0]
[-1.0]
[1.0]
[-1.0]
[1.0]
[-1.0]
[1.0]
[-1.0]
[1.0]
[-1.0]
[1.0]
[-1.0]
[1.0]
[-1.0]
[1.0]
[-1.0]
[1.0]
[-1.0]
[1.0]
[-1.0]
[1.0]
[-1.0]
[1.0]
[-1.0]
[1.0]
[-1.0]
[1.0]
[-1.0]
[1.0]
[-1.0]
[1.0]
[-1.0]
[1.0]
[-1.0]
[1.0]
[0.27843141555786133]
[-0.3837139308452606]
[-0.3636842966079712]
[1.0]
[0.9764705896377563]
[0.9302423000335693]
[0.8629432320594788]
[1.0]
[0.9764705896377563]
[0.9302423000335693]
[0.8629432320594788]
[1.0]
[0.9764705896377563]
[0.9302423000335693]
[0.8629432320594788]
[1.0]
[0.9843137264251709]
[0.9533102512359619]
[0.9077181816101074]
[1.0]
[0.9764705896377563]
[0.9302423000335693]
[0.8629432320594788]
[1.0]
[0.9764705896377563]
[0.9302423000335693]
[0.8629432320594788]
[1.0]
[-0.24705880880355835]
[-0.4084429144859314]
[0.33288824558258057]
[1.0]
[0.48235297203063965]
[-0.1510034203529358]
[-0.442963570356369]
[1.0]
[0.9843137264251709]
[0.9533102512359619]
[0.9077181816101074]
[1.0]
[0.30980396270751953]
[-0.35603225231170654]
[-0.3903696537017822]
[1.0]
[-1.0]
[1.0]
[-1.0]
[1.0]
[-1.0]
[1.0]
[-1.0]
[1.0]
[-1.0]
[1.0]
[-1.0]
[1.0]
[-1.0]
[1.0]
[-1.0]
[1.0]
[-1.0]
[1.0]
[-1.0]
[1.0]
[-1.0]
[1.0]
[-1.0]
[1.0]
[-1.0]
[1.0]
[-1.0]
[1.0]
[-1.0]
[1.0]
[-1.0]
[1.0]
[-1.0]
[1.0]
[-1.0]
[1.0]
[-1.0]
[1.0]
[-1.0]
[1.0]
[-1.0]
[1.0]
[-1.0]
[1.0]
[-1.0]
[1.0]
[-1.0]
[1.0]
[-1.0]
[1.0]
[-1.0]
[1.0]
[-1.0]
[1.0]
[-1.0]
[1.0]
[-1.0]
[1.0]
[-1.0]
[1.0]
[-1.0]
[1.0]
[-1.0]
[1.0]
[-0.6000000238418579]
[0.04000002145767212]
[0.35999998450279236]
[1.0]
[0.8666666746139526]
[0.6266666650772095]
[0.32740744948387146]
[1.0]
[0.9843137264251709]
[0.9533102512359619]
[0.9077181816101074]
[1.0]
[0.9843137264251709]
[0.9533102512359619]
[0.9077181816101074]
[1.0]
[0.4901961088180542]
[-0.13956165313720703]
[-0.4408183991909027]
[1.0]
[-0.10588234663009644]
[-0.4831833839416504]
[0.15585587918758392]
[1.0]
[0.9843137264251709]
[0.9533102512359619]
[0.9077181816101074]
[1.0]
[0.7882353067398071]
[0.4319723844528198]
[0.04200291633605957]
[1.0]
[-0.6313725709915161]
[0.09794700145721436]
[0.3178466260433197]
[1.0]
[-0.3803921341896057]
[-0.2829527258872986]
[0.43298307061195374]
[1.0]
[1.0]
[1.0]
[1.0]
[1.0]
[0.3176470994949341]
[-0.3486504852771759]
[-0.3963444232940674]
[1.0]
[-1.0]
[1.0]
[-1.0]
[1.0]
[-1.0]
[1.0]
[-1.0]
[1.0]
[-1.0]
[1.0]
[-1.0]
[1.0]
[-1.0]
[1.0]
[-1.0]
[1.0]
[-1.0]
[1.0]
[-1.0]
[1.0]
[-1.0]
[1.0]
[-1.0]
[1.0]
[-1.0]
[1.0]
[-1.0]
[1.0]
[-1.0]
[1.0]
[-1.0]
[1.0]
[-1.0]
[1.0]
[-1.0]
[1.0]
[-1.0]
[1.0]
[-1.0]
[1.0]
[-1.0]
[1.0]
[-1.0]
[1.0]
[-1.0]
[1.0]
[-1.0]
[1.0]
[-1.0]
[1.0]
[-1.0]
[1.0]
[-1.0]
[1.0]
[-1.0]
[1.0]
[-1.0]
[1.0]
[-1.0]
[1.0]
[-0.6235294342041016]
[0.0831834077835083]
[0.3292407989501953]
[1.0]
[0.8666666746139526]
[0.6266666650772095]
[0.32740744948387146]
[1.0]
[0.9764705896377563]
[0.9302423000335693]
[0.8629432320594788]
[1.0]
[0.9764705896377563]
[0.9302423000335693]
[0.8629432320594788]
[1.0]
[0.40392160415649414]
[-0.2552710175514221]
[-0.4411301910877228]
[1.0]
[-0.9058823585510254]
[0.7309342622756958]
[-0.499645859003067]
[1.0]
[-0.4117646813392639]
[-0.2456747591495514]
[0.44311007857322693]
[1.0]
[-0.05098038911819458]
[-0.4961014986038208]
[0.07613933831453323]
[1.0]
[-0.8352941274642944]
[0.5465743541717529]
[-0.20405451953411102]
[1.0]
[-1.0]
[1.0]
[-1.0]
[1.0]
[-1.0]
[1.0]
[-1.0]
[1.0]
[0.9843137264251709]
[0.9533102512359619]
[0.9077181816101074]
[1.0]
[0.9058823585510254]
[0.7309342622756958]
[0.499645859003067]
[1.0]
[-0.6078431606292725]
[0.05420994758605957]
[0.35031020641326904]
[1.0]
[-1.0]
[1.0]
[-1.0]
[1.0]
[-1.0]
[1.0]
[-1.0]
[1.0]
[-1.0]
[1.0]
[-1.0]
[1.0]
[-1.0]
[1.0]
[-1.0]
[1.0]
[-1.0]
[1.0]
[-1.0]
[1.0]
[-1.0]
[1.0]
[-1.0]
[1.0]
[-1.0]
[1.0]
[-1.0]
[1.0]
[-1.0]
[1.0]
[-1.0]
[1.0]
[-1.0]
[1.0]
[-1.0]
[1.0]
[-1.0]
[1.0]
[-1.0]
[1.0]
[-1.0]
[1.0]
[-1.0]
[1.0]
[-1.0]
[1.0]
[-1.0]
[1.0]
[-1.0]
[1.0]
[-1.0]
[1.0]
[-0.7019608020782471]
[0.23912346363067627]
[0.18821503221988678]
[1.0]
[0.29411768913269043]
[-0.370242178440094]
[-0.3775697648525238]
[1.0]
[0.9843137264251709]
[0.9533102512359619]
[0.9077181816101074]
[1.0]
[0.8274509906768799]
[0.5270127058029175]
[0.17516128718852997]
[1.0]
[0.6313725709915161]
[0.09794700145721436]
[-0.3178466260433197]
[1.0]
[-0.34117645025253296]
[-0.32539796829223633]
[0.4124811887741089]
[1.0]
[-1.0]
[1.0]
[-1.0]
[1.0]
[-1.0]
[1.0]
[-1.0]
[1.0]
[-1.0]
[1.0]
[-1.0]
[1.0]
[-1.0]
[1.0]
[-1.0]
[1.0]
[-1.0]
[1.0]
[-1.0]
[1.0]
[-1.0]
[1.0]
[-1.0]
[1.0]
[0.9843137264251709]
[0.9533102512359619]
[0.9077181816101074]
[1.0]
[0.9764705896377563]
[0.9302423000335693]
[0.8629432320594788]
[1.0]
[0.29411768913269043]
[-0.370242178440094]
[-0.3775697648525238]
[1.0]
[-1.0]
[1.0]
[-1.0]
[1.0]
[-1.0]
[1.0]
[-1.0]
[1.0]
[-1.0]
[1.0]
[-1.0]
[1.0]
[-1.0]
[1.0]
[-1.0]
[1.0]
[-1.0]
[1.0]
[-1.0]
[1.0]
[-1.0]
[1.0]
[-1.0]
[1.0]
[-1.0]
[1.0]
[-1.0]
[1.0]
[-1.0]
[1.0]
[-1.0]
[1.0]
[-1.0]
[1.0]
[-1.0]
[1.0]
[-1.0]
[1.0]
[-1.0]
[1.0]
[-1.0]
[1.0]
[-1.0]
[1.0]
[-1.0]
[1.0]
[-1.0]
[1.0]
[-0.9450980424880981]
[0.8398154973983765]
[-0.6927812099456787]
[1.0]
[0.3960784673690796]
[-0.2646827697753906]
[-0.43877753615379333]
[1.0]
[0.9764705896377563]
[0.9302423000335693]
[0.8629432320594788]
[1.0]
[0.8823529481887817]
[0.6678200960159302]
[0.3938530385494232]
[1.0]
[-0.4431372284889221]
[-0.2054440677165985]
[0.44715800881385803]
[1.0]
[-0.8509804010391235]
[0.5862514972686768]
[-0.2641606330871582]
[1.0]
[-0.7803921699523926]
[0.41351789236068726]
[-0.01758209802210331]
[1.0]
[-1.0]
[1.0]
[-1.0]
[1.0]
[-1.0]
[1.0]
[-1.0]
[1.0]
[-1.0]
[1.0]
[-1.0]
[1.0]
[-1.0]
[1.0]
[-1.0]
[1.0]
[-1.0]
[1.0]
[-1.0]
[1.0]
[-1.0]
[1.0]
[-1.0]
[1.0]
[0.9843137264251709]
[0.9533102512359619]
[0.9077181816101074]
[1.0]
[0.9764705896377563]
[0.9302423000335693]
[0.8629432320594788]
[1.0]
[0.529411792755127]
[-0.07958471775054932]
[-0.4231630265712738]
[1.0]
[-1.0]
[1.0]
[-1.0]
[1.0]
[-1.0]
[1.0]
[-1.0]
[1.0]
[-1.0]
[1.0]
[-1.0]
[1.0]
[-1.0]
[1.0]
[-1.0]
[1.0]
[-1.0]
[1.0]
[-1.0]
[1.0]
[-1.0]
[1.0]
[-1.0]
[1.0]
[-1.0]
[1.0]
[-1.0]
[1.0]
[-1.0]
[1.0]
[-1.0]
[1.0]
[-1.0]
[1.0]
[-1.0]
[1.0]
[-1.0]
[1.0]
[-1.0]
[1.0]
[-1.0]
[1.0]
[-1.0]
[1.0]
[-1.0]
[1.0]
[-1.0]
[1.0]
[-0.5529412031173706]
[-0.04138404130935669]
[0.4067656993865967]
[1.0]
[0.9764705896377563]
[0.9302423000335693]
[0.8629432320594788]
[1.0]
[0.9764705896377563]
[0.9302423000335693]
[0.8629432320594788]
[1.0]
[-0.5058823823928833]
[-0.11612451076507568]
[0.43516382575035095]
[1.0]
[-1.0]
[1.0]
[-1.0]
[1.0]
[-1.0]
[1.0]
[-1.0]
[1.0]
[-1.0]
[1.0]
[-1.0]
[1.0]
[-1.0]
[1.0]
[-1.0]
[1.0]
[-1.0]
[1.0]
[-1.0]
[1.0]
[-1.0]
[1.0]
[-1.0]
[1.0]
[-1.0]
[1.0]
[-1.0]
[1.0]
[-1.0]
[1.0]
[-1.0]
[1.0]
[-1.0]
[1.0]
[-1.0]
[1.0]
[0.9843137264251709]
[0.9533102512359619]
[0.9077181816101074]
[1.0]
[0.9764705896377563]
[0.9302423000335693]
[0.8629432320594788]
[1.0]
[0.529411792755127]
[-0.07958471775054932]
[-0.4231630265712738]
[1.0]
[-1.0]
[1.0]
[-1.0]
[1.0]
[-1.0]
[1.0]
[-1.0]
[1.0]
[-1.0]
[1.0]
[-1.0]
[1.0]
[-1.0]
[1.0]
[-1.0]
[1.0]
[-1.0]
[1.0]
[-1.0]
[1.0]
[-1.0]
[1.0]
[-1.0]
[1.0]
[-1.0]
[1.0]
[-1.0]
[1.0]
[-1.0]
[1.0]
[-1.0]
[1.0]
[-1.0]
[1.0]
[-1.0]
[1.0]
[-1.0]
[1.0]
[-1.0]
[1.0]
[-1.0]
[1.0]
[-1.0]
[1.0]
[-1.0]
[1.0]
[-1.0]
[1.0]
[0.5529412031173706]
[-0.04138404130935669]
[-0.4067656993865967]
[1.0]
[0.9843137264251709]
[0.9533102512359619]
[0.9077181816101074]
[1.0]
[0.4901961088180542]
[-0.13956165313720703]
[-0.4408183991909027]
[1.0]
[-1.0]
[1.0]
[-1.0]
[1.0]
[-1.0]
[1.0]
[-1.0]
[1.0]
[-1.0]
[1.0]
[-1.0]
[1.0]
[-1.0]
[1.0]
[-1.0]
[1.0]
[-1.0]
[1.0]
[-1.0]
[1.0]
[-1.0]
[1.0]
[-1.0]
[1.0]
[-1.0]
[1.0]
[-1.0]
[1.0]
[-1.0]
[1.0]
[-1.0]
[1.0]
[-1.0]
[1.0]
[-1.0]
[1.0]
[-1.0]
[1.0]
[-1.0]
[1.0]
[1.0]
[1.0]
[1.0]
[1.0]
[0.9843137264251709]
[0.9533102512359619]
[0.9077181816101074]
[1.0]
[0.5372549295425415]
[-0.06703570485115051]
[-0.4181953966617584]
[1.0]
[-1.0]
[1.0]
[-1.0]
[1.0]
[-1.0]
[1.0]
[-1.0]
[1.0]
[-1.0]
[1.0]
[-1.0]
[1.0]
[-1.0]
[1.0]
[-1.0]
[1.0]
[-1.0]
[1.0]
[-1.0]
[1.0]
[-1.0]
[1.0]
[-1.0]
[1.0]
[-1.0]
[1.0]
[-1.0]
[1.0]
[-1.0]
[1.0]
[-1.0]
[1.0]
[-1.0]
[1.0]
[-1.0]
[1.0]
[-1.0]
[1.0]
[-1.0]
[1.0]
[-1.0]
[1.0]
[-1.0]
[1.0]
[-0.40392154455184937]
[-0.2552710771560669]
[0.4411301612854004]
[1.0]
[0.929411768913269]
[0.7957092523574829]
[0.61296147108078]
[1.0]
[0.9764705896377563]
[0.9302423000335693]
[0.8629432320594788]
[1.0]
[-0.12156862020492554]
[-0.4778316020965576]
[0.177861288189888]
[1.0]
[-1.0]
[1.0]
[-1.0]
[1.0]
[-1.0]
[1.0]
[-1.0]
[1.0]
[-1.0]
[1.0]
[-1.0]
[1.0]
[-1.0]
[1.0]
[-1.0]
[1.0]
[-1.0]
[1.0]
[-1.0]
[1.0]
[-1.0]
[1.0]
[-1.0]
[1.0]
[-1.0]
[1.0]
[-1.0]
[1.0]
[-1.0]
[1.0]
[-1.0]
[1.0]
[-1.0]
[1.0]
[-1.0]
[1.0]
[-1.0]
[1.0]
[-1.0]
[1.0]
[0.9843137264251709]
[0.9533102512359619]
[0.9077181816101074]
[1.0]
[0.9764705896377563]
[0.9302423000335693]
[0.8629432320594788]
[1.0]
[0.16078436374664307]
[-0.4612225890159607]
[-0.23078520596027374]
[1.0]
[-1.0]
[1.0]
[-1.0]
[1.0]
[-1.0]
[1.0]
[-1.0]
[1.0]
[-1.0]
[1.0]
[-1.0]
[1.0]
[-1.0]
[1.0]
[-1.0]
[1.0]
[-1.0]
[1.0]
[-1.0]
[1.0]
[-1.0]
[1.0]
[-1.0]
[1.0]
[-1.0]
[1.0]
[-1.0]
[1.0]
[-1.0]
[1.0]
[-1.0]
[1.0]
[-1.0]
[1.0]
[-1.0]
[1.0]
[-1.0]
[1.0]
[-1.0]
[1.0]
[-1.0]
[1.0]
[-1.0]
[1.0]
[-0.3333333134651184]
[-0.3333333730697632]
[0.40740740299224854]
[1.0]
[0.9764705896377563]
[0.9302423000335693]
[0.8629432320594788]
[1.0]
[0.8039215803146362]
[0.46943479776382446]
[0.09303358942270279]
[1.0]
[-0.8039215803146362]
[0.46943479776382446]
[-0.09303358942270279]
[1.0]
[-1.0]
[1.0]
[-1.0]
[1.0]
[-1.0]
[1.0]
[-1.0]
[1.0]
[-1.0]
[1.0]
[-1.0]
[1.0]
[-1.0]
[1.0]
[-1.0]
[1.0]
[-1.0]
[1.0]
[-1.0]
[1.0]
[-1.0]
[1.0]
[-1.0]
[1.0]
[-1.0]
[1.0]
[-1.0]
[1.0]
[-1.0]
[1.0]
[-1.0]
[1.0]
[-0.9450980424880981]
[0.8398154973983765]
[-0.6927812099456787]
[1.0]
[0.058823585510253906]
[-0.49480968713760376]
[-0.08772652596235275]
[1.0]
[0.9843137264251709]
[0.9533102512359619]
[0.9077181816101074]
[1.0]
[0.458823561668396]
[-0.18422141671180725]
[-0.44675758481025696]
[1.0]
[-0.9058823585510254]
[0.7309342622756958]
[-0.499645859003067]
[1.0]
[-1.0]
[1.0]
[-1.0]
[1.0]
[-1.0]
[1.0]
[-1.0]
[1.0]
[-1.0]
[1.0]
[-1.0]
[1.0]
[-1.0]
[1.0]
[-1.0]
[1.0]
[-1.0]
[1.0]
[-1.0]
[1.0]
[-1.0]
[1.0]
[-1.0]
[1.0]
[-1.0]
[1.0]
[-1.0]
[1.0]
[-1.0]
[1.0]
[-1.0]
[1.0]
[-1.0]
[1.0]
[-1.0]
[1.0]
[-1.0]
[1.0]
[-1.0]
[1.0]
[-1.0]
[1.0]
[-1.0]
[1.0]
[-0.3333333134651184]
[-0.3333333730697632]
[0.40740740299224854]
[1.0]
[0.9764705896377563]
[0.9302423000335693]
[0.8629432320594788]
[1.0]
[0.7490196228027344]
[0.34154558181762695]
[-0.07297249883413315]
[1.0]
[-1.0]
[1.0]
[-1.0]
[1.0]
[-1.0]
[1.0]
[-1.0]
[1.0]
[-1.0]
[1.0]
[-1.0]
[1.0]
[-1.0]
[1.0]
[-1.0]
[1.0]
[-1.0]
[1.0]
[-1.0]
[1.0]
[-1.0]
[1.0]
[-1.0]
[1.0]
[-1.0]
[1.0]
[-1.0]
[1.0]
[-1.0]
[1.0]
[-1.0]
[1.0]
[-0.9450980424880981]
[0.8398154973983765]
[-0.6927812099456787]
[1.0]
[0.027451038360595703]
[-0.4988696575164795]
[-0.041124843060970306]
[1.0]
[0.9764705896377563]
[0.9302423000335693]
[0.8629432320594788]
[1.0]
[0.7647058963775635]
[0.3771626353263855]
[-0.02910645864903927]
[1.0]
[-0.4431372284889221]
[-0.2054440677165985]
[0.44715800881385803]
[1.0]
[-1.0]
[1.0]
[-1.0]
[1.0]
[-1.0]
[1.0]
[-1.0]
[1.0]
[-1.0]
[1.0]
[-1.0]
[1.0]
[-1.0]
[1.0]
[-1.0]
[1.0]
[-1.0]
[1.0]
[-1.0]
[1.0]
[-1.0]
[1.0]
[-1.0]
[1.0]
[-1.0]
[1.0]
[-1.0]
[1.0]
[-1.0]
[1.0]
[-1.0]
[1.0]
[-1.0]
[1.0]
[-1.0]
[1.0]
[-1.0]
[1.0]
[-1.0]
[1.0]
[-1.0]
[1.0]
[-1.0]
[1.0]
[-1.0]
[1.0]
[-1.0]
[1.0]
[-0.3333333134651184]
[-0.3333333730697632]
[0.40740740299224854]
[1.0]
[0.9764705896377563]
[0.9302423000335693]
[0.8629432320594788]
[1.0]
[0.13725495338439941]
[-0.47174161672592163]
[-0.1994180828332901]
[1.0]
[-1.0]
[1.0]
[-1.0]
[1.0]
[-1.0]
[1.0]
[-1.0]
[1.0]
[-1.0]
[1.0]
[-1.0]
[1.0]
[-1.0]
[1.0]
[-1.0]
[1.0]
[-1.0]
[1.0]
[-1.0]
[1.0]
[-1.0]
[1.0]
[-1.0]
[1.0]
[-1.0]
[1.0]
[-1.0]
[1.0]
[-0.6235294342041016]
[0.0831834077835083]
[0.3292407989501953]
[1.0]
[0.29411768913269043]
[-0.370242178440094]
[-0.3775697648525238]
[1.0]
[0.9764705896377563]
[0.9302423000335693]
[0.8629432320594788]
[1.0]
[0.35686278343200684]
[-0.30897343158721924]
[-0.42167702317237854]
[1.0]
[-1.0]
[1.0]
[-1.0]
[1.0]
[-1.0]
[1.0]
[-1.0]
[1.0]
[-1.0]
[1.0]
[-1.0]
[1.0]
[-1.0]
[1.0]
[-1.0]
[1.0]
[-1.0]
[1.0]
[-1.0]
[1.0]
[-1.0]
[1.0]
[-1.0]
[1.0]
[-1.0]
[1.0]
[-1.0]
[1.0]
[-1.0]
[1.0]
[-1.0]
[1.0]
[-1.0]
[1.0]
[-1.0]
[1.0]
[-1.0]
[1.0]
[-1.0]
[1.0]
[-1.0]
[1.0]
[-1.0]
[1.0]
[-1.0]
[1.0]
[-1.0]
[1.0]
[-1.0]
[1.0]
[-1.0]
[1.0]
[-1.0]
[1.0]
[-1.0]
[1.0]
[-0.32549017667770386]
[-0.34108421206474304]
[0.40202605724334717]
[1.0]
[0.9843137264251709]
[0.9533102512359619]
[0.9077181816101074]
[1.0]
[0.7647058963775635]
[0.3771626353263855]
[-0.02910645864903927]
[1.0]
[-1.0]
[1.0]
[-1.0]
[1.0]
[-1.0]
[1.0]
[-1.0]
[1.0]
[-1.0]
[1.0]
[-1.0]
[1.0]
[-1.0]
[1.0]
[-1.0]
[1.0]
[-1.0]
[1.0]
[-1.0]
[1.0]
[-1.0]
[1.0]
[-1.0]
[1.0]
[-0.10588234663009644]
[-0.4831833839416504]
[0.15585587918758392]
[1.0]
[0.8666666746139526]
[0.6266666650772095]
[0.32740744948387146]
[1.0]
[0.9843137264251709]
[0.9533102512359619]
[0.9077181816101074]
[1.0]
[0.2705882787704468]
[-0.39017295837402344]
[-0.3563525676727295]
[1.0]
[-1.0]
[1.0]
[-1.0]
[1.0]
[-1.0]
[1.0]
[-1.0]
[1.0]
[-1.0]
[1.0]
[-1.0]
[1.0]
[-1.0]
[1.0]
[-1.0]
[1.0]
[-1.0]
[1.0]
[-1.0]
[1.0]
[-1.0]
[1.0]
[-1.0]
[1.0]
[-1.0]
[1.0]
[-1.0]
[1.0]
[-1.0]
[1.0]
[-1.0]
[1.0]
[-1.0]
[1.0]
[-1.0]
[1.0]
[-1.0]
[1.0]
[-1.0]
[1.0]
[-1.0]
[1.0]
[-1.0]
[1.0]
[-1.0]
[1.0]
[-1.0]
[1.0]
[-1.0]
[1.0]
[-1.0]
[1.0]
[-1.0]
[1.0]
[-1.0]
[1.0]
[-1.0]
[1.0]
[-1.0]
[1.0]
[-0.3333333134651184]
[-0.3333333730697632]
[0.40740740299224854]
[1.0]
[0.9764705896377563]
[0.9302423000335693]
[0.8629432320594788]
[1.0]
[0.9529411792755127]
[0.8621453046798706]
[0.7339954376220703]
[1.0]
[0.14509809017181396]
[-0.4684198200702667]
[-0.2100100964307785]
[1.0]
[-0.6235294342041016]
[0.0831834077835083]
[0.3292407989501953]
[1.0]
[-0.772549033164978]
[0.3952479958534241]
[0.00611857557669282]
[1.0]
[-0.3333333134651184]
[-0.3333333730697632]
[0.40740740299224854]
[1.0]
[0.3960784673690796]
[-0.2646827697753906]
[-0.43877753615379333]
[1.0]
[0.7647058963775635]
[0.3771626353263855]
[-0.02910645864903927]
[1.0]
[0.9843137264251709]
[0.9533102512359619]
[0.9077181816101074]
[1.0]
[0.7490196228027344]
[0.34154558181762695]
[-0.07297249883413315]
[1.0]
[0.30980396270751953]
[-0.35603225231170654]
[-0.3903696537017822]
[1.0]
[-0.5607843399047852]
[-0.02828139066696167]
[0.4002891778945923]
[1.0]
[-1.0]
[1.0]
[-1.0]
[1.0]
[-1.0]
[1.0]
[-1.0]
[1.0]
[-1.0]
[1.0]
[-1.0]
[1.0]
[-1.0]
[1.0]
[-1.0]
[1.0]
[-1.0]
[1.0]
[-1.0]
[1.0]
[-1.0]
[1.0]
[-1.0]
[1.0]
[-1.0]
[1.0]
[-1.0]
[1.0]
[-1.0]
[1.0]
[-1.0]
[1.0]
[-1.0]
[1.0]
[-1.0]
[1.0]
[-1.0]
[1.0]
[-1.0]
[1.0]
[-1.0]
[1.0]
[-1.0]
[1.0]
[-1.0]
[1.0]
[-1.0]
[1.0]
[-1.0]
[1.0]
[-1.0]
[1.0]
[-1.0]
[1.0]
[-1.0]
[1.0]
[-1.0]
[1.0]
[-1.0]
[1.0]
[-0.3333333134651184]
[-0.3333333730697632]
[0.40740740299224854]
[1.0]
[0.9764705896377563]
[0.9302423000335693]
[0.8629432320594788]
[1.0]
[0.9764705896377563]
[0.9302423000335693]
[0.8629432320594788]
[1.0]
[0.9764705896377563]
[0.9302423000335693]
[0.8629432320594788]
[1.0]
[0.7960784435272217]
[0.4506113529205322]
[0.0671510323882103]
[1.0]
[0.686274528503418]
[0.20645910501480103]
[-0.22137032449245453]
[1.0]
[0.9764705896377563]
[0.9302423000335693]
[0.8629432320594788]
[1.0]
[0.9764705896377563]
[0.9302423000335693]
[0.8629432320594788]
[1.0]
[0.9764705896377563]
[0.9302423000335693]
[0.8629432320594788]
[1.0]
[0.5372549295425415]
[-0.06703570485115051]
[-0.4181953966617584]
[1.0]
[0.019607901573181152]
[-0.4994232952594757]
[-0.02939300797879696]
[1.0]
[-1.0]
[1.0]
[-1.0]
[1.0]
[-1.0]
[1.0]
[-1.0]
[1.0]
[-1.0]
[1.0]
[-1.0]
[1.0]
[-1.0]
[1.0]
[-1.0]
[1.0]
[-1.0]
[1.0]
[-1.0]
[1.0]
[-1.0]
[1.0]
[-1.0]
[1.0]
[-1.0]
[1.0]
[-1.0]
[1.0]
[-1.0]
[1.0]
[-1.0]
[1.0]
[-1.0]
[1.0]
[-1.0]
[1.0]
[-1.0]
[1.0]
[-1.0]
[1.0]
[-1.0]
[1.0]
[-1.0]
[1.0]
[-1.0]
[1.0]
[-1.0]
[1.0]
[-1.0]
[1.0]
[-1.0]
[1.0]
[-1.0]
[1.0]
[-1.0]
[1.0]
[-1.0]
[1.0]
[-1.0]
[1.0]
[-1.0]
[1.0]
[-1.0]
[1.0]
[-1.0]
[1.0]
[-1.0]
[1.0]
[-0.7803921699523926]
[0.41351789236068726]
[-0.01758209802210331]
[1.0]
[0.5607843399047852]
[-0.02828139066696167]
[-0.4002891778945923]
[1.0]
[0.9764705896377563]
[0.9302423000335693]
[0.8629432320594788]
[1.0]
[0.9764705896377563]
[0.9302423000335693]
[0.8629432320594788]
[1.0]
[0.9843137264251709]
[0.9533102512359619]
[0.9077181816101074]
[1.0]
[0.9764705896377563]
[0.9302423000335693]
[0.8629432320594788]
[1.0]
[0.9764705896377563]
[0.9302423000335693]
[0.8629432320594788]
[1.0]
[0.8274509906768799]
[0.5270127058029175]
[0.17516128718852997]
[1.0]
[0.13725495338439941]
[-0.47174161672592163]
[-0.1994180828332901]
[1.0]
[-1.0]
[1.0]
[-1.0]
[1.0]
[-1.0]
[1.0]
[-1.0]
[1.0]
[-1.0]
[1.0]
[-1.0]
[1.0]
[-1.0]
[1.0]
[-1.0]
[1.0]
[-1.0]
[1.0]
[-1.0]
[1.0]
[-1.0]
[1.0]
[-1.0]
[1.0]
[-1.0]
[1.0]
[-1.0]
[1.0]
[-1.0]
[1.0]
[-1.0]
[1.0]
[-1.0]
[1.0]
[-1.0]
[1.0]
[-1.0]
[1.0]
[-1.0]
[1.0]
[-1.0]
[1.0]
[-1.0]
[1.0]
[-1.0]
[1.0]
[-1.0]
[1.0]
[-1.0]
[1.0]
[-1.0]
[1.0]
[-1.0]
[1.0]
[-1.0]
[1.0]
[-1.0]
[1.0]
[-1.0]
[1.0]
[-1.0]
[1.0]
[-1.0]
[1.0]
[-1.0]
[1.0]
[-1.0]
[1.0]
[-1.0]
[1.0]
[-1.0]
[1.0]
[-1.0]
[1.0]
[-1.0]
[1.0]
[-1.0]
[1.0]
[-1.0]
[1.0]
[-0.8039215803146362]
[0.46943479776382446]
[-0.09303358942270279]
[1.0]
[0.003921627998352051]
[-0.4999769330024719]
[-0.0058822911232709885]
[1.0]
[0.9764705896377563]
[0.9302423000335693]
[0.8629432320594788]
[1.0]
[0.9843137264251709]
[0.9533102512359619]
[0.9077181816101074]
[1.0]
[0.9764705896377563]
[0.9302423000335693]
[0.8629432320594788]
[1.0]
[0.10588240623474121]
[-0.4831833839416504]
[-0.1558559685945511]
[1.0]
[-0.7098039388656616]
[0.2557324171066284]
[0.17066949605941772]
[1.0]
[-1.0]
[1.0]
[-1.0]
[1.0]
[-1.0]
[1.0]
[-1.0]
[1.0]
[-1.0]
[1.0]
[-1.0]
[1.0]
[-1.0]
[1.0]
[-1.0]
[1.0]
[-1.0]
[1.0]
[-1.0]
[1.0]
[-1.0]
[1.0]
[-1.0]
[1.0]
[-1.0]
[1.0]
[-1.0]
[1.0]
[-1.0]
[1.0]
[-1.0]
[1.0]
[-1.0]
[1.0]
[-1.0]
[1.0]
[-1.0]
[1.0]
[-1.0]
[1.0]
[-1.0]
[1.0]
[-1.0]
[1.0]
[-1.0]
[1.0]
[-1.0]
[1.0]
[-1.0]
[1.0]
[-1.0]
[1.0]
[-1.0]
[1.0]
[-1.0]
[1.0]
[-1.0]
[1.0]
[-1.0]
[1.0]
[-1.0]
[1.0]
[-1.0]
[1.0]
[-1.0]
[1.0]
[-1.0]
[1.0]
[-1.0]
[1.0]
[-1.0]
[1.0]
[-1.0]
[1.0]
[-1.0]
[1.0]
[-1.0]
[1.0]
[-1.0]
[1.0]
[-1.0]
[1.0]
[-1.0]
[1.0]
[-1.0]
[1.0]
[-1.0]
[1.0]
[-1.0]
[1.0]
[-1.0]
[1.0]
[-1.0]
[1.0]
[-1.0]
[1.0]
[-1.0]
[1.0]
[-1.0]
[1.0]
[-1.0]
[1.0]
[-1.0]
[1.0]
[-1.0]
[1.0]
[-1.0]
[1.0]
[-1.0]
[1.0]
[-1.0]
[1.0]
[-1.0]
[1.0]
[-1.0]
[1.0]
[-1.0]
[1.0]
[-1.0]
[1.0]
[-1.0]
[1.0]
[-1.0]
[1.0]
[-1.0]
[1.0]
[-1.0]
[1.0]
[-1.0]
[1.0]
[-1.0]
[1.0]
[-1.0]
[1.0]
[-1.0]
[1.0]
[-1.0]
[1.0]
[-1.0]
[1.0]
[-1.0]
[1.0]
[-1.0]
[1.0]
[-1.0]
[1.0]
[-1.0]
[1.0]
[-1.0]
[1.0]
[-1.0]
[1.0]
[-1.0]
[1.0]
[-1.0]
[1.0]
[-1.0]
[1.0]
[-1.0]
[1.0]
[-1.0]
[1.0]
[-1.0]
[1.0]
[-1.0]
[1.0]
[-1.0]
[1.0]
[-1.0]
[1.0]
[-1.0]
[1.0]
[-1.0]
[1.0]
[-1.0]
[1.0]
[-1.0]
[1.0]
[-1.0]
[1.0]
[-1.0]
[1.0]
[-1.0]
[1.0]
[-1.0]
[1.0]
[-1.0]
[1.0]
[-1.0]
[1.0]
[-1.0]
[1.0]
[-1.0]
[1.0]
[-1.0]
[1.0]
[-1.0]
[1.0]
[-1.0]
[1.0]
[-1.0]
[1.0]
[-1.0]
[1.0]
[-1.0]
[1.0]
[-1.0]
[1.0]
[-1.0]
[1.0]
[-1.0]
[1.0]
[-1.0]
[1.0]
[-1.0]
[1.0]
[-1.0]
[1.0]
[-1.0]
[1.0]
[-1.0]
[1.0]
[-1.0]
[1.0]
[-1.0]
[1.0]
[-1.0]
[1.0]
[-1.0]
[1.0]
[-1.0]
[1.0]
[-1.0]
[1.0]
[-1.0]
[1.0]
[-1.0]
[1.0]
[-1.0]
[1.0]
[-1.0]
[1.0]
[-1.0]
[1.0]
[-1.0]
[1.0]
[-1.0]
[1.0]
[-1.0]
[1.0]
[-1.0]
[1.0]
[-1.0]
[1.0]
[-1.0]
[1.0]
[-1.0]
[1.0]
[-1.0]
[1.0]
[-1.0]
[1.0]
[-1.0]
[1.0]
[-1.0]
[1.0]
[-1.0]
[1.0]
[-1.0]
[1.0]
[-1.0]
[1.0]
[-1.0]
[1.0]
[-1.0]
[1.0]
[-1.0]
[1.0]
[-1.0]
[1.0]
[-1.0]
[1.0]
[-1.0]
[1.0]
[-1.0]
[1.0]
[-1.0]
[1.0]
[-1.0]
[1.0]
[-1.0]
[1.0]
[-1.0]
[1.0]
[-1.0]
[1.0]
[-1.0]
[1.0]
[-1.0]
[1.0]
[-1.0]
[1.0]
[-1.0]
[1.0]
[-1.0]
[1.0]
[-1.0]
[1.0]
[-1.0]
[1.0]
[-1.0]
[1.0]
[-1.0]
[1.0]
[-1.0]
[1.0]
[-1.0]
[1.0]
[-1.0]
[1.0]
[-1.0]
[1.0]
[-1.0]
[1.0]
[-1.0]
[1.0]
[-1.0]
[1.0]
[-1.0]
[1.0]
[-1.0]
[1.0]
[-1.0]
[1.0]
[-1.0]
[1.0]
[-1.0]
[1.0]
[-1.0]
[1.0]
[-1.0]
[1.0]
[-1.0]
[1.0]
[-1.0]
[1.0]
[-1.0]
[1.0]
[-1.0]
[1.0]
[-1.0]
[1.0]
[-1.0]
[1.0]
[-1.0]
[1.0]
[-1.0]
[1.0]
[-1.0]
[1.0]
[-1.0]
[1.0]
[-1.0]
[1.0]
[-1.0]
[1.0]
[-1.0]
[1.0]
[-1.0]
[1.0]
[-1.0]
[1.0]
[-1.0]
[1.0]
[-1.0]
[1.0]
[-1.0]
[1.0]
[-1.0]
[1.0]
[-1.0]
[1.0]
[-1.0]
[1.0]
[-1.0]
[1.0]
[-1.0]
[1.0]
[-1.0]
[1.0]
[-1.0]
[1.0]
[-1.0]
[1.0]
[-1.0]
[1.0]
[-1.0]
[1.0]
[-1.0]
[1.0]
[-1.0]
[1.0]
[-1.0]
[1.0]
[-1.0]
[1.0]
[-1.0]
[1.0]
[-1.0]
[1.0]
[-1.0]
[1.0]
[-1.0]
[1.0]
[-1.0]
[1.0]
[-1.0]
[1.0]
[-1.0]
[1.0]
[-1.0]
[1.0]
[-1.0]
[1.0]
[-1.0]
[1.0]
[-1.0]
[1.0]
[-1.0]
[1.0]
[-1.0]
[1.0]
[-1.0]
[1.0]
[-1.0]
[1.0]
[-1.0]
[1.0]
[-1.0]
[1.0]
[-1.0]
[1.0]
[-1.0]
[1.0]
[-1.0]
[1.0]
[-1.0]
[1.0]
[-1.0]
[1.0]
[-1.0]
[1.0]
[-1.0]
[1.0]
[-1.0]
[1.0]
[-1.0]
[1.0]
[-1.0]
[1.0]
[-1.0]
[1.0]
[-1.0]
[1.0]
[-1.0]
[1.0]
[-1.0]
[1.0]
[-1.0]
[1.0]
[-1.0]
[1.0]
[-1.0]
[1.0]
[-1.0]
[1.0]
[-1.0]
[1.0]
[-1.0]
[1.0]
[-1.0]
[1.0]
[-1.0]
[1.0]
[-1.0]
[1.0]
[-1.0]
[1.0]
[-1.0]
[1.0]
[-1.0]
[1.0]
[-1.0]
[1.0]
[-1.0]
[1.0]
[-1.0]
[1.0]
[-1.0]
[1.0]
[-1.0]
[1.0]
[-1.0]