[1.0]
[0.11133706569671631]
[-0.4814060926437378]
[-0.16355527937412262]
[1.0]
[0.3978593349456787]
[-0.2625619173049927]
[-0.4393440783023834]
[1.0]
[0.1416490077972412]
[-0.4699033498764038]
[-0.20536823570728302]
[1.0]
[-0.8831679821014404]
[0.6699784994125366]
[-0.3973940312862396]
[1.0]
[-0.2079397439956665]
[-0.43514159321784973]
[0.2894318997859955]
[1.0]
[-0.018253445625305176]
[-0.49950021505355835]
[0.02736496366560459]
[1.0]
[-0.06444782018661499]
[-0.49376970529556274]
[0.09600251913070679]
[1.0]
[-0.11014074087142944]
[-0.4818035364151001]
[0.1618708223104477]
[1.0]
[0.6499654054641724]
[0.13368254899978638]
[-0.2884952127933502]
[1.0]
[-0.16195839643478394]
[-0.46065422892570496]
[0.2323169708251953]
[1.0]
[0.29762840270996094]
[-0.3671259880065918]
[-0.38053080439567566]
[1.0]
[0.20876038074493408]
[-0.4346286654472351]
[-0.2903956472873688]
[1.0]
[0.02403080463409424]
[-0.49913379549980164]
[-0.03601151332259178]
[1.0]
[0.14789628982543945]
[-0.4671900272369385]
[-0.2137569785118103]
[1.0]
[0.2641937732696533]
[-0.3953024744987488]
[-0.3501899242401123]
[1.0]
[0.034366607666015625]
[-0.49822840094566345]
[-0.05144843831658363]
[1.0]
[0.2329469919204712]
[-0.4186035394668579]
[-0.3178187310695648]
[1.0]
[-0.3241403102874756]
[-0.34239959716796875]
[0.40106940269470215]
[1.0]
[-0.4974401593208313]
[-0.1288299262523651]
[0.4384354054927826]
[1.0]
[0.5252218246459961]
[-0.08621305227279663]
[-0.42561617493629456]
[1.0]
[-0.257002055644989]
[-0.4009249210357666]
[0.3430655896663666]
[1.0]
[0.4218752384185791]
[-0.23303192853927612]
[-0.4451008141040802]
[1.0]
[0.5104625225067139]
[-0.109142005443573]
[-0.4331631660461426]
[1.0]
[0.5034608840942383]
[-0.1197907030582428]
[-0.43615713715553284]
[1.0]
[0.020513415336608887]
[-0.4993687868118286]
[-0.03074854053556919]
[1.0]
[0.07411706447601318]
[-0.4917599856853485]
[-0.11015772074460983]
[1.0]
[0.11340439319610596]
[-0.48070916533470154]
[-0.16646048426628113]
[1.0]
[0.5061050653457642]
[-0.11578649282455444]
[-0.435070276260376]
[1.0]
[0.006510376930236816]
[-0.49993643164634705]
[-0.009764875285327435]
[1.0]
[-0.05654019117355347]
[-0.4952048063278198]
[0.08435841649770737]
[1.0]
[0.15459418296813965]
[-0.46415096521377563]
[-0.2226545214653015]
[1.0]
[-0.6187970638275146]
[0.07436472177505493]
[0.33583691716194153]
[1.0]
[-0.03787803649902344]
[-0.49784788489341736]
[0.05668118968605995]
[1.0]
[-0.7909908294677734]
[0.4384997487068176]
[-0.05075490474700928]
[1.0]
[-0.4266972541809082]
[-0.22689417004585266]
[0.4458233416080475]
[1.0]
[0.3487304449081421]
[-0.31758061051368713]
[-0.4170703589916229]
[1.0]
[0.3287830352783203]
[-0.3378525674343109]
[-0.4043223559856415]
[1.0]
[0.5412452220916748]
[-0.06058040261268616]
[-0.4154782295227051]
[1.0]
[0.39794492721557617]
[-0.26245975494384766]
[-0.4393708407878876]
[1.0]
[-0.2434614896774292]
[-0.4110897481441498]
[0.3291151821613312]
[1.0]
[0.22711169719696045]
[-0.4226304292678833]
[-0.31138166785240173]
[1.0]
[-0.4079893231391907]
[-0.2503170371055603]
[0.44220399856567383]
[1.0]
[-0.8906263113021851]
[0.689822793006897]
[-0.43020638823509216]
[1.0]
[-0.09174662828445435]
[-0.48737382888793945]
[0.13568925857543945]
[1.0]
[-0.017274320125579834]
[-0.4995523989200592]
[0.025898592546582222]
[1.0]
[0.2635577917098999]
[-0.3958059251308441]
[-0.34956809878349304]
[1.0]
[0.01599299907684326]
[-0.4996163249015808]
[-0.023979270830750465]
[1.0]
[-1.0]
[1.0]
[-1.0]
[1.0]
[0.007500410079956055]
[-0.49991562962532043]
[-0.011249559931457043]
[1.0]
[0.2387533187866211]
[-0.4144952893257141]
[-0.32410576939582825]
[1.0]
[1.0]
[1.0]
[1.0]
[1.0]
[0.3713876008987427]
[-0.2931068539619446]
[-0.4290188252925873]
[1.0]
[0.25233376026153564]
[-0.40449151396751404]
[-0.33833393454551697]
[1.0]
[0.06746494770050049]
[-0.4931727349758148]
[-0.10042975097894669]
[1.0]
[0.24025237560272217]
[-0.4134182035923004]
[-0.32570943236351013]
[1.0]
[0.1060023307800293]
[-0.48314526677131653]
[-0.1560257524251938]
[1.0]
[0.0361180305480957]
[-0.4980432391166687]
[-0.05405925586819649]
[1.0]
[-0.34213101863861084]
[-0.3244195580482483]
[0.41307735443115234]
[1.0]
[0.5136792659759521]
[-0.10420042276382446]
[-0.4316621720790863]
[1.0]
[0.327306866645813]
[-0.3393053412437439]
[-0.4032995402812958]
[1.0]
[0.1060492992401123]
[-0.4831303060054779]
[-0.15609224140644073]
[1.0]
[-0.8435307741165161]
[0.5673162937164307]
[-0.23522734642028809]
[1.0]
[-0.2337309718132019]
[-0.4180547595024109]
[0.31867456436157227]
[1.0]
[-0.3220176696777344]
[-0.34445691108703613]
[0.39954712986946106]
