[0.03958047926425934, -0.09912097454071045, -0.02089094929397106, -0.0768667533993721, -0.10480596870183945, -0.09280462563037872, -0.025260325521230698, 0.0004657446697819978, 0.1038195788860321, 0.11331699043512344, -0.0021203409414738417, -0.036522503942251205, -0.10445202887058258, -0.02312404476106167, -0.03957671299576759, -0.010258416645228863, 0.09192411601543427, -0.09312903881072998, 0.06814441829919815, -0.003898738883435726, -0.05845937877893448, 0.07947254180908203, 0.12757593393325806, 0.04847655072808266, -0.06711585819721222, 0.09107142686843872, 0.018714485689997673, -0.00020341112394817173, -0.042882904410362244, 0.08906802535057068, 0.0007221965352073312, 0.026148036122322083, -0.06906316429376602, 0.03662117198109627, 0.006516642402857542, -0.03109847754240036, -0.04886791110038757, 0.05061478912830353, 0.12298902869224548, -0.054460588842630386, 0.05695907399058342, 0.05445883423089981, -0.08078817278146744, -0.02646164409816265, -0.09181731939315796, -0.012846631929278374, 0.12892425060272217, -0.025066107511520386, -0.027580363675951958, 0.004528918769210577, 0.12097234278917313, -0.06333377212285995, -0.09455978870391846, 0.06462881714105606, -0.09566327184438705, -0.0934695228934288, 0.012817871756851673, 0.03851639851927757, -0.05248339846730232, 0.0328550711274147, 0.07679448276758194, 0.12797647714614868, -0.04098213464021683, 0.08870190382003784, 0.024031689390540123, 0.007005943916738033, 0.17554128170013428, -0.1404363512992859, -0.08063813298940659, 0.08369164168834686, 0.016593461856245995, 0.09707462042570114, -0.01699908822774887, 0.06271255016326904, 0.04380003362894058, 0.06545233726501465, -0.06646496802568436, -0.028293754905462265, -0.10833558440208435, 0.11716482043266296, 0.011834514327347279, -0.007005528546869755, -0.04185136407613754, -0.054656367748975754, -0.06484895199537277, 0.022699905559420586, 0.045116059482097626, -0.028130482882261276, -0.02998139150440693, -0.006857243832200766, 0.049543000757694244, -0.06931241601705551, 0.055668722838163376, -0.11382341384887695, 0.10758963972330093, -0.021056678146123886, -0.034637339413166046, -0.09706538915634155, 0.09826312214136124, -0.0012437304249033332, 0.06947360187768936, 0.024678921326994896, 0.03327931836247444, -0.12610316276550293, 0.053308308124542236, -0.1553371101617813, 0.1675006002187729, -0.05968143790960312, 0.0511372871696949, -0.08080409467220306, -0.148279070854187, 0.02901952899992466, -0.01063262578099966, 0.14804622530937195, 0.0020202193409204483, 0.04754696786403656, 0.0005374513566493988, -0.08586383610963821, -0.03379951789975166, -0.026087867096066475, -0.02928794175386429, 0.09656311571598053, 0.046325765550136566, -0.022556396201252937, 0.08681782335042953, 0.009614536538720131, -0.10327941179275513, 0.049580156803131104, 0.08586730808019638, -0.037729568779468536, 0.028477175161242485, -0.07239419966936111, -0.007124597672373056, 0.02558540552854538, -0.12223777920007706, 0.05450532212853432, -0.06378018110990524, -0.05603693425655365, -0.13611704111099243, -0.028070548549294472, -0.0798911303281784, -0.029188230633735657, 0.02254479192197323, -0.11778034269809723, 0.07974541932344437, -0.0489705391228199, 0.16322728991508484, -0.06437075883150101, 0.09501418471336365, 0.0229126438498497, -0.0038301071617752314, -0.1608782708644867, 0.03826991468667984, 0.07556883990764618, -0.08427625149488449, 0.08515255898237228, -0.030750000849366188, 0.07521944493055344, -0.048267263919115067, 0.14608781039714813, 0.10528112202882767, 0.10709807276725769, -0.08431541174650192, -0.028525739908218384, 0.03950744867324829, -0.06708209961652756, 0.08421484380960464, -0.05126667022705078, 0.10510089248418808, -0.00973663479089737, -0.11696859449148178, 0.11110132932662964, 0.014634218066930771, 0.04216579347848892, 0.04041782021522522, 0.0673959031701088, -0.03552018478512764, 0.08223281800746918, -0.015879223123192787, -0.0012335868086665869, -0.015125884674489498, -0.17187921702861786, 0.08538706600666046, 0.012615651823580265, -0.0657498762011528, -0.01166088692843914, 0.014739714562892914, -0.07488986104726791, -0.04121733456850052, 0.09241745620965958, -0.19944049417972565, 0.2808905243873596, -0.06917508691549301, 0.0020044383127242327, 0.02015073224902153, -0.008345539681613445, 0.10589592158794403, -0.09098745137453079, 0.04602765291929245, -0.04642752557992935, 0.02317976765334606, 0.02137659303843975, 0.033526286482810974, 0.018238337710499763, -0.03053944557905197, -0.06967969983816147, 0.019343242049217224, -0.04149801284074783, -0.0293821319937706, -0.05378536134958267, 0.02385239116847515, -0.1636175960302353, -0.08428595960140228, 0.043755631893873215, 0.12823505699634552, -0.05901067703962326, -0.054659221321344376, 0.12438266724348068, -0.09318424761295319, 0.1625761091709137, 0.010661939159035683, -0.023213839158415794, 0.03439055755734444, -0.019351234659552574, 0.06299639493227005, 0.02769065648317337, 0.09593918919563293, -0.03993747755885124, 0.07378650456666946, 0.12889209389686584, -0.003105285344645381, 0.16758708655834198, 0.09490031003952026, 0.024783285334706306, -0.07824165374040604, -0.09060253202915192, 0.014244710095226765, 0.008128374814987183, -0.13768240809440613, 0.0021703368984162807, 0.053855717182159424, -0.14143292605876923, 0.17961061000823975, -0.1521035134792328, 0.016643811017274857, -0.04936300218105316, 0.030347680673003197, 0.10051201283931732, 0.045397911220788956, 0.03893233463168144, -0.05122581124305725, 0.049702078104019165, 0.030746998265385628, -0.09156394749879837, -0.04322052747011185, 0.01242611464112997], [-0.07915322482585907, -0.04270807281136513, -0.14437973499298096, 0.03309275954961777, -0.10018573701381683, 0.0729842334985733, 0.07879467308521271, -0.0010973355965688825, -0.09223298728466034, -0.05783039331436157, -0.01309171225875616, -0.02059955522418022, -0.046490252017974854, 0.049487438052892685, 0.006914228200912476, 0.1507810801267624, 0.0657159760594368, 0.0913507267832756, 0.02146807126700878, -0.021765852347016335, -0.04583899676799774, 0.02729666978120804, -0.13898462057113647, 0.05510256439447403, -0.0839543491601944, -0.024696271866559982, 0.013793913647532463, 0.06558965146541595, 0.05651489645242691, -0.12186888605356216, 0.058027394115924835, 0.13526733219623566, -0.06313589215278625, 0.04205995425581932, 0.0849294513463974, -0.13088423013687134, 0.0164530910551548, -0.09979073703289032, 0.030036957934498787, -0.022797007113695145, 0.03464630991220474, 0.045874424278736115, -0.002293048659339547, 0.007358669303357601, -0.09291476011276245, -0.05626721307635307, 0.0015635585878044367, 0.09014284610748291, 0.06823636591434479, 0.039506517350673676, -0.15006184577941895, 0.050529640167951584, 0.08595938235521317, -0.1252417117357254, 0.02132074348628521, -0.07712416350841522, 0.055301833897829056, 0.05899253860116005, -0.11679711192846298, 0.048495497554540634, -0.01684875600039959, 0.06672245264053345, -0.07977103441953659, -0.07015329599380493, -0.038500022143125534, -0.05628934130072594, 0.1583322435617447, 0.040054019540548325, -0.012834176421165466, -0.05323847010731697, 0.09918738156557083, -0.08852331340312958, -0.026398245245218277, -0.025414718315005302, 0.07990808039903641, 0.028858676552772522, -0.05916667357087135, 0.12902015447616577, -0.18930724263191223, 0.010000224225223064, 0.07264800369739532, -0.04612630233168602, -0.0432203970849514, -0.05497582629323006, 0.10072765499353409, -0.025760294869542122, -0.04466539993882179, 0.08115637302398682, -0.028920764103531837, -0.08964944630861282, -0.04404691979289055, 0.0341726616024971, 0.015585708431899548, 0.025755031034350395, -0.0169313196092844, 0.002159329829737544, 0.05721873417496681, -0.04800396040081978, -0.04007864370942116, 0.00739165348932147, 0.10416645556688309, -0.01849423348903656, 0.10352099686861038, 0.0793357715010643, -0.05999397486448288, -0.06251480430364609, 0.07801371812820435, 0.09287835657596588, -0.09854265302419662, -0.099005326628685, 0.08328918367624283, -0.053035229444503784, 0.015242299064993858, 0.07665283977985382, 0.025429094210267067, -0.11894090473651886, 0.06774254143238068, -0.08515442907810211, -0.030030393972992897, -0.1081995740532875, -0.06346400827169418, 0.0020219008438289165, -0.04845130443572998, 0.06495918333530426, 0.09507372975349426, -0.13634704053401947, 0.20547641813755035, -0.04767611622810364, -0.06426952034235, 0.08924606442451477, 0.03207826614379883, -0.0883372575044632, -0.09774819761514664, -0.040041666477918625, -0.012498345226049423, -0.06498122215270996, -0.053592633455991745, -0.06246107816696167, 0.11776994913816452, -0.1573401242494583, -0.09281031787395477, 0.042744699865579605, 0.037067852914333344, 0.06780839711427689, -0.0900777205824852, -0.019591430202126503, 0.12201935797929764, -0.11150459200143814, 0.06578674167394638, -0.05657825246453285, -0.034139733761548996, -0.019293105229735374, -0.1096794381737709, -0.002540057059377432, 0.052776999771595, -0.0953955203294754, -0.06724092364311218, 0.0709560215473175, 0.09416639804840088, 0.06503298878669739, -0.06496497988700867, -0.015031511895358562, -0.07064269483089447, 0.1272970736026764, -0.10744421929121017, 0.13725213706493378, -0.1390233039855957, 0.19887618720531464, 0.04910461977124214, -0.07892394810914993, -0.02429097518324852, -0.0009291041060350835, 0.06369133293628693, -0.0484098456799984, 0.032271817326545715, 0.004051998257637024, -0.07265587151050568, 0.06124790385365486, 0.04179179668426514, -0.052849192172288895, 0.056607358157634735, -0.07815790176391602, -0.07080145925283432, -0.07734573632478714, 0.05729364976286888, -0.12927556037902832, 0.018072551116347313, -0.12762075662612915, -0.019730135798454285, 0.030237387865781784, -0.13924682140350342, 0.098506398499012, -0.03018144518136978, -0.024482669308781624, 0.02319920063018799, -0.07296410948038101, 0.09234728664159775, 0.04594207555055618, 0.20738394558429718, -0.03640318661928177, -0.0827322006225586, -0.0522933155298233, -0.0021111418027430773, 0.035104069858789444, -0.07243845611810684, 0.0605897530913353, -0.026943862438201904, 0.022470518946647644, 0.04411621019244194, -0.06002064049243927, -0.09882210940122604, 0.1156507059931755, -0.025286663323640823, 0.030526114627718925, -0.019436225295066833, 0.18795326352119446, -0.046565212309360504, 0.058211881667375565, 0.13040867447853088, 0.010662603192031384, -0.05076611414551735, 0.02919313870370388, 0.04332825914025307, 0.008655129931867123, 0.05311896279454231, 0.016894347965717316, -0.007091997191309929, 0.16434383392333984, -0.07040810585021973, -0.07903511077165604, 0.02292340062558651, 0.03958161175251007, -0.038045525550842285, -0.03565487638115883, -0.05445694178342819, -0.11376853287220001, 0.021469509229063988, -0.15652866661548615, 0.11121267080307007, -0.06895718723535538, 0.09171485900878906, 0.035357482731342316, 0.005252968054264784, 0.09982778131961823, -0.09671532362699509, -0.059876374900341034, 0.11329708248376846, 0.028326673433184624, 0.04499536380171776, -0.06352701783180237, 0.0027262165676802397, 0.16303643584251404, 0.015290754847228527, 0.07303383946418762, 0.027805456891655922, -0.03529658913612366], [-0.03394611179828644, -0.007020121440291405, -0.02822737954556942, -0.025599844753742218, 0.03928626328706741, 0.038038160651922226, 0.04352434352040291, 0.13004335761070251, -0.0809343233704567, -0.007188063580542803, -0.04752366989850998, -0.04515258967876434, -0.06298071146011353, -0.021329795941710472, 0.02081834152340889, -0.15095281600952148, -0.023167947307229042, -0.004171160515397787, 0.068240687251091, -0.04437721148133278, -0.10570227354764938, 0.07025326788425446, -0.18209250271320343, 0.041542548686265945, -0.099778912961483, -0.03920704871416092, -0.0675436332821846, -0.07879669219255447, -0.04658632352948189, 0.12851902842521667, 0.04174206405878067, 0.11990195512771606, -0.016535283997654915, 0.029655737802386284, 0.09587903320789337, 0.07316477596759796, -0.012599901296198368, 0.04359789565205574, -0.014762232080101967, -0.10818220674991608, -0.09733135998249054, -0.07183593511581421, 0.15410840511322021, 0.004452191758900881, -0.014169744215905666, 0.08382630348205566, -0.11054953932762146, -0.09039055556058884, 0.051021724939346313, 0.04970633238554001, -0.0860089659690857, 0.053973905742168427, -0.1038186103105545, 0.02371448278427124, 0.09176773577928543, -0.1155833750963211, -0.004716928116977215, -0.045658957213163376, -0.1300068497657776, -0.013377481140196323, -0.10190823674201965, 0.0671335980296135, -0.05832577496767044, -0.020576925948262215, -0.0503397174179554, -0.050529595464468, 0.08601078391075134, -0.07189033180475235, 0.011650077998638153, -0.040847618132829666, 0.07797712087631226, 0.03352944925427437, 0.04677257314324379, 0.024741897359490395, -0.026446517556905746, -0.012657086364924908, 0.0661337673664093, 0.1086345985531807, -0.11818578094244003, 0.05275823548436165, 0.06439743936061859, -0.024525977671146393, -0.0027100881561636925, -0.06721528619527817, -0.10362039506435394, 0.03089882619678974, 0.034161146730184555, 0.099452443420887, 0.006801428738981485, -0.0771593227982521, -0.06872255355119705, 0.02359701879322529, 0.04032381996512413, -0.01982126571238041, 0.04981108009815216, -0.148153156042099, -0.037125200033187866, -0.03260371834039688, -0.08727014809846878, -0.06315065175294876, -0.09206824004650116, -0.06421132385730743, -0.0035168493632227182, 0.004960174206644297, -0.011510279029607773, -0.04530191048979759, -0.0352926142513752, -0.09112226217985153, 0.07985980063676834, 0.002558754291385412, -0.028675474226474762, -0.038622573018074036, 0.02651830203831196, 0.058670613914728165, 0.06193507835268974, 0.06911197304725647, -0.03058629110455513, -0.07226675748825073, -0.09954651445150375, -0.04965401440858841, 0.036683227866888046, -0.09071145206689835, 0.10137560963630676, 0.010181418620049953, -0.09933475404977798, -0.023738879710435867, -0.13115079700946808, 0.08761953562498093, 0.00993152242153883, -0.11329440027475357, -0.07261840254068375, -0.009975720196962357, -0.037193894386291504, 0.023234166204929352, 0.07376620918512344, 0.029118787497282028, 0.04482213407754898, 0.08535974472761154, -0.045044902712106705, -0.14280086755752563, 0.07308478653430939, -0.11079859733581543, -0.06478999555110931, -0.045208416879177094, 0.0932050496339798, -0.019364094361662865, 0.03422153368592262, 0.08328044414520264, -0.0026504264678806067, -0.09181734174489975, 0.07411131262779236, 0.04306311532855034, -0.023565854877233505, -0.06832115352153778, 0.09925711154937744, 0.03279611095786095, -0.05705210193991661, -0.05210277438163757, 0.04345140978693962, 0.004632132593542337, 0.04823018237948418, 0.04648538678884506, 0.019385691732168198, -0.010230157524347305, 0.06507936865091324, -0.04308696836233139, 0.02244388684630394, 0.09175923466682434, 0.08355166018009186, 0.10364095121622086, -0.011285689659416676, 0.01127522625029087, -0.029507657513022423, 0.02855890803039074, 0.04504774510860443, -0.015042521990835667, -0.02939017117023468, 0.0014268120285123587, -0.030167626217007637, 0.12012924253940582, -0.022164329886436462, 0.050774745643138885, 0.00405195401981473, 0.0757559984922409, 0.041456397622823715, 0.11000045388936996, -0.07069594413042068, 0.03806225210428238, -0.0031697778031229973, -0.049426961690187454, -0.03244774043560028, 0.06733977049589157, 0.0587853342294693, -0.0012507291976362467, 0.008027532137930393, 0.007268661633133888, -0.008114530704915524, -0.09842713922262192, -0.11099881678819656, 0.008763953112065792, -0.06959772855043411, 0.08144080638885498, -0.04965779930353165, 0.08192725479602814, -0.07141901552677155, -0.07744006812572479, 0.06456276774406433, -0.1675897091627121, -0.02971363067626953, -0.027714252471923828, 0.07399968057870865, -0.02547517977654934, 0.06489340960979462, -0.005896112881600857, -0.13833966851234436, 0.07701855897903442, -0.109304279088974, -0.0613863505423069, 0.09408368170261383, -0.23502285778522491, 0.04739980027079582, 0.07272850722074509, -0.1352120041847229, -0.04416762664914131, 0.051105450838804245, -0.05516715347766876, -0.05864815041422844, 0.021233877167105675, 0.04863154888153076, -0.05791217461228371, -0.015147116035223007, 0.07275931537151337, 0.09563636034727097, -0.03567182645201683, -0.08235407620668411, 0.015456036664545536, -0.026207707822322845, -0.06678448617458344, -0.098580501973629, 0.01961139403283596, -0.09685717523097992, -0.05117213726043701, -0.08863797038793564, 0.038880955427885056, 0.06678088009357452, -0.03487943112850189, -0.12297962605953217, -0.003806658321991563, -0.010445529595017433, -0.05830161273479462, 0.021480964496731758, 0.053199127316474915, 0.02971082367002964, 0.18366187810897827, -0.08033828437328339, 0.1295238584280014], [-0.09220387041568756, -0.12520790100097656, 0.11476803570985794, -0.16022109985351562, -0.0003481541061773896, -0.014203404076397419, 0.03589605912566185, 0.03708162531256676, -0.02217215485870838, -0.17784851789474487, 0.23064740002155304, 0.0020095801446586847, 0.020258020609617233, 0.0321916900575161, 0.06299535185098648, 0.02916601300239563, -0.03412565961480141, 0.007567969150841236, -0.11517474055290222, 0.0007357849972322583, 0.09192034602165222, 0.05762334540486336, 0.011046295054256916, -0.06418725848197937, 0.05235056206583977, 0.0653952807188034, -0.12914137542247772, 0.045676372945308685, -0.040629904717206955, -0.08460415154695511, -0.0911569893360138, -0.040639836341142654, 0.020244522020220757, 0.06586413085460663, -0.11902131885290146, 0.04664291813969612, 0.04709325730800629, -0.061455048620700836, -0.042911071330308914, 0.07755149155855179, -0.05391457676887512, -0.03681989759206772, 0.002349481452256441, -0.01651785522699356, -0.05186465382575989, 0.18685172498226166, -0.06152459979057312, -0.13034920394420624, -0.009865663945674896, -0.036291997879743576, -0.038779668509960175, 0.0027889194898307323, 0.0556010976433754, -0.06840711832046509, 0.018863147124648094, -0.0305325984954834, -0.03877251595258713, -0.09969554841518402, 0.010505800135433674, -0.02287299744784832, 0.09353007376194, -0.09708531945943832, 0.07997248321771622, 0.016530567780137062, -0.028162773698568344, -0.0104070408269763, 0.014671437442302704, -0.017297247424721718, -0.038585539907217026, -0.07991666346788406, -0.03562017157673836, -0.004799260292202234, 0.07780534774065018, -0.07181429862976074, 0.004666761960834265, -0.10125510394573212, 0.04356272518634796, 0.05230581760406494, -0.04131035879254341, 0.08521756529808044, -0.09683948755264282, 0.030997393652796745, -0.051812466233968735, 0.20560035109519958, -0.03118833526968956, 0.10145734995603561, 0.11715935915708542, -0.07422786206007004, -0.06053609400987625, -0.07790876179933548, 0.0074653043411672115, 0.04622853174805641, 0.08727138489484787, -0.08445380628108978, 0.018372971564531326, -0.01788126677274704, -0.09165019541978836, 0.10936177521944046, 0.014956329949200153, -0.01920260488986969, -0.05751983821392059, -0.08795482665300369, -0.02073044329881668, -0.12010185420513153, 0.03553006425499916, -0.008166634477674961, -0.08060397952795029, 0.0270414799451828, 0.06514901667833328, -0.12385644763708115, 0.006873645819723606, -0.06994887441396713, 0.059240762144327164, -0.02084275335073471, -0.07082882523536682, -0.02560930699110031, 0.06215578690171242, 0.06074241176247597, -0.050536856055259705, -0.028106939047574997, 0.03708808124065399, -0.08795957267284393, -0.03179653361439705, 0.14993640780448914, 0.024355001747608185, 0.03352447971701622, 0.07784003019332886, 0.04617951065301895, 0.011162345297634602, -0.02655162662267685, 0.02357853390276432, -0.07872898876667023, 0.0031909956596791744, -0.0002993560046888888, 0.030399126932024956, -0.18061563372612, 0.06023773178458214, -0.04941950738430023, -0.0009834181983023882, 0.027189187705516815, 0.09778887033462524, 0.0183358583599329, -0.040495920926332474, -0.013417322188615799, -0.0012360085966065526, -0.08409303426742554, 0.03599691763520241, -0.023491213098168373, 0.04429406672716141, -0.04325283691287041, -0.04086727276444435, 0.22335298359394073, 0.06453805416822433, -0.07833532989025116, 0.06274843961000443, 0.04971303790807724, 0.0962357297539711, 0.05115348473191261, 0.11566951870918274, -0.08737573772668839, -0.05942383036017418, -0.00369384977966547, 0.10579048097133636, -0.013555101118981838, -0.03876736760139465, 0.016536889597773552, 0.07240761816501617, -0.011395419016480446, 0.013267031870782375, 0.11768697202205658, 0.007121281232684851, 0.2129746973514557, -0.0965816006064415, 0.0971081405878067, 0.060330554842948914, 0.01844756305217743, 0.0749700665473938, 0.04470941424369812, -0.03524436429142952, -0.0277969129383564, -0.05355433002114296, 0.04435717314481735, -0.0017182532465085387, 0.01771603338420391, -0.10184146463871002, -0.0364409014582634, -0.06789717078208923, -0.06280528008937836, 0.10405179858207703, -0.060631949454545975, 0.0034686157014220953, -0.13220541179180145, 0.05794931575655937, 0.07898029685020447, 0.10790564864873886, -0.00036972129601053894, -0.06135326251387596, 0.06184109300374985, 0.011600580997765064, 0.0068150851875543594, 0.06512036919593811, -0.001991880591958761, -0.17128144204616547, 0.21821686625480652, 0.09981703013181686, -0.12920810282230377, 0.06596226990222931, -0.009368403814733028, 0.07129095494747162, 0.09786272794008255, -0.2536366581916809, 0.17318224906921387, -0.08945050835609436, -0.079646036028862, 0.0878041535615921, 0.025256043300032616, -0.09217238426208496, -0.06780758500099182, -0.06505460292100906, 0.036442555487155914, 0.01532595232129097, 0.10441868007183075, -0.039993803948163986, -0.0510922335088253, -0.010501322336494923, -0.019077546894550323, -0.019507158547639847, -0.09189899265766144, 0.046102941036224365, 0.061212264001369476, 0.1071518138051033, -0.11412711441516876, 0.05464690178632736, -0.0207233764231205, 0.011664495803415775, -0.03617878258228302, -0.016816290095448494, -0.1406286358833313, 0.11677326261997223, -0.12984389066696167, 0.010742997750639915, -0.012663980945944786, 0.10440276563167572, 0.001469066715799272, 0.0797542929649353, 0.13371023535728455, -0.09237710386514664, -0.03139159455895424, 0.06738860160112381, -0.02157915197312832, -0.0034384685568511486, 0.07611030340194702, -0.026380067691206932, 0.03362749516963959, 0.03027723729610443, 0.07928704470396042], [0.07933520525693893, -0.0018911389634013176, 0.043357815593481064, 0.1457303911447525, 0.04721486195921898, 0.04546822980046272, 0.12293243408203125, -0.025868041440844536, 0.056078772991895676, 0.0069214822724461555, -0.0778823271393776, 0.037856463342905045, -0.06084718555212021, 0.024541351944208145, -0.007526493165642023, -0.08217421919107437, 0.05240578576922417, 0.050166331231594086, 0.011620281264185905, -0.07166251540184021, -0.006221475079655647, 0.06781861186027527, 0.10462381690740585, 0.14689815044403076, -0.0967203676700592, 0.017822040244936943, -0.08725783973932266, 0.013595351949334145, -0.0921526774764061, 0.006659756414592266, -0.07636542618274689, -0.06463415175676346, -0.06964004784822464, 0.05770278722047806, 0.07816211879253387, -0.03201480209827423, 0.03473935276269913, -0.09758345782756805, 0.021674830466508865, 0.025805603712797165, 0.08514996618032455, -0.036204706877470016, -0.04352901130914688, -0.013766961172223091, -0.005018031690269709, -0.1750481277704239, 0.06537682563066483, 0.06601833552122116, -0.025528160855174065, 0.04508642107248306, 0.07295553386211395, 0.02034970559179783, -0.017501043155789375, -0.09506507217884064, -0.01771577261388302, -0.04927634447813034, -0.08897846192121506, -0.03952644392848015, 0.08236715942621231, 0.057181622833013535, 0.10049739480018616, -0.044845495373010635, -0.04856583848595619, -0.09650907665491104, -0.08931048959493637, -0.06722237169742584, -0.04721270501613617, 0.054577820003032684, 0.04557163268327713, 0.07070304453372955, 0.08364219218492508, -0.08764618635177612, -0.09388327598571777, -0.07663293927907944, 0.023219436407089233, 0.08938292413949966, 0.09721102565526962, -0.06883224844932556, 0.06424687057733536, -0.12707577645778656, 0.06689638644456863, 0.03756973147392273, 0.09588111937046051, -0.007575233466923237, 0.08698812872171402, -0.10541224479675293, -0.0875413715839386, -0.04928067326545715, -0.01586475595831871, 0.012960504740476608, -0.1050805151462555, 0.10927179455757141, -0.09137086570262909, -0.07183912396430969, 0.06453555077314377, -0.0407508909702301, 0.06847263127565384, 0.08462661504745483, 0.05564388260245323, -0.07381319999694824, -0.08344928920269012, -0.015292804688215256, -0.011132081039249897, 0.08846178650856018, 0.034041646867990494, -0.05407368019223213, 0.00227810675278306, -0.030283061787486076, 0.0799579992890358, 0.03791661933064461, 0.025926832109689713, -0.12033150345087051, 0.10571421682834625, -0.12989747524261475, 0.017264999449253082, -0.0920502170920372, -0.04728963226079941, 0.0038509464357048273, 0.032163023948669434, 0.0981026217341423, 0.07447635382413864, 0.08935119956731796, -0.07096842676401138, 0.0751965269446373, 0.03305285423994064, 0.04317238926887512, 0.07834052294492722, -0.06773227453231812, -0.06316257268190384, 0.04166543856263161, -0.06113399937748909, -0.11458288133144379, 0.017088040709495544, 0.047830644994974136, 0.020095454528927803, 0.04300782456994057, 0.10819962620735168, 0.025834280997514725, -0.0005249300156719983, 0.031530264765024185, 0.06661030650138855, 0.03083958849310875, 0.07744165509939194, -0.0552520826458931, -0.08596300333738327, -0.03892681002616882, -0.163653165102005, 0.18309178948402405, 0.08487062156200409, 0.08834366500377655, 0.0004800825845450163, -0.008280841633677483, -0.045973341912031174, -0.02742222510278225, -0.048199716955423355, -0.0012000175192952156, 0.019140027463436127, 0.0194746945053339, 0.028019612655043602, -0.024389345198869705, -0.10201019048690796, -0.0897219255566597, -0.04267624765634537, -0.05131088197231293, -0.019007502123713493, -0.02867334894835949, -0.0018645540112629533, 0.06578142195940018, -0.010048654861748219, 0.06284428387880325, 0.12383480370044708, -0.030846070498228073, 0.04682063311338425, 0.01857203058898449, -0.06762153655290604, 0.1290275603532791, -0.030916668474674225, 0.02695067785680294, 0.1028720960021019, -0.008954565972089767, 0.008027167990803719, -0.04969543591141701, 0.05945507809519768, -0.11269683390855789, 0.057168927043676376, 0.017646318301558495, -0.006283184047788382, -0.10570600628852844, -0.01022537425160408, -0.008649737574160099, -0.025676311925053596, -0.0024691582657396793, -0.10132552683353424, 0.046898894011974335, -0.039721980690956116, -0.027874520048499107, 0.03591716289520264, -0.08424636721611023, -0.012744653038680553, -0.0813247486948967, -0.08814024180173874, -0.06444180011749268, -0.08110730350017548, -0.023395400494337082, -0.00316185737028718, 0.03158704563975334, 0.1107930913567543, 0.062428031116724014, -0.037295058369636536, -0.10130300372838974, -0.08267233520746231, -0.12379228323698044, -0.019186073914170265, 0.09374887496232986, 0.016972068697214127, 0.05801486596465111, 0.035100266337394714, -0.16390468180179596, 0.07632560282945633, -0.06815364956855774, 0.021519137546420097, 0.05107241868972778, 0.06694939732551575, 0.07442868500947952, -0.08102884143590927, 0.0010273768566548824, -0.1025087758898735, 0.037662573158741, -0.07949002832174301, -0.08531000465154648, 0.05081726610660553, -0.04525025188922882, -0.0835728794336319, 0.006294486112892628, 0.012702626176178455, 0.09630677849054337, 0.08768734335899353, 0.016373103484511375, -0.01595834270119667, 0.22189749777317047, -0.038927216082811356, 0.03602687269449234, 0.005373934283852577, 0.025733310729265213, -0.07402775436639786, -0.021197205409407616, 0.06730125099420547, -0.13819698989391327, 0.07126927375793457, -0.019336199387907982, 0.16045737266540527, -0.058898601680994034, -0.01280000526458025, -0.008854224346578121, 0.06417372822761536, 0.013338492251932621], [0.06925193965435028, -0.042227793484926224, 0.07479342073202133, -0.057049550116062164, 0.10119975358247757, 0.009152473881840706, -0.06707561016082764, 0.029356729239225388, 0.08702858537435532, -0.0011836999328806996, 0.07413376122713089, 0.017848463729023933, -0.053645387291908264, -0.012319670058786869, -0.03724291920661926, -0.22365400195121765, 0.09784029424190521, -0.011064374819397926, 0.016391128301620483, -0.05556224659085274, 0.09354270249605179, 0.048569969832897186, -0.03898158669471741, 0.08986757695674896, 0.06765635311603546, -0.023763004690408707, -0.02100955694913864, -0.045854128897190094, -0.09016264975070953, 0.05327189341187477, -0.08736442774534225, 0.004543444141745567, 0.05499822646379471, -0.10936430841684341, 0.05282265692949295, -0.06490205228328705, 0.09276871383190155, 0.14773254096508026, -0.24023573100566864, 0.1595529168844223, -0.10578756779432297, -0.030098458752036095, -0.042651645839214325, -0.04261774569749832, -0.04109251871705055, -0.2842112183570862, 0.1644948124885559, 0.05561773106455803, -0.028705094009637833, -0.03550440073013306, 0.06381994485855103, -0.0395260788500309, -0.015340734273195267, 0.1004151776432991, -0.07593710720539093, 0.10086339712142944, 0.1028144434094429, -0.06059525907039642, 0.08676019310951233, -0.12111472338438034, -0.07385285198688507, -0.00034734071232378483, 0.11810307949781418, 0.009566424414515495, 0.03500144183635712, 0.009222356602549553, 0.030588187277317047, -0.023976795375347137, -0.01069639716297388, 0.03212457895278931, 0.033351603895425797, -0.010984820313751698, -0.07891746610403061, 0.036447953432798386, -0.015624686144292355, 0.07765405625104904, -0.013308711349964142, 0.02426598221063614, -0.025100482627749443, 0.06186877191066742, 0.05009591579437256, -0.04957881197333336, 0.10063668340444565, 0.045882344245910645, 0.04535409063100815, 0.09235066920518875, -0.09916660189628601, 0.0064880321733653545, -0.0893196240067482, -0.043036069720983505, -0.08507940918207169, 0.027218319475650787, 0.07887304574251175, -0.11373917758464813, -0.055631186813116074, -0.011674805544316769, -0.07522159069776535, -0.014058979228138924, -0.04955039545893669, 0.10025867074728012, -0.09692852944135666, 0.07586237043142319, -0.07273996621370316, 0.059879325330257416, -0.07588991522789001, -0.074552521109581, 0.13177596032619476, -0.07298113405704498, 0.05358189716935158, 0.034749727696180344, 0.05395379662513733, -0.14732643961906433, -0.004977973643690348, -0.09147932380437851, -0.1028750091791153, -0.09402592480182648, 0.07873846590518951, 0.062225960195064545, -0.05200215056538582, 0.027839699760079384, 0.03840823099017143, 0.05202581733465195, -0.09021130204200745, -0.003269942943006754, -0.03055020421743393, 0.10834477096796036, -0.07322003692388535, 0.14619490504264832, 0.030096208676695824, -0.08242607861757278, -0.15545926988124847, 0.06890954822301865, 0.06573543697595596, 0.04421595111489296, 0.11540789157152176, -0.1262495517730713, -0.08463657647371292, -0.01950404793024063, 0.014083752408623695, -0.02919645607471466, 0.04015126824378967, -0.05617464333772659, 0.03022429160773754, 0.06271814554929733, 0.0635271966457367, 0.0908174142241478, 0.045372024178504944, 0.02265390381217003, -0.019115526229143143, -0.03792348504066467, 0.04138242080807686, 0.012117172591388226, 0.03970152139663696, 0.07026374340057373, -0.034275252372026443, -0.07085327804088593, 0.0939670130610466, 0.10193955898284912, 0.0025217586662620306, -0.05078548938035965, -0.0645655021071434, -0.0807197242975235, -0.022192329168319702, 0.020223181694746017, -0.07146960496902466, 0.004977972246706486, 0.244171604514122, -0.1309816539287567, 0.07656823843717575, 0.053893089294433594, -0.15025675296783447, 0.07202625274658203, -0.09215281158685684, -0.10537783801555634, -0.019243046641349792, 0.06291311234235764, -0.0897161215543747, 0.11041653156280518, 0.039702191948890686, 0.0987253487110138, 0.019032930955290794, 0.022801632061600685, -0.10177607089281082, 0.252164363861084, 0.10556729137897491, 0.014538845047354698, 0.10612165182828903, -0.07440995424985886, 0.026158912107348442, -0.1461983323097229, 0.14650121331214905, -0.056808728724718094, -0.021053371950984, 0.08147589862346649, 0.03362768515944481, 0.032099127769470215, -0.019310055300593376, 0.0865054577589035, 0.12669482827186584, -0.14257916808128357, 0.007052501663565636, 0.00398680754005909, 0.07343756407499313, -0.11213687062263489, -0.011872919276356697, -0.09667009860277176, 0.06938818097114563, -0.1686149686574936, -0.0369890071451664, 0.043292008340358734, 0.04144340753555298, 0.06783760339021683, -0.06449949741363525, 0.04579923301935196, -0.13333788514137268, 0.08301616460084915, -0.005564655177295208, -0.06747975945472717, 0.03586456924676895, -0.06530414521694183, 0.08213802427053452, -0.038162171840667725, 0.05100877583026886, -0.16861380636692047, -0.08156444132328033, 0.08873751014471054, -0.050602026283741, -0.034364160150289536, -0.023218782618641853, -0.08965755254030228, 0.07844561338424683, -0.10099201649427414, -0.06814634799957275, -0.058329299092292786, 0.14886412024497986, -0.07272569090127945, -0.03541850298643112, -0.060947440564632416, 0.19250448048114777, 0.027734389528632164, 0.06668780744075775, -0.07690313458442688, -0.010492010973393917, -0.025079870596528053, -0.10923895239830017, -0.007650050800293684, 0.0683867484331131, -0.022849127650260925, -0.09759745746850967, 0.08347947895526886, -0.08517193794250488, 0.021176617592573166, -0.09759241342544556, -0.008166625164449215, -0.08391822129487991, -0.04775276407599449], [-0.10664942860603333, -0.01374974474310875, 0.11647936701774597, -0.022810399532318115, -0.03732159361243248, 0.09785249829292297, -0.1073925644159317, -0.05276208370923996, -0.09651922434568405, -0.10879632085561752, 0.0312640555202961, 0.07761536538600922, 0.015667706727981567, -0.06365260481834412, -0.010919502004981041, -0.18023712933063507, -0.009587367065250874, -0.09806624799966812, -0.08213214576244354, -0.05916232988238335, 0.07385767251253128, -0.04204846918582916, 0.06205705180764198, -0.09238173067569733, 0.05954090133309364, -0.040410254150629044, -0.11317721009254456, 0.0770660862326622, -0.04240813106298447, 0.06033189594745636, 0.03476042300462723, -0.0628305971622467, 0.03610876575112343, -0.09342729300260544, 0.0064433482475578785, 0.03578459843993187, 0.09820452332496643, 0.006903139408677816, 0.03516307473182678, 0.10586672276258469, 0.05052507668733597, -0.015745969489216805, -0.017237670719623566, -0.010811383835971355, -0.06860131025314331, 0.04044993594288826, 0.09818940609693527, 0.035400908440351486, -0.09959534555673599, -0.052568648010492325, 0.02294817753136158, 0.07930638641119003, -0.07704116404056549, -0.0613674595952034, 0.04351341724395752, 0.10398178547620773, 0.05229727551341057, 0.031185511499643326, -0.016180217266082764, -0.0363924503326416, 0.09061972051858902, -0.09315041452646255, 0.010612130165100098, 0.03290587663650513, -0.013285798951983452, 0.04230906814336777, 0.0104800034314394, 0.0115608349442482, 0.03148128464818001, -0.08439590036869049, 0.04693388193845749, -0.10757709294557571, -0.05714024603366852, -0.04914563521742821, -0.007061865646392107, 0.07151107490062714, -0.088526152074337, -0.013982848264276981, -0.03852960467338562, -0.0009727137512527406, -0.09024810045957565, 0.08270088583230972, -0.10030093789100647, 0.1285303384065628, 0.03573281317949295, -0.01661108434200287, -0.07747996598482132, 0.05196984484791756, -0.10314306616783142, -0.06720675528049469, 0.07837862521409988, -0.06533905118703842, 0.05518891662359238, 0.041162703186273575, -0.026027929037809372, 0.08795638382434845, 0.060384590178728104, 0.11130109429359436, -0.07196077704429626, 0.024726008996367455, 0.10363317281007767, 0.12851914763450623, 0.03221466392278671, 0.06198444962501526, -0.022645846009254456, -0.028353625908493996, 0.02578360214829445, 0.0751480683684349, -0.0013139223447069526, -0.0030301420483738184, 0.007242782041430473, -0.07042797654867172, 0.011170792393386364, -0.011863882653415203, -0.11398251354694366, 0.030521223321557045, -0.053773052990436554, -0.054361242800951004, -0.06959205120801926, -0.11310778558254242, 0.08163471519947052, -0.07898038625717163, 0.08173256367444992, 0.02774869091808796, -0.10530850291252136, -0.07423458248376846, -0.03710450604557991, -0.04404081031680107, -0.05501987412571907, 0.09278392791748047, -0.004021034110337496, -0.02713269740343094, -0.003920252434909344, 0.038343701511621475, -0.021598150953650475, -0.019120043143630028, 0.035271428525447845, -0.07685041427612305, 0.005680582486093044, -0.051730018109083176, -0.08356306701898575, 0.07899121940135956, -0.059398796409368515, -0.08815091848373413, -0.029198629781603813, -0.04970494285225868, 0.03141478821635246, 0.06405528634786606, -0.026607148349285126, -0.05463936924934387, 0.027493834495544434, 0.08862912654876709, 0.1075974628329277, -0.0031333095394074917, -0.04903729259967804, 0.05089018493890762, 0.04781638830900192, 0.04865109547972679, -0.06635230779647827, 0.010196182876825333, 0.021221527829766273, -0.10429949313402176, 0.11219336092472076, -0.04655234515666962, 0.10376176983118057, 0.0709521472454071, -0.14436419308185577, 0.2373979240655899, 0.014028155244886875, 0.017042867839336395, 0.03726891800761223, 0.12088225036859512, 0.030617479234933853, 0.06815136969089508, 0.09656167775392532, -0.07812181115150452, 0.020723611116409302, -0.008596362546086311, 0.011229632422327995, -0.032252147793769836, 0.011398802511394024, 0.09601340442895889, 0.023849844932556152, 0.05915696546435356, -0.01770029403269291, -0.14238806068897247, 0.17922882735729218, -0.13679614663124084, -0.05308619514107704, 0.05108393728733063, -0.048979490995407104, -0.04138887673616409, -0.05867040157318115, 0.040050916373729706, 0.051721785217523575, -0.050048958510160446, -0.04953061789274216, 0.014702445827424526, -0.011099051684141159, -0.011375358328223228, -0.06782588362693787, 0.07831941545009613, -0.017345229163765907, -0.046500664204359055, 0.051396019756793976, -0.12467952072620392, 0.2015029788017273, -0.14176273345947266, -0.017954517155885696, 0.08639530837535858, -0.043695855885744095, 0.13076812028884888, -0.03796534985303879, -0.01046938356012106, -0.04325119033455849, 0.03508368507027626, 0.007806276436895132, -0.03068454936146736, -0.03646562993526459, 0.05883891507983208, 0.038095176219940186, 0.023846300318837166, -0.11980698257684708, 0.10255143791437149, -0.045918479561805725, 0.050757963210344315, -0.04063616693019867, -0.012146326713263988, -0.10241866856813431, -0.03145398572087288, 0.08113149553537369, 0.0945904403924942, -0.1059427335858345, 0.12606362998485565, -0.09468188881874084, 0.13355422019958496, 0.09796541184186935, 0.07674281299114227, 0.07731068134307861, 0.07882146537303925, -0.010084137320518494, -0.15013596415519714, 0.10063362121582031, -0.032544199377298355, -0.10510692000389099, 0.04342521354556084, -0.08531630039215088, -0.06665481626987457, 0.06853549182415009, -0.004603852517902851, -0.06950255483388901, 0.040337227284908295, 0.06880804151296616, 0.026242615655064583, 0.02045495994389057, 0.13054592907428741], [-0.04375641793012619, -0.061988942325115204, 0.04428621008992195, 0.07891778647899628, -0.07454889267683029, -0.07109738886356354, -0.07300956547260284, 0.01010956335812807, -0.06845632195472717, -0.04398193582892418, 0.053704287856817245, -0.07265577465295792, -0.08635871857404709, -0.010325789451599121, 0.03594550862908363, -0.04838165268301964, -0.0033679292537271976, 0.07793772220611572, -0.03382460027933121, -0.07616985589265823, 0.028418025001883507, 0.051794156432151794, 0.062451884150505066, 0.1298585683107376, -0.09165637195110321, 0.03328750282526016, -0.11405011266469955, -0.025239646434783936, -0.09410882741212845, -0.07719049602746964, -0.04329833388328552, -0.09335864335298538, 0.09836217761039734, 0.04056727513670921, -0.03135299310088158, -0.07410278916358948, -0.04941783845424652, 0.04874839261174202, 0.1030920147895813, 0.04814142361283302, -0.03140967711806297, -0.008148765191435814, 0.0814305990934372, -0.10072308778762817, 0.010971332900226116, 0.0629403367638588, -0.024543236941099167, 0.10922010242938995, -0.048208802938461304, 0.10544891655445099, 0.06445267796516418, -0.04493999481201172, -0.021999893710017204, -0.10329168289899826, 0.09952741861343384, -0.17234010994434357, -0.04222821071743965, 0.009324537590146065, 0.0751740038394928, 0.07231617718935013, 0.008750648237764835, -0.08787889778614044, -0.015870025381445885, 0.16045962274074554, 0.10382640361785889, 0.06099717691540718, -0.08442602306604385, -0.04777810350060463, 0.023754559457302094, -0.08415708690881729, -0.04839096963405609, -0.01768530160188675, 0.09483380615711212, -0.0037118743639439344, -0.09739753603935242, 0.16735458374023438, 0.05619009956717491, -0.018490120768547058, -0.015555983409285545, -0.018465353175997734, 0.09851952642202377, 0.03353617340326309, 0.033426880836486816, 0.04362872615456581, 0.023023735731840134, 0.017106836661696434, 0.07491078227758408, -0.029110580682754517, -0.007430535741150379, 0.0016942756483331323, -0.050970666110515594, 0.06639467924833298, -0.016483765095472336, -0.0008331299177370965, -0.1176101341843605, 0.11358212679624557, -0.06881622225046158, 0.08519890159368515, -0.08123856037855148, 0.00591879989951849, 0.0953073501586914, 0.001678601955063641, 0.011769833043217659, -0.03159821778535843, -0.07062108814716339, 0.04973050206899643, 0.05573928728699684, 0.055463001132011414, -0.10326066613197327, -0.01589212939143181, -0.008149578236043453, 0.017672378569841385, -0.0903206542134285, 0.05015912279486656, 0.010001787915825844, 0.022139552980661392, 0.09588270634412766, -0.03234700858592987, 0.03362894430756569, -0.11998589336872101, -0.05702618882060051, 0.06628984957933426, 0.017831889912486076, -0.05465308949351311, 0.04753732681274414, 0.02320328913629055, 0.144279345870018, -0.0019283147994428873, -1.9889512259396724e-05, 0.01410380657762289, -0.05681221932172775, 0.0018053457606583834, 0.05380621179938316, -0.09192246943712234, -0.01838303543627262, -0.058103758841753006, -0.05149322375655174, 0.045265406370162964, 0.08014571666717529, 0.03965754434466362, -0.09206525981426239, 0.07091459631919861, 0.07180726528167725, 0.02537541277706623, -0.011866288259625435, -0.09424767643213272, 0.1419467329978943, -0.011100534349679947, 0.1050550565123558, 0.07954571396112442, -0.06021612510085106, -0.08686167746782303, 0.024833979085087776, -0.027127031236886978, -0.015961455181241035, 0.1273818463087082, 0.07450748234987259, -0.04739474505186081, -0.038260795176029205, -0.034286875277757645, 0.06514919549226761, 0.019433608278632164, 0.04560443013906479, -0.0641879141330719, -0.048936646431684494, -0.04747333377599716, 0.022320296615362167, -0.0566142275929451, -0.03241436555981636, 0.0853729397058487, -0.04649459943175316, -0.02121405117213726, 0.0986897274851799, 0.008391019888222218, 0.13560032844543457, -0.05594591423869133, 0.003001299686729908, 0.05071386322379112, 0.011340774595737457, -0.08657393604516983, 0.09961938858032227, -0.09152510017156601, -0.06466219574213028, -0.19060570001602173, -0.027676472440361977, 0.020357780158519745, 0.11609375476837158, -0.05112530663609505, 0.03621886298060417, -0.07733015716075897, -0.02845757268369198, 0.03325444832444191, -0.01008586399257183, 0.07476756721735, 0.02290772832930088, -0.07475306838750839, -0.06490612775087357, 0.047781236469745636, -0.017371948808431625, -0.07571342587471008, -0.05439743399620056, 0.10324906557798386, 0.08096253871917725, -0.0918128564953804, 0.0035516705829650164, 0.009126857854425907, 0.011088910512626171, 0.021493123844265938, -0.06333968788385391, -0.14785782992839813, 0.03217786177992821, 0.0007535016629844904, 0.04674297198653221, -0.04088025167584419, -0.06235487386584282, -0.0033077506814152002, 0.03496086969971657, -0.05908701568841934, 0.019120970740914345, 0.07360733300447464, 0.023978393524885178, 0.06524784117937088, 0.0034834067337214947, -0.05809552222490311, 0.06735323369503021, -0.06875377148389816, 0.004029564093798399, 0.11759302020072937, 0.08810169994831085, -0.05583991855382919, -0.09274928271770477, 0.02855595387518406, -0.02764548920094967, 0.04074999690055847, -0.0347440242767334, 0.1616389900445938, 0.04468073695898056, 0.09252268821001053, 0.027942370623350143, 0.16283230483531952, 0.08664955198764801, -0.0022185116540640593, 0.04176050424575806, 0.020915845409035683, 0.007063361816108227, 0.018109850585460663, -0.02764648199081421, -0.0028889416716992855, 0.004129576031118631, -0.029219983145594597, 0.012979731895029545, 0.03502229228615761, 0.06273707747459412, 0.042220309376716614, -0.09532774984836578, -0.05816073343157768], [0.07321564853191376, -0.000882038613781333, -0.010302651673555374, 0.09552055597305298, 0.005591743625700474, 0.08244503289461136, 0.02718529850244522, -0.02120305597782135, 0.022685673087835312, -0.06652451306581497, -0.04499516636133194, -0.09078072011470795, -0.05846450850367546, -0.013303856365382671, 0.06616596132516861, 0.10726868361234665, -0.04412604123353958, 0.003669645870104432, 0.024740848690271378, -0.01554002333432436, -0.0708676129579544, -0.00901450589299202, -0.07017850130796432, -0.02099236287176609, 0.09173192083835602, 0.1305815577507019, 0.022424427792429924, 0.054388854652643204, -0.04703367128968239, 0.10939773917198181, -0.05524718016386032, -0.013973272405564785, -0.07156867533922195, 0.0560162328183651, 0.09027402848005295, -0.02821444720029831, 0.09423018246889114, 0.005681859795004129, 0.09745030850172043, -0.020787740126252174, -0.009634017944335938, -0.011268382892012596, 0.0054977512918412685, 0.07258796691894531, -0.08603430539369583, 0.031265951693058014, -0.018507536500692368, 0.1667097508907318, 0.01621115766465664, -0.06355246901512146, 0.043448660522699356, 0.022683490067720413, -0.07153362780809402, 0.09152942895889282, -0.10053904354572296, 0.059533338993787766, 0.03759874776005745, -0.08427443355321884, 0.025553466752171516, 0.05494504049420357, -0.04381142184138298, 0.10548701882362366, 0.0170536320656538, -0.01384938694536686, -0.00996248796582222, 0.03921975940465927, 0.0859658271074295, 0.016761641949415207, 0.05502195283770561, -0.006504508201032877, 0.06212301179766655, -0.05946916714310646, -0.02527000568807125, 0.07148757576942444, -0.1214640885591507, 0.02322830632328987, -0.0840369462966919, -0.0406477227807045, 0.06457603722810745, -0.0497981458902359, 0.05790417268872261, -0.027926834300160408, -0.044181350618600845, -0.06411855667829514, -0.09326443076133728, 0.048258256167173386, -0.08527291566133499, 0.004162244964390993, 0.021007176488637924, 0.0037857990246266127, -0.010802797973155975, 0.07602192461490631, -0.0409710556268692, 0.09540561586618423, -0.09060946106910706, -0.028725462034344673, -0.07042469084262848, 0.014389637857675552, 0.08333637565374374, -0.0671720802783966, 0.0640254020690918, -0.039070066064596176, 0.1174272671341896, -0.10046786069869995, -0.07146015018224716, -0.006174206733703613, -0.10678791999816895, 0.014276213943958282, -0.09847477823495865, 0.04685709998011589, -0.05056006833910942, -0.002022538334131241, -0.05141651630401611, 0.019890159368515015, -0.03514662757515907, 0.04163292050361633, 0.0017933750059455633, 0.09204956889152527, -0.05931781232357025, 0.10008449852466583, 0.09242352098226547, 0.04714449122548103, 0.030163105577230453, 0.041976362466812134, -0.04933751001954079, -0.04128696024417877, -0.03401818498969078, -0.15071235597133636, -0.05067804083228111, -0.12036534398794174, 0.07696304470300674, -0.09822802245616913, 0.0025042362976819277, 0.07589081674814224, 0.0553639717400074, 0.060439810156822205, 0.10625904053449631, 0.014739485457539558, -0.047641146928071976, -0.020703129470348358, -0.03594695031642914, 0.06299065798521042, 0.041852109134197235, -0.022906241938471794, 0.00882831308990717, 0.05266520753502846, 0.07549376040697098, 0.03528830409049988, 0.08967121690511703, -0.07822994887828827, 0.06928905844688416, 0.05572465807199478, -0.09271370619535446, 0.04986226186156273, 0.03056906722486019, -0.021430648863315582, 0.04967186227440834, -0.00040620454819872975, 0.06590276211500168, 0.1201481893658638, 0.10416030883789062, 0.07157163321971893, 0.04349949210882187, -0.11845845729112625, -0.06397169083356857, -0.0189430620521307, -0.013792418874800205, -0.017368623986840248, 0.009306912310421467, -0.059681236743927, -0.03481394425034523, 0.001372177037410438, -0.00564952939748764, 0.05311513692140579, -0.03303120657801628, -0.040603939443826675, 0.04223359003663063, 0.037990421056747437, 0.05247941240668297, 0.09522517025470734, -0.06746616959571838, 0.04038695618510246, 0.07205824553966522, 0.03577547147870064, -0.08066411316394806, 0.01948232762515545, -0.09566165506839752, -0.021126559004187584, -0.08373422175645828, 0.06498139351606369, -0.08283834159374237, -0.06241019815206528, 0.07646368443965912, -0.026287058368325233, 0.054594676941633224, -0.03176961466670036, -0.04741412773728371, -0.019526079297065735, 0.1266658902168274, -0.18179050087928772, -0.04628312960267067, 0.09996960312128067, 0.013136392459273338, -0.053315479308366776, -0.0730447769165039, -0.06377328932285309, -0.09522143006324768, 0.01755724661052227, -0.0756133422255516, -0.055543240159749985, -0.017334386706352234, -0.030191052705049515, 0.10447531193494797, -0.07598570734262466, 0.06449291855096817, 0.057065676897764206, -0.010496553964912891, 0.02581670880317688, -0.04070376232266426, 0.015522848814725876, 0.017025776207447052, 0.10169892013072968, -0.10376642644405365, -0.006759419105947018, 0.032139599323272705, 0.06151118874549866, 0.013547597452998161, 0.09421291202306747, 0.07892300188541412, -0.021976472809910774, -0.04875754937529564, -0.025311557576060295, 0.08564519882202148, 0.1141151413321495, -0.16776475310325623, 0.04581867903470993, -0.09326936304569244, 0.09381289780139923, -0.058728285133838654, -0.05595310404896736, -0.04406013712286949, -0.04186014458537102, 0.09125100821256638, 0.010601209476590157, -0.0450613796710968, -0.015948262065649033, 0.07474696636199951, 0.011699417605996132, 0.027373487129807472, 0.050465866923332214, 0.04961545020341873, -0.009610455483198166, 0.016843779012560844, -0.08526734262704849, 0.12895485758781433, -0.0030751125887036324], [0.04359234869480133, 0.0614776648581028, -0.14741355180740356, -0.008629883639514446, 0.06301704794168472, -0.08583063632249832, -0.005514082498848438, -0.010225975885987282, -0.024985574185848236, 0.0009296500938944519, -0.1073383167386055, -0.045005373656749725, 0.06325158476829529, -0.09523490071296692, 0.05118884891271591, -0.028278322890400887, 0.08801176398992538, 0.08111579716205597, 0.023305758833885193, 0.012277319096028805, 0.10261943936347961, 0.12743568420410156, -0.14537625014781952, 0.08688072115182877, -0.051184047013521194, -0.04885983094573021, 0.031422894448041916, -0.044892389327287674, -0.09950846433639526, 0.08506671339273453, 0.07756664603948593, -0.04856404289603233, -0.018640931695699692, -0.06083286181092262, 0.11057442426681519, -0.08462239801883698, -0.09193740785121918, -0.07323215156793594, 0.11718207597732544, -0.07152474671602249, 0.05441706255078316, -0.009525219909846783, 0.01632065698504448, 0.0008843444520607591, 0.06937246769666672, 0.0560276098549366, -0.02580191195011139, 0.027043059468269348, 0.025041954591870308, 0.12880773842334747, 0.0170902106910944, 0.10242433845996857, -0.06214282661676407, -0.034159231930971146, 0.05011767894029617, 0.011388973332941532, -0.10536398738622665, 0.07581546902656555, 0.04966570809483528, -0.13004130125045776, 0.05892495438456535, -0.006479182746261358, -0.08302062004804611, 0.1497492492198944, -0.09314744919538498, -0.07409654557704926, -0.021109864115715027, -0.043913040310144424, -0.09135986864566803, -0.008997922763228416, 0.012139316648244858, 0.0659814402461052, 0.08198676258325577, -0.10790648311376572, -0.026459993794560432, -0.12037093192338943, -0.08077335357666016, 0.012987439520657063, 0.06984089314937592, 0.09606518596410751, -0.056176185607910156, 0.07989131659269333, 0.058111995458602905, -0.062208957970142365, -0.08425822108983994, -0.05173712596297264, 0.06739816069602966, 0.044626206159591675, 0.0981646180152893, 0.08742226660251617, 0.0859394520521164, -0.015453903004527092, -0.06319011002779007, -0.09540514647960663, 0.00038693618262186646, -0.11172517389059067, -0.10679709911346436, -0.06967432796955109, 0.10747084766626358, -0.050445593893527985, 0.07722989469766617, -0.07505865395069122, 0.01078796572983265, -0.010831600986421108, 0.019274918362498283, 0.01553315483033657, 0.07915110886096954, -0.05750751122832298, 0.048971839249134064, -0.03520331531763077, 0.07005709409713745, -0.05816636234521866, -0.07973752170801163, 0.008302271366119385, -0.0025825421325862408, 0.02721291221678257, 0.039868444204330444, 0.02704530954360962, -0.005429638084024191, -0.05816158652305603, -0.05016713961958885, -0.12671975791454315, 0.17976433038711548, 0.00595860043540597, 0.00031869401573203504, -0.033128153532743454, -0.03924122452735901, 0.014605071395635605, 0.09970682859420776, 0.023834234103560448, 0.06145388260483742, -0.08383212983608246, 0.009038577787578106, -0.033631544560194016, -0.019857684150338173, -0.06496277451515198, -0.023744313046336174, -0.019452687352895737, 0.03822009637951851, 0.025351641699671745, -0.07442057132720947, -0.07202764600515366, 0.023031694814562798, -0.058868374675512314, 0.04735314100980759, 0.022065546363592148, -0.24759143590927124, 0.12659193575382233, 0.08044733107089996, -0.014948959462344646, 0.07116782665252686, -0.04305562004446983, 0.09683661162853241, 0.034183744341135025, 0.08313384652137756, 0.03379487618803978, -0.022984128445386887, -0.08105327934026718, -0.037098053842782974, -0.11814620345830917, -0.01301162876188755, -0.10015591233968735, 0.022316036745905876, 0.00424561882391572, -0.06668748706579208, -0.05624925345182419, -0.02655869536101818, 0.027741331607103348, -0.019947219640016556, 0.019156400114297867, 0.011068908497691154, -0.052750781178474426, 0.07480962574481964, -0.07201946526765823, 0.08509177714586258, -0.10876808315515518, -0.10753121227025986, -0.05212699621915817, -0.01601804606616497, -0.08327978849411011, -0.04765954613685608, -0.002040612045675516, -0.04809343442320824, -0.0911555364727974, -0.018566593527793884, -0.1334076225757599, 0.11820830404758453, -0.098837710916996, -0.0290269386023283, -0.06085210293531418, 0.024672146886587143, 0.011680619791150093, -0.10151970386505127, 0.10282451659440994, 0.07683975249528885, -0.037424396723508835, 0.013715961948037148, -0.08171315491199493, -0.035877034068107605, 0.07875393331050873, -0.10344536602497101, -0.013692202046513557, 0.06521544605493546, -0.09025681763887405, -0.009733512066304684, -0.061363283544778824, 0.020341238006949425, -0.10436580330133438, -0.10662321001291275, -0.05344029515981674, -0.04902184382081032, -0.01621180959045887, -0.10144100338220596, 0.0023829136043787003, -0.01552655454725027, 0.044502969831228256, 0.022109635174274445, -0.05050937086343765, 0.020298650488257408, -0.0318097285926342, -0.01484210230410099, -0.04340510442852974, 0.0066251326352357864, 0.07856731861829758, 0.07847613841295242, 0.07149191200733185, -0.015375392511487007, 0.06945952773094177, -0.09866970777511597, -0.13020828366279602, 0.08044933527708054, -0.0299964789301157, -0.08778280019760132, -0.04647938534617424, -0.023838618770241737, 0.23116101324558258, 0.017269011586904526, -0.028157956898212433, -0.16915056109428406, 0.09655953198671341, 0.07296477258205414, 0.012240300886332989, -0.004853185266256332, -0.14857260882854462, 0.037132229655981064, 0.07530364394187927, -0.021816309541463852, -0.10081534087657928, -0.0386485829949379, 0.07931346446275711, -0.0543372705578804, 0.06509067118167877, -0.047988589853048325, 0.06715195626020432, -0.009564736858010292, 0.09482008963823318]]